solver_type L2R_L2LOSS_SVC_DUAL
nr_class 4
label 0 3 1 2
nr_feature 26620
bias -1
w
-0.47473601124507225 0.58023797509870267 -0.66927525855844749 -0.77205468101858643 
-0.034515977747472296 0.026264171670594642 -0.048337174718389553 -0.088765468479691439 
-0.076467620781851001 0.043465498021658333 0.0027793471933136088 -0.069494218957796255 
1.1763710017966644 -0.78163242745001382 -2.0932159010796094 -0.00027222460839370494 
0 0 0 -1.5866577765793235 
-0.14038984795196549 -0.5063898412565786 0.36444501040914495 0.41885158327106559 
3.0241947093220194 -2.4444183698465847 -4.3689640472907803 -1.2022185993742016 
-0.030841023563245754 0.00091518777908101631 -0.052797552991680222 -0.086465661056934581 
0.053621402828704784 -0.43649602602427373 -1.3237226410393257 1.0834507773766027 
-0.030998273415604443 -0.046732765203126081 -0.0025335143393334521 0.012796849048060766 
-0.10244933704128233 0.035302970246974943 -0.00013895519731598827 0.0034610706112176634 
-0.37065216988780642 -0.48485404314019864 0.69740239178031804 0.19475641646278885 
0.019401940814739414 -0.067200551219194618 0.12243515504482533 -0.14392764551250631 
0.036100297426921425 0.072190583262621899 -0.12609754002242668 -0.18415166846537567 
-0.094410197345862895 0.021335976759930077 0.12292701450463993 -0.022747149641433543 
-0.19092236307361823 0.17200231489017773 -0.18061915870195652 -0.20793952344243791 
-0.20179800947845328 -0.49760165422647468 0.52657124602622774 0.2852977942777008 
0.076006053182291533 -0.0046086250513359137 -0.061030564059927142 -0.17936005564649171 
1.4093878831383284 -1.399496463029863 -0.93274687242320298 1.5494274872331082 
0.10951778253979072 -0.26573419612922033 -0.7475538484378571 0.44588159884006168 
0.043972262325099584 0.065137500351511182 -0.25647962780204997 -0.25158563563954928 
-0.26726458536113989 0.32177298735997845 -0.43272648574630579 -0.50045893410221054 
-0.15525863844061827 -0.4136562645986181 0.46538916928487212 0.14117626938432359 
-0.35868184940844716 -0.21436644817640799 0.31876362372403355 -0.41230504824966202 
-0.52831342099982359 0.2053584870644613 -0.27598949186100874 0.46490689092058862 
-0.3867825721556401 0.47600979930217402 -0.43874700863138782 -0.72045534910313891 
-0.11483123346389972 0.15643999262170116 -0.12413406170604686 -0.19566119083064284 
-0.0029250307518728005 -0.020951442141045683 0.056716421277470473 -0.11819178781337988 
-0.069117403235193359 -0.34381470825603361 0.27108875537307769 0.0091495893100940317 
-0.093454611801939647 0.024397536599476726 -0.056363463908632797 -0.13613247032836859 
-0.17646840562228627 0.12790764769329793 -0.030084538332882989 -0.093052405594992157 
-0.12489881547638321 0.10197098304984571 0.012226070764241063 -0.093953010107192328 
0.19943645485891454 -0.8172744876647956 0.86396880852296132 -0.071973661877356196 
0.09545282182658385 -0.10641779048464073 0.14374598069247746 0.058367009399757669 
-0.17678782523531753 0.065085788369350778 0.21502969941060385 0.034101356746389859 
1.0408340855860843e-17 -0.76678598856147484 1.1683641654912644 -0.922245213299412 
0 -0.33688457409609485 2.4980018054066022e-16 0 
-0.014948847122271878 -0.0037903779692696534 -0.088052408548036198 -0.040176996309109973 
0.13182869710216963 -0.040013560386530769 -0.13292615989191064 -0.1091932510310933 
-1.5369807280708434 -0.26927794292519758 0.51272321309336122 0.475299714669424 
-0.24875639854310019 0.08530112217959486 0.042672282200333769 -0.18341220587082901 
-0.08687476940855364 -0.38519635533257379 0.46958981034891334 0.0010312455923564567 
-0.49301969804857154 0.95846777657434545 -0.9419135905981455 -0.51930676967505307 
0.017294999789525339 0.047014524565190563 -0.05109761442367465 -0.15588602411192068 
-0.60186922671881049 0.94815250582538446 0.25702560054862666 -0.047112018978956997 
-0.48688474106833479 0.54740598690040443 -0.55991258359495233 -0.80586375144072808 
-0.47711387300731312 0.60300448072876134 -0.6895180076969043 -0.74052026237905932 
-0.20451538667693453 0.25081199372623969 -0.40943913877885774 -0.42298204306543663 
-0.94573680632793788 0.81806490989310054 -0.88072831603847002 -0.96769172357354805 
0.021470699498464973 -0.10047437197042929 -0.0019683295486149967 -0.093318587123028637 
-0.023803574736966242 0.27571936139742748 -0.22793925372318255 -0.41818401576398379 
2.9666140702254822 -1.9704145062519545 -2.4434709526505256 -1.0875023354077817 
2.511940069887995 -1.6807261318292563 -1.0353707575128299 0.40262787545016576 
-0.053213075502872534 0.098430558492978049 -0.057571541738582845 -0.12359856440693333 
-0.12078022674751572 0.056766239583159114 -0.10114996298955349 0.0071258966764665959 
-0.021915146445711423 0.26393501492846716 -0.79776713328270299 0.65800393666172963 
0.10069210543446469 -0.81143911175884209 0.96568106166713441 -0.015058603721732492 
-0.028780468578897732 0.027385264694936406 -0.037596505001342248 -0.038778752659580515 
0 -1.3152439751762777 -0.46667952796432588 2.3910201774957605 
-0.039999452912959872 -0.018150349841950731 0.011735510399761215 0.040417465479852616 
-0.047037067534664627 0.0057505242743226886 -0.070279758292296074 0.057153285486772232 
0.15446643428324727 -1.6577757352180593 0.75098691337236145 -1.3853395169661351 
0.25187916975114222 -0.53193545612435278 0.44399010464822125 0.040714562555207931 
0.016098338868619014 0.064831592919049719 -0.02453035960855153 -0.10987969740867848 
2.0055352967585298 -0.77623569894537692 -0.3843730263150979 -0.45643440196519608 
-0.19028030315167085 0.14550687032248685 0.24927146648375834 -0.5200067102680247 
0.064282588480857994 -0.076760456302308627 -0.27780959936788907 0.56516559302616909 
-0.10992229652412033 -0.34163243634546869 0.81971482283018726 -0.27026577722877426 
-0.039462341919433652 0.0094807954547135153 -0.041648200722792648 -0.016291194550769866 
0.01106097758250355 0.049499844519803507 0.054195885893351711 -0.20321342722894647 
-0.18341209078933851 -0.37673163969432327 -0.94709747522881504 0.677856070590513 
-0.78314756209440595 -0.2075845859014781 -1.4118520802838319 1.5132253364682806 
-0.1636396923296497 0.57091921730484307 -0.45032023825134537 -0.27324632853850878 
-0.0083116342576300285 -0.44249561788129849 0.55337936004704569 0.0025613166329306828 
-0.3561530903651674 0.32068766515599839 -0.32090794000808992 -0.42374953474643107 
-0.34521574211371447 0.034754078135187931 0.12029873947300364 0.13609817852720363 
-0.44166945117098694 -0.40506162687056685 0.69647059433010983 0.034383969074236208 
-0.086795894178263805 0.077402899640725262 0.59824048582293621 -0.95295941630000325 
0.017324637484290552 -0.16523943914857092 0.28042367375000632 -0.67689611444075659 
-0.16167925750301668 -0.54241841204041008 0.78465967376156998 -0.028943737164787754 
-0.11051775719801669 -0.01107214658044346 -0.16295018602381686 0.096997715398623813 
3.2279646440151502 -2.0800036203473296 -4.2227809233909595 -2.7026039308767755 
0.46220345110902583 -0.54722071565298913 0.7303677239424391 -0.043825800317698782 
-0.0016518822392336012 -0.019629203498480473 0.051969895256183826 -0.012842016928209141 
0.61593734058226468 -0.41603309868425203 -0.45924787920265053 -0.83683868062956568 
-3.4694469519536142e-18 0 0 0 
-0.12190764606509849 1.0582258039847918 0 -0.017035166233918746 
0.39004321116707347 -0.46315840956511922 -0.026412472956257843 0.59333353105105524 
-3.4694469519536142e-18 0 0 0 
0.024813807984826793 -0.57657011481056497 0.54313820882822694 0.19884623640566854 
-0.29818112243440631 -0.20271371274470495 0.31835936951273158 -0.23826881608302153 
0.021757479300359928 0.096678886757937427 0.017375412099437194 -0.19941675929169023 
-0.010607072738257686 0.0031064060716386689 -0.12051637274340433 -0.039243624573700585 
0.0048177502409015218 0.32024283641144013 -1.1546555863739654 0.28268910090207805 
0.022023866836579149 -0.10159573466021779 0.11922140201788577 -0.25237468886318537 
0.06558526724694258 0.1498202718781812 -0.33763371461633646 0.46530105087976764 
-0.043757753661406475 -0.25831130856309525 -0.89126337127452648 0.50127071344449892 
-0.35034681520229677 -0.043889488761291465 0.36743161425964443 0.10611802653956179 
-0.67791488987944304 0.60752220704252424 -0.29471586477860007 1.1621219191753704 
-0.028668744499434552 0.049716185802710144 -0.12141797357909077 -0.091319353535140368 
-0.083333485009363356 -0.40750324230569263 0.54177862074941774 -0.07714191831750232 
-0.23533950891700414 -0.40482763748810779 0.53910515842930762 0.17750429993416972 
0.2072454187382507 -0.039355956368645431 -0.28483627827365204 -0.30360803562253236 
-0.10679151989200387 -0.54056656052185525 0.68808366022429124 0.031133206496065935 
-0.076510951173233421 0.11384380341888778 -0.234881544844354 -0.12514300794288244 
-0.32170973697881056 0.14765158907557357 -0.35404726869820563 0.051371457965740157 
-0.10173526223682705 0.11412374171773824 -0.14550272002089112 -0.38983429570899963 
-0.076728948189699483 -0.042327270469268437 -1.1234256812195416 1.0706770449141036 
-0.066767952947320394 0.01121635854009588 -0.072362943593262605 -0.16713420077153859 
-0.21170634032025887 0.1111444940904214 -0.089761524976078699 -0.21461823769047828 
0.0596942986086356 -0.026605114400641099 -0.030585250881398525 -0.044925291343630082 
0.18948035201441468 0.26203693404630912 -0.093355698670643236 -0.016508356304357708 
0 -0.15761712017725951 0.19884382305875151 1.7347234759768071e-18 
-0.0793532560958361 0.012922686544770752 -0.059668534089621916 -0.082967154564578094 
-0.076209849665376819 0.24321441388544884 -0.0041019995043643197 -0.26424313856225867 
3.6255848794544994 -2.8314335177722629 -3.8503202174400597 -3.0041989157427746 
-0.11042648040768388 0.12604519050037893 -0.14911176753072761 -0.11396344601326859 
-0.046118780559010836 -0.83235173017582809 0.78884212091461137 -0.20094335111683703 
0.012326978965926773 0.10758004712252929 -0.12683428236904165 0.067811735219098862 
-0.29961175839568588 0.16630864553083285 -0.27644402449292571 -0.21301838412529184 
-0.080035027466897432 -0.1529269879333057 0.24778391211312986 0.28379842992296861 
-0.12080494276164577 0.20169394403341656 0.064290305773178458 -0.58787502246128009 
-0.38454552278169007 0.54578919058796316 -0.63288324996524226 -0.83330404029323124 
0.67677560751903443 -0.20997042835309221 -1.1390482164515585 -1.1235411476166677 
0.0020243971204666027 -0.15901849445248639 0.16778667727110963 -1.5054644258183476 
-0.10132706133365002 0.2257259451745145 -0.0088735230649583836 -0.2298462767760624 
-0.3079697205569521 0.046575716169364179 0.16756424706402573 -1.1330953218307847 
-1.0648047794519553 0.57354981372109592 -0.5379149404659791 -0.72129264434084084 
-0.42836747318440754 0.12307022622854732 0.21315889259320786 -0.36000014471566733 
0.39246817225889735 -0.5329188968977997 1.2925733843515919 -1.083004085056599 
2.743903836081484 -1.8323132900427095 -3.9310386409571043 -4.4303424814766794 
-0.23987284662939931 -0.36227701756991815 -0.72257737454690207 1.5049031323355118 
0.026529534855388854 -0.27690800002826632 0.1882567943069286 -0.35258783998554633 
-0.042832204219379916 -0.083729588617735454 -0.99288578235946634 0.4776353191464881 
-0.041436830258647646 0.16295531846590189 -0.34700150928638213 0.34819910275990834 
-0.32017744442914264 -0.65055906078659198 1.0772716018468091 0.20727991650054828 
-0.11200316089186929 -0.4314139761479121 0.62125673004544502 -0.0089996921616391102 
0.15127096961444442 0.060117959440325296 -0.090754849098889451 -0.07476591681772779 
-0.03205285904764444 -0.86230805721533654 0.95858317482863709 0.16516070177603237 
0.10462982789297334 0.1675034957695779 -0.19469846296471327 -0.20916712973476101 
-0.12331208209258318 0.22554573319753585 -0.33727570567377574 -0.087700228459361762 
-0.58286208022069197 0.54573198880210483 0.16046153546385825 -0.86346458409661508 
-0.1091168743530256 -0.05299443619399978 -1.2051059256951886 1.2090568878123562 
-0.23506965341821287 0.0090625084093904941 -0.24093998176240625 -0.24805444023163276 
0.46321469103701296 -0.37688629614189767 0.080080627718394082 0.29718604442565272 
-0.26845441945994875 0.29569420719058775 -0.56475717415782345 -0.15658144761452311 
0.032589474930694667 -0.35506890567650523 -0.76287306258564369 1.1719438992488933 
-0.12492940949310388 -0.21924542950561215 0 0.12285943155477953 
0.05711981538432373 -0.037329929780745466 0.032534807033722135 0.10183501519822778 
-0.12492940949310391 -0.21924542950561215 0 0.12285943155477953 
0.084098269848833423 -0.03981335805161007 -0.92016992066823455 0.45818475883771692 
-0.3186265323170121 -0.33748448740960468 0.47727927125442854 0.038434862578760914 
-0.12492940949310391 -0.21924542950561215 0 0.12285943155477953 
-0.27998934556351174 0.012972989759079366 0.53605738566391226 -1.1808677542598853 
0.37978662620240367 0.57533663056015494 -0.048783803990112388 -0.24313220698593818 
0.065201134352759649 -0.26535869729785594 0.35144950770692651 0.49234914407195041 
-0.23129100235463199 -0.55490676251857596 -0.22334774178425282 -0.7499136656476143 
-0.051276361186060056 0.12717522726517383 -0.55952935853670216 -0.18698592927499841 
-0.14000054632326753 -0.54936892098549295 0.68673755752679644 0.46625702109025746 
-0.15824364410079383 -0.16924664737546169 0.32976160996602116 0.075605979825913883 
-0.079561702925793273 -1.5136755712313421 0.10761331555940128 1.0719433116739217 
-0.21333879474155329 1.3195290434035927 -0.78478764851638216 -6.9388939039072284e-18 
-0.018829990457744097 0.092991085671086632 -0.21870703205389228 -0.16900402881069809 
0.10278875253004582 -0.095953873034069992 -1.6389975865352386 0.51058737755339956 
-0.11203058042710018 -0.43877115742014056 -0.034175802811833619 0.058721302447215559 
0.028350736889393137 -0.32595051674007053 -1.0304623569755222 0.81174557654747836 
0.081374556545681584 -0.49140976457582364 0.42348644030295579 0.4419107477716433 
0.0055229791813980258 -0.37109810753129979 -1.2626242775293659 0.83541229018514318 
-0.12285642361225407 0.072354548447679051 -0.077802573360139154 -0.14982358835663215 
-0.20666639842278456 -0.63338279155104205 0.44269014346983421 0.67032042804469227 
0.013724011462166164 0.17775296945765637 -0.4609842818996262 -0.29044474737693804 
-0.097270943063475029 0.14430756924232863 -0.17061445487394589 -0.24613700349592796 
0.059305603790604261 -0.28039655553305953 -0.00049769112921204187 -0.97731643426271586 
0.24991745140101576 -0.011074395891278042 -0.034505385884060234 0.3405146942767685 
-0.1305063578915287 -0.044705718617541176 0.2618281010383281 -0.14452108360767016 
0.065086314214088337 -0.12893966317386324 0.1105544015222702 0.066237694305660913 
-0.10587370750718406 -0.3267263408790369 0.36651932463184067 0.037775716663405928 
-0.24665061800027605 0.33969139959101291 -0.46069786259320711 -0.4306920437484274 
0.034897056357889457 0.00072407068971798091 0.40107037606197188 0.14921729774573134 
-0.18463947022819505 -0.29838058470637607 0.32409977276814933 -0.046340368732476711 
-0.42147287838757108 0.31504198314767828 -0.35659077062537758 -0.96649103922220414 
-0.38613211960145088 -0.33339773001258072 -0.50214906931893755 0.92173029454125732 
-0.0085995861159501221 0.11766803288287912 -0.14383034977265724 -0.13414572139802683 
0.16784881736770557 -0.71719636425771749 0.17666289166669094 0.078648042673732835 
-0.60058336985649241 -0.33620360927944481 0.46638089195516891 -0.3841031989500332 
-1.1939320071540751 0.44204128619494143 -0.15164020027653247 1.0600609316210063 
0.26541437653184818 -0.54456919909964707 -0.32049963713353657 0.083370240335794599 
-0.35403577735038694 0.17664338397910478 0 -0.0069571742224356784 
-0.2258283669018219 -0.065528639063096736 0.016194927771045753 -0.3835638502244047 
-0.37694563643618928 0.034588545870028367 -0.11000015490390283 -0.15397139216489955 
-0.21605219688502017 0.31928540698243668 -0.44731149574763646 -0.47616309748206409 
-0.56882967663907258 0.34500456093895054 -0.32380499300052024 -0.1390510524421581 
-0.068326864678261628 0.4361006161584482 -1.6167963134577272 0.62924022015610348 
-0.03674088062849052 0.15277905490900454 -0.12254690856363089 -0.13679092019028297 
0.0874852433995114 -0.24910483097106928 -0.71044675371452048 0.89640931983579786 
2.8603481691103649 -2.0104479759841132 -1.7559306297099071 -2.2987702997870447 
-0.083402321853787709 0.022347715915283325 0.040829105284346391 -0.02203395718369653 
-0.68253072557335914 0.68986754452047772 -1.1742931840195492 0.015785474254508897 
-0.15134253986741758 0.17666904072418765 -0.18701548982890792 -0.47127431139392728 
0 -0.60102478332106057 1.6854248044809685 0 
0.084153866395733787 0.11988896360124 0.29545308199126152 -1.9371068669035201 
0.20595734959001247 -0.23966238832608186 -1.2311000683597593 0.93250533571635807 
-0.32442864186804277 -0.12730287125255951 0.4308365724175901 -0.64009190415017647 
0.08304646262852261 -0.29459675826774001 0.16656648514094635 0.18525552640863785 
-0.13817372509889903 -0.48217506623413342 0.56393765980906851 -0.0019125514510581233 
-0.09377231186966789 0.10044309884638815 -0.11223518776299091 -0.11038183483287697 
-0.052373570438077693 -0.30627949840758278 -2.0052345926211093 0.65278082403614768 
-0.24065032077773787 0.49031794230266934 -1.1049232996246734 0.3955352184236221 
0.010176474773011363 0.21404299226590467 -0.14973220839749091 -0.30738779445218295 
-5.5511151231257827e-17 2.0816681711721685e-17 0 0 
-0.20598509040548901 -0.20037765479976777 0.13105723538542874 0.078528209267616847 
-0.34010659500399765 0.17435753789373712 -1.5150963546249592 1.0782443516014815 
0.10755755632461565 -0.52594456503085563 0.64782570932458095 0.27140065624440651 
0.066502991958320615 -0.24120230078598354 -1.2949748842347324 1.0417017215544284 
1.3087547501061692 -0.84416428708294078 -1.5193952699301196 0.030829006331053878 
-0.37791053446011791 -0.5986479993920294 0.22777916919070693 1.4794394775611892 
1.6351141557416826 0.62159612961775945 -0.54588766581282822 -0.67089410796425897 
0.36956477350045913 0.39078283130853897 -0.41454065230775211 -0.74310230082151396 
0.15852338647777001 -0.20165053915266909 0.024787165478763615 0.17414474578424552 
-0.2243744054290539 0.35954353485012747 -0.38311951996590832 0.031973937815168038 
-0.54539698979895013 0.59024918375116608 -0.77599105848293559 0.44456054663294009 
-0.23246012526601295 -0.045911463293631175 -0.056729638332130836 0.15987855363574516 
-0.14096337376868093 0.29476589109774681 -0.37382385997287815 -0.28836089500124701 
-0.16485940603143673 -0.3241494149236227 -0.43834923378874807 0.79265742730980393 
-0.14918950026906824 -0.32088054779458486 0.3980180404751773 -0.18958231846644136 
-0.36694678607378828 -0.60644443946081628 1.1382127310814747 0.14530511830296303 
-0.10513519255492622 0.1487070822571091 -0.31414767889836698 -0.12752012716802286 
0.69796033837888005 -1.3746449186506526 0.94726852477015788 0.057563741619258452 
0.70917464597439528 0 0 0 
-0.065424812902979759 0.081876978712431672 -0.088104636863173033 -0.11405018453098488 
-0.33059037109896733 -0.37484642032590887 0.56994234941931421 -0.2813802897864941 
2.1557462814894497 -1.3865331280918085 -1.6222314696982618 -2.0334367351351172 
0.10897752974414837 0.060783257532027429 -0.042926875256215247 -0.079855001752328861 
-0.2369262808454812 0.21770278464222181 -0.17396887390749444 -0.033006821131310184 
-0.038411124628147622 -0.47006197253267767 0.24840838394432924 0.37963862020836869 
0.057652260518607674 -0.60134381062323894 0.52026714319554745 -0.39287838195407399 
-0.31990079045666608 0.34081420470681256 0.13504516052365889 -0.44176680468587448 
0.70917464597439528 0 0 0 
-0.4113184270400585 0.32513376884270068 -0.30335153142363047 -1.2490009027033011e-16 
1.5313252570612756 -0.78006520811836111 -1.504319857698611 -1.1422254198584736 
-0.036605548448888456 -0.097559651525270644 -0.089950021464039714 0.095611255355408681 
-0.41322624654393197 0.11365954619576844 0.16963143023880581 -0.18802922509554992 
-1.2362223290828185 0.42454561895750353 0 0 
-1.2362223290828176 1.0459700879292577 0 0 
0 -0.34267110560790287 0.74735697989939265 0 
-0.20828173333745231 0.062454247690681905 -0.73121942819001184 0.73631710956665231 
0.18225782758563575 -0.10286093537931019 0.039713211875943608 -0.034907732373775389 
-0.85434791161201018 0.4403166862866319 0.076790042404736997 0.2807553106403437 
-0.59386661650347738 0.6343504986473919 -1.0922534910636048 -0.39525631591989913 
0 -0.34267110560790287 0.74735697989939265 0 
-0.74443544308456711 -1.5119118792202912 1.1616575367035789 -0.96114857199222981 
-0.19280688530433668 0.052026041654624974 0.15422895171837891 -0.13481513989778535 
1.9143964320906739 -1.3105688062339871 -1.6922584537685721 -0.96882350329201872 
-0.044065560007872769 -0.081317471159028279 0.025654727967790784 0.27066680422086115 
-0.16613326730688144 -0.99433523294220849 0.71179116619995775 -0.56610337088977825 
-0.32671140755811146 0.073064469167136659 -0.48728341614394755 -0.66713343575484152 
-0.030309166076698028 0.13451812841120087 -0.23529871640391573 -0.23399165408139205 
-0.22339108257643608 -0.097421384683818349 0.21132050166789482 -0.060393235648713878 
-0.5902344135566997 -0.16172384497378556 0.52098964909369205 0.35562836021955335 
0.20872251348873133 -0.14538047709489391 0.75487358456119424 -0.56398218154983726 
0.91362113871929584 1.7347234759768071e-18 -1.0330365232993193 -1.1086663530475918 
0.08206847752059708 -0.16391865711205073 0.33147139144201665 -0.3251308697813321 
-0.094239388341403399 -0.52351755186148941 0.49542825089988363 0.5932316552360215 
0 0 0 0 
-0.28843366097637835 0.25487528817266858 -0.11260020951619516 -0.24362336792213088 
-0.10327061103756825 0.091238717169616568 -0.27492982835305907 0.099901416486330094 
-0.47803523642735912 -0.90413095201108462 0.87568593552334506 0.19533096181783624 
0.10189527932525402 -0.1126491001824966 -0.47858484884275138 0.3098533011001578 
-0.31190485700830411 0.093202609786392984 -0.055865248867188244 -0.19865445720717334 
0.2075426457621411 -0.1163513249510615 0.14570701999767094 -0.61563334772435307 
0.38802062475420052 0.54568113653499728 -0.82770435505798634 -0.49173066993580139 
-0.49585259710112001 -0.16218770145682659 0.45302276593960966 0.058292286492326616 
-0.018063013457143933 -0.16704084342365538 0.078872913294969593 0.23769278098328753 
2.7767605705885128 -1.7471278655218165 -3.0790195510139267 -2.7031438710868292 
-0.098971288835544596 -0.551342226857789 0.52583158778110872 0.30000595818539216 
0.010300728417146028 -0.48226904717879371 0.54374540948063155 0.20983254945945307 
-0.13877404488447276 0.1992278647437227 -0.42726484082466448 0.17572875747689418 
-0.2793335774053835 0.19261173504528636 0.055427529845614915 -0.33545267514875649 
2.6914572401044423 -1.8808728335844067 -1.7339952077748988 -1.4716247599213399 
0.036922957653963098 0.034762498256003714 -0.23101189909970682 -0.29086960259207517 
-0.22573454749360167 0.25943220501261599 -0.19298829936849352 0.15076385187885394 
0.57803925578224447 -0.20872325725041002 -0.91413732917636559 -0.19197440689066242 
-0.02280852822135155 -0.36453669839408709 0.56897253689953775 -0.13049333376074965 
0.24715863653568973 -0.20577847568930022 -0.76457983294731946 0.84752689112573021 
-0.072353891112752935 -0.070841606349336478 -1.1714385405222443 1.044958882475032 
0.046773432335949175 -0.030480286546476096 0.19173009000606631 -0.076456957740274251 
-0.022404923101597151 0.10173990355784364 -0.09829412988491576 -0.1294247946436497 
-2.8376040192213425 -0.072374071865495021 0.89024401633594175 0.54596075647940234 
3.096229826754711 -2.0542053685367434 -4.2858467693850768 -1.8014408811255247 
-0.62024558056238877 -0.25408487320049278 -0.87262738492899483 0.68224728096121434 
0.55350329311618029 0.18002834413149435 0.060285399341359749 -0.11085438094637129 
-0.058569374009649448 -0.13301058471435939 -1.4341786049693415 0.80736094347989773 
-0.027888314225806503 -0.40723401609008036 0 0.029085108758078546 
-0.027888314225806503 -0.40723401609008036 0 0.029085108758078546 
0.0068348168730377433 0.36714005065263894 -0.028650377316554582 0.029085108758078602 
-0.027888314225806503 -0.40723401609008036 0 0.029085108758078546 
-0.068192569894655955 -0.050057408455840967 -0.75686729220181459 0.6007417071987563 
0.18578992184948642 -0.14749955983107879 0.041002731134771889 0.12129782637989064 
0.26731674971529495 -0.22234735791233456 -0.8089316033914834 0.059301639119363529 
-0.36064264309056387 -0.2925185640941611 0.10677564417330054 0.4725781718923216 
-0.30001639468928132 0.14109257610325684 -2.3025209039521015 -0.22755961724277141 
0.063766352425100203 -0.1168080753747503 -1.0283417797448999 0.99317595256793889 
-0.27188603082226981 1.0329145037341132 -0.80260058018488767 -0.33989490027355423 
-0.22139831947079719 0.3065642544276509 -0.33321356375342703 -0.13350239237902897 
-0.33607267353832182 -0.32974520624015968 -0.036403886835713023 -0.36257481718459311 
0.029287647773946157 0.023435218210909381 -0.7189687907462593 -1.1302066709134464 
-0.65612575322935529 -0.099037222139517364 0.12745107891330212 0.42751533677758297 
0.36999921570838235 0 0 0 
-0.55411720791663388 0.0067030731023808368 0.46693559636186538 0.96739350457996487 
-0.31469952099896087 0.44470143213653568 -0.54723977059289974 -0.66525298454520643 
-0.23139852798505153 0.18265674676159777 -0.014558149809427001 -0.36623642806660861 
-0.034765907966068904 0.05676045762293614 -1.2319970115262564 1.2646704477351225 
-0.17431208575388404 -0.41697299034048663 0.58423181248859979 -0.11605865044462946 
-0.082612390740363237 0.09953667564348137 -0.074600721005009363 -0.16519322844193562 
0.081569550378763539 0.029559153949817236 -0.097705057236320947 -0.35479809743176666 
-1.0021091950032472 0.43154458918508876 0.084419142466354333 -1.1644700039611113 
0.29216627683662044 -0.59167634050775453 0.79286586693933725 0.018577777563475312 
0.038694384326702441 -0.14319549013482002 0.201423915891974 0.086802354518385846 
0.3496787347048172 -0.11352258577444178 0.11353891069267985 -0.47664460784881535 
0.03024306112792044 -0.56991567613020266 -2.0883008944864172 0.51414414816262211 
-0.95646436068947427 -1.1264928252960615 1.8303231833141023 -0.76312889494679159 
-0.13186616346821362 -0.52731398054565892 0.73023558815073586 -0.23030991337135581 
0 0 0.13117865435385268 0 
2.6608105401979625 -1.8615052585243328 -3.3512741328958375 -2.2225457531637467 
-0.014472134773288695 0.24389819986612254 -0.80886812223490223 -0.67605756161382058 
1.1048474491519591 0.13184903649145815 0.20370457414564044 -0.19490008063698894 
-0.76250813551621466 -0.86206322722503825 1.0769878159641344 0.25369323576443159 
0.10523616599380664 -0.50044919221425921 0.50437888256989649 0.16089290431957437 
0.060952837304674018 -0.059961225526786968 0.11160766105233305 -1.4335281676367244 
0.039212497018833177 -0.09226757365310341 -0.12134701563064965 0.25204219067671624 
3.8312510372877875 -2.954330394257755 -3.1851349975481607 -2.1687892588414446 
0 0 0 0 
-0.027892287596365414 -0.50010202140312854 0.82991757336588612 0.40435585760524123 
-0.059192718273619133 -0.24964739700799707 -1.4207496479917996 0.82293889180801771 
0.9412685906579199 -0.71491388371654474 0 -0.46176380798464234 
0.49174989977852096 -0.045335815972958216 -0.34265253111527688 -0.46176380798464234 
-0.16226052688316328 0.049816053121943045 -1.2880020471890297 0.62319053530421753 
0.94126859065792001 -0.71491388371654463 0 -0.46176380798464234 
0.1432669147198499 -0.441934599229451 -1.3146425912105504 0.89691744102826887 
0.55177338627965877 -0.30525127076591618 -0.35273625432707267 0.53611595686747349 
0.24645692794824592 -0.0048479468042662878 0.19392499694023482 0.66624559108031012 
0.11420367565658038 -0.010225342805756266 -1.2704419663179403 0.22929640455357519 
-1.5010239753654573 0.14483304343137224 -0.71102333865128464 -0.0065434590998638374 
-0.21350506147884299 -0.44881695232062974 -0.11344676381158843 -0.16324380205251535 
0.18581546108056946 -0.24522912902224522 -0.54329610803561823 1.1560917667080632 
-0.48484292745638857 0.14050327703389479 -0.44877574453219971 -0.21582043031637516 
-0.34882148534245366 0.25242075572333939 -0.10989195046483159 -0.74748347176653285 
3.8310886899678906 -2.9734195811341309 -0.53718767276611434 -0.85331184712898978 
0.50973625095840602 -0.50049507590188269 0.065991345142120461 -0.20428600850202414 
0.12625751185768672 -0.28971510995656591 0 0 
-0.2469395853799207 2.0112269808636274 -0.52795230627062284 -1.9874883449405343 
0.12625751185768672 -0.28971510995656591 0 0 
0.12625751185768672 -0.28971510995656591 0 0 
0.12625751185768672 -0.28971510995656591 0 0 
-0.475055104553186 -0.80379230652067346 0.81983128248294801 0.62898710402794467 
0.12625751185768672 -0.28971510995656591 0 0 
-0.45895537652529911 0.1743193396151986 -0.11763476022780239 0 
-0.20578183201908609 0.23270773978356382 -0.2228278614498628 -0.18214257470594969 
-0.0014569219190647227 0.16223669015615003 -0.11682429244300725 -0.16809449840534516 
0.12625751185768672 -0.28971510995656591 0 0 
0.12625751185768672 -0.28971510995656591 0 0 
0.12625751185768672 -0.28971510995656591 0 0 
0.12625751185768672 -0.28971510995656591 0 0 
-0.061653588016718053 -0.4260346735173392 0.54194353845723997 -0.20873619221299633 
-0.60716245247899381 0.75866745316819595 -0.076849062780984245 -0.72915355150873573 
-0.32500679734456417 0.19541720298857182 -0.00036729274077783487 0.15102767851054474 
-0.95538202681004536 0.95315379653333809 -1.625354120095158 -0.63460602083929274 
0.57330889935659846 -0.78390548703240492 0.37691551166347964 0.27226860675284459 
0.085193702357722459 -0.87556187214190218 0.47520326643439548 -1.0432157234371549 
-0.37692993829590132 0.17412479122865337 -0.17220352779557585 -0.71577869413090778 
0.29108074049024341 -0.35365749657890494 0.3138900356173655 -0.55454077646112132 
-0.4580110131977615 0.2372386007619971 0.58123268850472209 -2.1938350741914996 
2.5552892452755169 -0.33257168004170973 -0.65908221629311114 -0.7055718761651173 
-0.033602652006504655 -0.42324097252645221 0.42581880525147214 -0.0052446308318848372 
-0.25758639812632816 0.062785438412268052 0.067952213261800912 0.34975834971040021 
0 0 0 0 
0.33159065351623784 -0.53512166282436757 0.6970552173503306 0.34417408859477938 
0.0011924355168049087 -0.018562974489246025 -0.13963172866324425 -0.31778708672334355 
-0.22131798858790985 -0.098068355470454907 -0.17905941199454578 -0.56314477561374221 
0.13705294674434318 0.12109138332302465 -0.061039687109842818 -0.43609665113067264 
-0.068897975716770365 0.20535385949328977 0.027967810305231829 -0.16217637287999676 
-0.075727711284216612 -0.13210144342608104 -0.022375042684138369 -0.32983404713853592 
0.056759247936810336 0.11365347915764025 -0.04248946397161904 -0.078993245770720283 
-0.1812770614336931 0.050252007771502127 -0.08884018729183521 0.21449509588710117 
-0.56311210152793156 0.61652809387345486 -0.025176882336401852 -0.305916163845456 
0.73318020446913634 0.25237551826417565 0.39254946019637049 -0.47554518406852586 
-0.10558835867139964 -0.33100556166484241 0.52672103238370238 -0.16738921915143012 
0.31289287552153078 0.25937263875221933 -1.1523660112410892 -0.52458548372842217 
0.073556756750091129 -0.45199280933629937 0.7629500842051391 0.34611209474711147 
0.44138908438847541 -0.48861565127224171 -0.72945883435600845 0.64489701863289484 
-0.25538146118817456 0.15421251470886288 -0.15315482510177425 -0.20270925377254184 
-0.099150112454060607 -0.30940605136058674 -1.7389588001120004 0.77145815756260028 
-1.2902395309815777 0.38444302819610887 -1.1983332762854713 0.061013879822716097 
-0.069873969302782904 0.05559575719876976 0.28109454112969917 -0.28071469879089417 
0 0.93288572488163235 0 -0.70089330910103531 
-0.26719731912546335 0.1983819859326334 -0.47635668323196517 -0.11037409787755226 
2.8368335962897748 -2.3851146182300722 -2.1452302738642475 -1.8566018346393445 
-0.078947032218438046 -0.25937673262060162 0.47095347060072218 0.29491114072634667 
-0.18325561554679021 -0.021294280829237115 0.23490762917274668 0.28259110550889383 
-0.20702355004512554 0.51320758381691622 -0.73455347624650669 0.26749514012456882 
-0.91307187800395462 0.63638977479292058 -0.15333827368107322 -0.52912419674223266 
0.2231202068356454 -0.34116282893636235 0 0 
0.30136083149227111 -0.87313266764290187 0.42509026175316633 1.027087742849788 
0.018645740040647681 -0.034520217508192397 0.74741084498403798 -1.0597531687438861 
-0.12634978472527486 -0.44887560779647651 0.41258787398517016 -0.077918864155876552 
0.018233701067285071 -0.66793519574849702 0.52210789073535135 0.51161778521581491 
0.24933247528746183 0.53071884753925902 -0.42620088540511081 -1.2596231197758094 
-0.10965462596004538 -0.35459642040118183 -0.84915965033717045 1.3049345840480915 
-0.089643421594713293 -0.54922461587343574 0.80534042231303193 0.53823829939614343 
-0.44697172912634331 -0.5824263486517488 0.53762453299027901 0.9872611256463909 
-0.067475778654806584 -0.4133637712216105 0.30837183572745486 -0.10044152219011206 
-0.0615010811159349 0.25697257684869967 0.2634901458576317 -0.45039853590967749 
0.21430611149696932 -0.013112246986403925 -0.28699855530082258 -0.72117522615496676 
-0.073911523700958215 0.11661584414474285 0.23130539031579597 -0.13538728138390471 
-0.18676004584596456 -0.0037049900168220906 0.16151801141220026 -0.39800749310634276 
-0.45691974318333606 0.39601696240325496 -0.16614655304582718 -0.24046710703863128 
-0.098219906673343349 0.2148796050310387 0.10238614703303055 -0.22160173701410699 
-0.089588019087287002 0.095752364719260019 -0.023031942159593057 -0.068282534081370902 
0.058246562323249068 -0.43417467919297065 -1.1107356658193819 1.2079072052073774 
-0.13877022991889901 -0.45648406372304773 0.53954038330102594 0.093435818372666624 
0.27446640564278302 0.10260092566757933 -0.8017371715898951 -0.33108727225960866 
-0.47200477044677736 0.5235597832903196 -0.67523004574212098 -0.69732051969614617 
-0.13006766247126522 -0.66976208850778385 0.70763208688002144 0.21578561604438742 
0.0024379859415137087 -0.42586015044553904 0.161786155307134 0.19954543292642019 
-0.35267072491504597 -0.67952075066545892 0.67118092091029968 -0.043287077070414709 
-0.067213870757738173 -0.3839690751196434 0.60313048208048736 0.16101191207538657 
1.5411047591737934 -1.3174762045054429 -1.0392056724136867 -0.11919604886822478 
0.46523185175105269 -0.40709224856982679 -2.4274476898266197 -0.65854720234486419 
-0.20359966813797592 -0.12102926334597254 -0.8785982796548224 0.85933192211686016 
-0.03790832917812572 0.16541252937055434 -0.22367386476607679 -0.21380799183301752 
-0.3075096707130533 0.38732584953057203 -0.033333201530532333 -0.48345545682884172 
-0.066819750963063029 0.29943109477770119 -0.18730542410875622 -0.18576062871993781 
-0.058190192334109346 -0.50401372455509008 0.73876440419768497 0.15160789286244455 
-0.11922506979850149 0.23081862113898644 -0.11534308231360908 -2.7755575615628914e-17 
-0.2210651943946309 -0.26810924568303002 0.039284923167203917 0.022630048679759353 
-0.24263020514987199 -0.51340536126700198 0.68038797129164408 0.30276273373353768 
-0.1686467014788291 0.22808669590780184 -0.30459965666190975 -0.55649814101239037 
0 0 0 0 
0 0 0 0 
-0.076692713204107019 -0.35918863752778463 0.2704564418970139 0 
0.042488112770422672 0.019375817574979207 0.03186362653454719 -0.86484320348421395 
-0.076692713204107019 -0.35918863752778463 0.2704564418970139 0 
-0.32888893422828286 0.2095311308187929 0.069870560708080939 -0.19196167771607053 
0.18513943698269617 -0.23005774663681836 0.42724571204933903 0.095486320293254198 
-0.076692713204107019 -0.35918863752778463 0.2704564418970139 0 
-0.076692713204107019 -0.35918863752778463 0.2704564418970139 0 
-0.076692713204107019 -0.35918863752778463 0.2704564418970139 0 
0.14116562406653474 0 0 -0.119205034590154 
0.738390874659546 -1.210998034139817 -1.2369047485834939 -0.13454097088505654 
0.3952421428816667 -0.17695363358089183 -1.1315458526109274 0.48462799054187744 
0.12131624151392104 -0.49467449537601782 0.24466638495091433 -0.044887351968713067 
-0.080325040725212057 -0.087032452917477132 -0.32987842033434012 -0.2792889044723037 
0.14116562406653474 0 0 -0.119205034590154 
-0.045444031384052251 -0.14263992717927926 0.29607384614832444 -0.10162628807357489 
-0.15117569086510391 -0.441438879666188 0.44024054191384904 0.11253103933547519 
-0.23754946380340902 -0.69574986497719105 0.76700466507143128 -0.19821022771651592 
-0.62882588229403158 0.37642286930985314 -0.36240141227545569 -1.621685742776785 
-0.4464139839469442 -0.8952293446437356 1.3865978955464451 0.77197613801772436 
0 0.22403297195866761 -0.12050393330896092 0 
0.13757129749428748 -0.13247385740501252 -0.94991649893344654 1.0897581356670663 
0 0.22403297195866761 -0.12050393330896092 0 
0.73695686448000786 0.016825241112599622 -0.019773431226762953 0.17031934496685136 
0 0.22403297195866761 -0.12050393330896092 0 
-0.11642371640370237 0 0 0 
-0.032810063126446194 0.57284961482186125 -0.73571747474279869 -0.26014281980177839 
-0.27618072213183309 -0.11563339624496541 0.018601884305150907 0.37354710499684052 
-0.17572027580791608 0.38771154791331713 -0.25952131773231146 -0.42445181169774077 
-0.18305196048908223 -0.38582532917499746 0.81250512096969818 0.45195906701828481 
-0.25491773160403552 -0.33127138734477951 0.53051848282652536 0.2701990748487515 
-0.7915682240208527 0.30588603573753498 0.42991023089341396 -0.42031212824646103 
-0.21246177722094492 0.17513736210070796 0.054381203199496353 -0.28676009107128203 
-0.016907571113698588 0.077223959114133683 -0.49981155846253406 0.057181121315800221 
0.6824588198014937 -0.24667651438159816 -0.57625331145530589 1.3401335443405913 
0.010493397929678034 -0.22511788832378837 0.54793148300866457 -0.25137676475117909 
-0.29261872574892661 -0.04248880752627885 0.42710164130790956 -0.3229286007340576 
0.020186554012382816 -0.22460472849240809 -0.58513511222617742 0.67998448411230317 
-0.2209851817174705 0.29085125333670753 -0.22051623404656123 -0.10781450537760916 
0.21505852949889487 -0.088104483461378863 -1.4545265345242733 0.71212253584268803 
-0.27152724781231635 0.13548793694564853 -0.013651145259920798 -0.086589630401582851 
-0.16123157299740717 0.20582457359717898 -0.11634114754418366 -0.72044547125337688 
-0.097524582516834338 0.1304967109443198 -0.20684181548090011 -0.14921674427674703 
-0.21321014318870846 -0.29370098811676815 0.31196081698590944 -0.30765457835963883 
0.28143666903626963 -0.81619462522114361 0.68048706820005378 -0.11239623613929509 
0.17245335161075223 -0.34721921467596684 0.065721071815404847 0.30951943565795442 
0.060390133300795457 -0.23168345215757224 -0.30616159668212833 0.087273488446076519 
-0.18559059861336563 -0.47029748164432705 -0.011915890416743923 -0.10650778226098773 
0.55429126035544241 -0.20059798600886253 -0.046171903750093925 -0.47613351704008189 
2.829414257982922 -2.4718426191905034 -2.1756211644640175 -1.3205298299806254 
-1.4995324331950683 -0.16926585647816217 -0.24200295713212572 1.3298840187430523 
0.0023241415093388923 -0.38389415042529623 0.001588790414486646 1.3877787807814457e-17 
-0.10288133623794544 0.19984706466096389 -0.19625261094613794 -0.17552065012601961 
0.46618308352279847 -0.49563766397979891 0.26005296819747248 -0.92215203965264014 
-0.24359179859575164 0.14363955487099353 -0.12011301059105695 0.048608335376246682 
-0.079198346940777389 -0.30698554966665087 0.33703764124566726 -0.034867816742527251 
-0.095434122798889645 -0.34200661338148797 0.11439056940366497 0 
1.3457461427538127 -1.347019582470578 -0.34904510532974509 0.56038971995834064 
-1.0557203169150637 0.40564905848580352 -0.79531739798600931 0.59347423042675584 
0.13683914099404088 -0.061972887057111653 -0.2089182625418225 0.61425914861841169 
-0.23006306985662306 0.24575024925620009 -0.096128050297010631 0.1701736172220735 
-0.29047348858871708 1.3684462474869283 -1.0903110020693241 -0.33929864282448557 
-0.4447937358788816 0.46354668402169652 -0.48544762172154543 -0.82389482746884757 
-0.0065715078037640803 0.22423104410879119 -2.4516588254629723 0.65067128255753837 
0.14415301604370634 -0.62226114555946066 0.36603045093484399 0.21582669950068289 
0 -2.5333331019047116 -0.24931881085954374 2.0631535279616608 
0 0.39950883900296774 -1.0568617441962214 -0.57375996594743695 
2.4276947970552478 -1.5645821996720506 -2.0072210516486946 -1.0083361307244796 
-0.1088813897078864 0.31059015660694689 -0.37650029224846993 -0.063014218526502797 
0.92562045736724674 -1.3394357597868125 5.5511151231257827e-17 -0.07208872674005215 
3.4386214861467099 -2.401125601301616 -5.0250129408546771 -2.5283729082822819 
4.2315053396681552 -3.032204722105206 -2.1509695004641149 -4.1296679806851291 
0 0 0 0 
-0.7538953790974382 0.38994154813978177 -0.29052909210739536 -0.37220173829629 
-0.22671781089838042 0.56288137814457639 -0.19743920165354123 -0.91299792180541428 
0 0 0 0 
-0.34794197392090642 -0.23627438139917259 0.37719829098251362 0.4810120368153854 
-0.1992577914128906 -0.045799604727338079 -1.1537169943656624 0.88524992771624123 
3.7199496139357073 -3.2272532361754998 -3.1918474952776963 -1.7211044443029941 
-0.85743588222250733 0.53172482971870683 -0.48420966615425387 -0.41688910417054592 
-0.42598812704612599 -0.13896570396708555 0.062937471429847569 0.60747780167436483 
-0.40953483097739202 -0.27821956974351192 0.037185989814879146 0.76269643743625604 
0.12673778561838017 -0.077244774188615528 0.022237854221979343 -0.4157584391424593 
0.41772264953358373 0.30679731808494143 -2.7755575615628914e-17 -0.20321113129276283 
4.1191163584515182 -2.937470950946635 -3.280989500922364 -2.7467350864912463 
0 0 0 0 
-0.23757129467477683 -0.93539738430005515 0.56355275711873776 0.49504399829179557 
0.02415927800581031 0.51486595347162567 -0.42183366524990212 -0.21061931158820651 
-0.34406788169416458 0.77752659488780818 -1.2373511650417055 -0.26716016820874122 
-0.38964325591326571 -0.17191568851405692 0.20731237065470659 -0.23518194788363136 
0.056476782971184178 0.17008557034031213 -0.31282609905356035 -0.18053357952248922 
0.89136635414182086 -0.37117778559693598 0 1.0084406742468688 
-0.55313344783866947 0.76865492017922854 -0.70446397750216661 -0.38424404895401704 
0 0 0 0 
0 0 0 0 
-0.031373135626541475 -1.2406201542229807 0.33290496959284588 -8.8958788252435639e-17 
-0.31792964710571625 -0.3125320913708543 0.35169691707908418 -0.029630727232185169 
-0.20265515720258084 0.31916123636937982 -0.22919550043231532 -0.29948480424788604 
-0.25291434171213478 0.21997403801651702 -0.02667644598060466 -0.25730371042114258 
0.038673053701590271 -0.27843858839969016 0.13979741849224245 0.060055201101009009 
-1.5481922100181422 1.436362663696916 -1.580760071685487 0.32858043139680426 
0 0 0 0 
-0.029688280365973298 -0.79046687925581949 0 -0.21178110278653717 
-0.071805155893614248 -0.20500503364544595 0.55599760568261758 -0.65650928456252644 
0 0 0 0 
-0.99009946652819303 1.3445314228999172 -1.3230353456153459 -0.88707633088385096 
0 0 0 0 
0.4044946967324361 -1.7361571383576915 -0.61467112461767659 1.7401041723126547 
4.0937320445194478 -3.623112778526024 -2.7525249099101976 -2.7970264474141846 
-0.2310077478461377 0.28662521726003176 -0.39554316177069498 -0.14694214947119838 
-0.32944763420932721 0.4189539663571325 -1.2730643510655484 0.33544377480863979 
-0.14691366882826148 0.18901838906512786 0 -0.18385601584151973 
0.24382836630568147 -0.16667009998262003 -1.1721127088074845 0.29996981559679387 
-0.14691366882826148 0.18901838906512786 0 -0.18385601584151973 
0.028627222463349474 -1.0889681044576134 -0.30054881171598707 0.79451629914789268 
-0.002127351794357362 1.8707769293741592 0 -1.8098562204067821 
-0.15127181809575507 0.20672823827022999 -0.19541295167927172 -0.1211211046758114 
0.15288881777463628 -1.0634483413470344 1.0012088877958065 0.5496443970205166 
0 0.41090922145940711 0 0 
0 0.41090922145940711 0 0 
0 0.47235881294983717 -0.67507081327782004 0 
-0.062475342789705221 0.75228744660092794 -0.47758802426859748 -0.27336208670276491 
-0.85114430558973453 -0.057914392318452079 1.3198689862587545 0.81671644511677122 
-0.074270816655276253 -0.041132050180807331 -0.15452939378721092 -0.59338661917381563 
0.10262795084095383 -0.26380099722176165 -0.82666548671855367 0.8939956272312497 
0.49945881049237584 -1.2747002829435277 -0.68657063825081244 0.67078845870920123 
-0.20569403373701856 -0.15021426362381388 0.094656097710134196 -0.39472402618219965 
0 0.56349105710922465 -0.21823155853753107 -0.14794663542302339 
-0.035974949257280113 -0.10227995235773041 0.41324931567562406 0.19918388397254599 
-0.81363130289650476 -0.090365794846192893 0.33999017238430435 -0.0043202033755590091 
0 0.56349105710922465 -0.21823155853753107 -0.14794663542302339 
-0.68083737283853918 0.77807103749635775 -1.1808308818086235 -0.62413762248765892 
-0.24503442590713728 0.26691077748626701 -0.15301965788505537 -0.4166853675997475 
1.4423954667710357 -0.83705288263956446 -2.8890306386938516 -0.035661589084970344 
0.57227359402747324 -0.090091489947222075 0.11542412296172297 -1.4092110393157808 
-0.13720492555384098 0.25409558128770993 -0.18669378824902416 -0.28912147030800528 
0.5188799281586286 -0.35463545916477035 -1.1449178634894168 0.46656782340328073 
0.20377699905928409 0.06100176758162032 -1.0575309477734065 0.77606663925670838 
-0.87976209286823315 0.034248709235573591 -0.28152354843478122 1.0358313842299087 
0.044731522816540546 -0.39039416649366354 0.35026697605296908 0.27418781649886964 
-0.32085317990323908 -0.32777094856483702 0.70575627261734852 0.083651053208666365 
0.17108443875770876 -0.13811526384951592 0.089004643442812073 -0.11287219081598295 
-0.15471920552051779 -0.35036356087461251 0.41998208695356226 -0.16152446043594304 
-0.15438770858726891 -0.5458760595073624 0.6295121664625587 0.018127568931892594 
-0.086740874796531586 -0.0040289297110568468 -0.11385627401430647 0.070471687613580233 
-0.025953071452002385 -0.068880642203043282 -0.053853049355052487 -0.3739655195330796 
-0.13851694594145694 -0.79114135100344118 0.90948570668433204 0.30339309339859133 
-0.017959315318584107 0.14750188715376369 0.15707874261633326 -0.34683306484126353 
-0.27259985784647833 0.33597620141111212 -0.45431665020659923 -0.35440878459512781 
0.3079574394243052 -0.16700911413086175 -0.3072324026623684 -0.15842050543400035 
-0.2843087612834635 0.36482193309069094 -0.086254672130658752 -0.25589607801995606 
-0.46782944081407901 0.20940080525365967 -0.044339374461792071 -0.2257442195095942 
0 0 0 0 
0.56098336228865775 0.0090511636192944292 -0.79795473143112394 -1.0894738001185647 
0.057853475518300057 -0.47905293725648812 -0.64993125283861874 1.1522849828701496 
-0.31214303584370678 1.0773593834955133 -1.1429691291988233 -0.53441031843844333 
-0.62666660258506746 0.22496566180494407 -0.15234917863862268 -0.90774005668950863 
-0.37274722648904035 -0.19711640825715254 0.27537706953857277 -0.43787177670541172 
-0.90923063387307712 0.33105639342522863 -0.54962742809369947 -0.14110574142858862 
0.26104921857939622 -0.60553839646945318 0.12075470343245967 0.15986824511219219 
-0.33578560086639853 0.081307461134726242 -0.1594270779277428 -0.037239230853956945 
0.075220910166374444 -0.27730988430740089 -1.1161204867750147 0.24687418034299516 
0.021229529304018599 0 0 0 
0.10760065265731661 1.2594070860310953 -1.0506055911533605 0 
0.061909707921409693 -0.66286602293534336 0.6271695643262406 0.072661652559603912 
-0.006267620575429525 0.22819343969091971 -0.51763259813497997 -0.61686221592774282 
-0.16354871043135041 0.061388277696882911 -0.14410446660468099 -0.7238578898853617 
-0.10677216694646247 -0.42850269383001865 0.56138828592639323 -0.17322797042333593 
0.13050485121547623 -0.51176812001711947 0.77293004061613546 -0.92354034432863308 
0 -6.9388939039072284e-17 -2.7755575615628914e-17 0 
-0.73709585495278329 -0.067122136495492438 0.74137866664069307 -0.51652546500703211 
-0.829861845804715 0.90108773499055139 -0.62787149883188176 -1.2187209636573617 
0.58021600245542526 -1.6258869879426887 0.54775765049281278 -0.51219469183062327 
-0.38993450251699124 -0.29406109537688585 0.6026128994389488 -0.32533024892911466 
0.93320596687162105 -0.32721846792284304 0.81455916406765405 -0.71438333454952396 
-0.11555775461009365 0.13587510023648469 0.27425251435434506 0.11522032184426331 
-0.24703663439826817 -0.10833837719476616 0.1613698421144073 -0.23712362759159422 
-0.19442013428324179 0.087548614672523478 0.032793495576503531 -0.28057566082908575 
-0.29597422985007638 0.13619595893356071 -0.22649724086255388 -0.18348265379645706 
-0.13388103745021623 -0.38648906785199355 0.35728536199438427 0.1119035531252007 
3.2283027834798577 -3.8421493478820197 -2.296465529258616 -3.3028264723361884 
0 0.44393167937512223 -0.39775549190436565 0 
0 0 0 0 
-0.35638092391720405 0.40427021711997119 -0.55952855435485382 -0.37100131597519026 
0 0 0 0 
-0.043043704561881765 -0.095061855296201411 0.23049613829791785 -0.75558361936736795 
-0.083493533067471634 -0.37359496148989357 0.57816955282702298 0.11393314110625367 
0.011544757227258597 -0.62227550382113606 1.039226084810988 0.35079544505235094 
1.6200135808664451 -1.1624564811249709 -1.0170358151061327 -0.27427619658317237 
0.65581805139513216 -0.34503381947583472 -0.56640334430916994 -1.0045860247046572 
0 0 0 0 
3.9483759255732762 -3.1143140052375116 -2.9842769002398177 -2.1207918112954673 
2.5761847795189476 -1.5079760686619572 -2.1944520054061565 -2.8334896329997461 
0 0.27632854805566731 -0.20892520724692329 1.3010426069826053e-17 
-0.32119391000676334 0.69872384855502045 -1.230561980125541 -0.20245520697233907 
0 0 0 0 
2.9635193828363264 -1.8390101148091986 -3.2136472546571762 -2.0017570119940689 
-0.10512178311594846 -0.36844043699820689 0.32362161093306879 0.23418981254610088 
-0.13269581779143133 0.18171928622212966 -0.15623918730141875 -0.052422015174842573 
-0.072609800265131363 0.14807139014229906 -0.10771733135415827 0.01276525990665664 
0 0 0 0 
-0.27346558937455701 -2.4900465242362135 0.88144826624341732 -0.75776484191958526 
-0.080231427073331793 0.093611781624229257 0.1272349142219327 -0.2058197677869486 
-0.19680097299607427 0.38837797903796933 0.26612739984066025 -0.10659923106204475 
0.25926406245563927 -0.84117405618069929 -0.038560094650174466 1.0627134431848375 
-0.01773953623923381 0.24473395400183881 -0.10140808252836572 -1.1967627018728642 
0.066385246756832189 0.097297186986109424 0.092186816300290492 -0.16278016943951581 
0.42405961133632186 -0.49278602183933318 -0.66291513610976316 0.3955909015369195 
3.1553233126189295 -2.2510486456427512 -2.5279716101169627 -3.5007515953857027 
0 0 0 0 
2.2369017540058866 -1.5002395995483588 -1.7307753515089925 -1.2889000258267793 
0 0 0 0 
-0.22032431849139716 0.038623907397903855 -0.29041906454201055 -0.46257487418810761 
0.039199799269479821 0.024185170016480347 -0.0074674742982949981 -0.15635567960258928 
0.23483426786809203 0.013320950618412382 0.17868433447636176 0.057521200632049165 
-0.57670093737252304 0.79738739704019579 -0.13755875315027441 -1.9762240741870456 
-0.021531334730437932 -0.68916878558020578 0.58948973370461555 0.16346227262996194 
-0.9492125711971976 -0.019659817540314182 -0.06460504007622403 0.17167828963297976 
0 -1.5258384901429598 1.2607773517711873 0.34713051939556949 
0.21436770979111794 0.066073996314289923 -0.28450380220050758 -0.22952234099968516 
-0.14806282826596318 -0.51367374574516211 0.74248403747246305 -0.13517878594909061 
0 -0.72655411432116024 0 0 
-0.034749365147722693 -0.039513107120201237 -0.099055878075293549 0.1772695411299032 
0.13119339342491501 -0.70421154354786764 0.59044150498811709 0.079419575271897566 
0.053821111335876096 0.28005768076168491 1.9348675631674752 -1.626601864341243 
0.31121094318339509 -0.39540417625917584 0.18322143640920829 -0.037890948768968598 
2.1025096046972456 -1.577429407033331 -3.8053290223953118 -2.3008044840099573 
0 0 0 0 
1.2822431639169187 -0.77221142021371914 -0.93867868427809498 0.68399883507696191 
0.18851145877348841 -0.2400370394527914 -0.50341456661544748 0.10830721136900508 
-0.24758256738085652 -0.21076222769626946 0.44956229182779511 -0.00712950070813014 
-0.29510836303534932 -1.1454484314305713 1.1369518955589766 0.8084759499894405 
-0.69477409864873807 -0.17835694237298491 0.96267830631617679 1.6799925784763485 
0.63617137252656497 -0.54504762686514374 -0.72466509648231203 1.0364867536014277 
2.4181690472722668 -0.80332604994660017 -3.4179486686000105 -1.7807991824021578 
-0.079825215764670499 0.074891222847719402 -0.15518969092700291 -0.51259289977324451 
-0.46507221487067163 0.35301498283949306 -0.27573235927825523 -0.23081718052590208 
0.64992480570143996 0.61854479533768703 -0.7468702940677121 -0.55701609725412582 
-0.73183271040517117 -0.12064382500608241 0.82713249607202399 0.19994563029625248 
-0.091742216247349059 -1.0699279310759866 0.94053653937109605 -0.049907104796830401 
-0.18269609998088346 0 0.081305736201793044 0 
-0.086342032290986886 -0.71952845169764779 0.46066811256583218 -0.24135289476547941 
1.3877787807814457e-17 -0.41990679818667664 0 0 
-0.2831429157826304 0.32023908707421006 -0.46646294416725015 0.040273668742145163 
-0.24043244169607372 0.57403711751053366 -1.1357362614894131 0 
0.033212053159626817 0.043975325676624342 0.3010894332577212 0.070108715930153429 
0 -0.41990679818667664 -6.9388939039072284e-17 -2.5872719657990415 
0 -0.41990679818667664 0 0 
-0.18976968409516123 0.2494739656429672 0.19702085555531584 0.79639276965623207 
-0.096132269133989062 -0.12984337177103378 0.057800675135593817 0.13413009830457509 
-1.7467764708996878 0.89503629548308383 0.30768788850644502 -1.9250830088254625 
0.32704699923210223 -0.26352004672572199 0.30655590586495796 -0.92894336482559281 
0.57186196309520587 0.25981289734397894 -0.65595491573457598 -0.26742762285708965 
1.6831373673405468 -0.22636738677704948 -2.3938380586960188 -0.41513295471217526 
-0.39642762946541305 0.37637444897262784 0.16418006392486104 -1.1797327361177907 
0 0.59837218952265048 -0.51169445605182129 0 
-0.46495544446965681 0.35343909193356748 -0.27609214926427211 -0.2307012797644982 
0.050348415695799044 -1.6385908092565757 1.4596728084490476 1.1995058958852063 
-0.47530467249314279 1.3051889362020193 -0.20008975315693034 -0.50101571341114248 
-0.56384917392196243 -0.090107628919025462 0.18667706429825909 0.091998984953717569 
-0.18103271236681559 -0.077913082864052269 0.071662662350445994 -0.037697694627410426 
0.08111708708896416 0.010765934521247994 -0.3444713306229143 0.53318233529984449 
-0.15899619846338975 -0.033939688776132473 0 -0.23800436465085795 
0.85392554776907914 -1.1266908270629337 0.91505101661282695 0.37734086977776138 
-0.44957721446904864 -0.38715893576444083 0.030840991338863893 0.47663428374011646 
-0.3407751110760428 0.20686704249027457 -0.28119092307339288 -0.83451397666858074 
0.20635750381259732 -0.17711478942470688 -1.7460552483714427 1.1654415966679703 
-0.0072382808193708157 0 0 0.33291025069298258 
0.28416806397751959 -1.148945549863879 -0.13623497609391078 0.68183532202459585 
0.4827206076624686 -0.92865814739634778 0.92961964839488354 0.96787981361754605 
0.20843194796369849 0.38805443949660978 -0.15091049982997654 -1.2287517325233202 
-1.7004375059846157 1.2196034029601375 -2.3070262174416603 -1.7929426818592604 
-0.13996485136254905 -0.26321729060784665 0.40472222021949494 0.10898292089086756 
2.290372377421745 -2.0479092050602286 -2.6977714525354908 -1.0140215389423948 
-0.13389009656707418 -0.28213335848268944 0.29992443345429293 0.23660299217826658 
0.060904561003838023 -0.063100876194362054 -1.1556389770527884 0 
-0.06422674261847354 -0.30684553197116621 0.21921380511299954 0.0049043725754196951 
1.5465853871295328 -0.99122841131778228 6.4184768611141862e-17 1.3010426069826053e-18 
-0.091397570680619461 -1.3163152545627772 0.70796108675894653 0.68405940661240761 
-0.31959108367191991 0.064216120738420646 -0.22486955581171791 -0.17023009051855725 
-0.29310028962920509 0.31821289398566827 -1.0821844591013474 0.72117253719065433 
0.39560698973555453 -1.1123076725824386 0 -0.98214375493756734 
-0.1814372472000968 0.099945444303883829 -0.11387805063454375 -0.27958815052165786 
-0.53553679066927629 0.42677437315755395 0.06270866497739587 -0.50943399002496581 
-1.9600574829997721 -0.22376028089750921 1.3280830558554759 0.74521780833106566 
-0.0613777893275829 -0.21322965291346446 -1.8216022107954133 1.2037115472494748 
0.21479831942470562 0.21853885687424895 -1.7926992550542793 0.17762642595192354 
-0.36642379695204474 -0.020343672626158021 0.44478164620936589 -0.35566340673276003 
0 0.17069151396738852 -0.17383169598603485 4.3368086899420177e-17 
0 0.22800285473618773 -0.39963296244286473 4.3368086899420177e-17 
0.11961842703807446 0.029520175783110551 -1.1290411835632457 0.62098281744045114 
0.2595018136688666 -0.68415435223328647 0.37199300902934324 0.30777389864457494 
1.0820521001257239 -0.94183324951945724 -0.29087266938017498 0.1660311059625319 
-0.72507970638275421 0.15285535989881582 0.20348235319961647 -0.49197448201409488 
0.035918622825456895 0.080264087858771566 -0.13485729251479278 -0.084177136465122024 
0 0.29671270424827328 0 0 
-0.13448451693325594 0.46887291362983913 -0.99906789776760496 -0.77322197201922416 
-0.39811807584554859 -0.13212286602643691 0.85877068364255305 0.37537182447606193 
-0.0039768851853630612 -0.08385816469331292 0.19796427859332996 -0.34458042603051858 
0.5849703654023144 0.061766278311636454 -0.46767710519768269 -0.75947451329030624 
-0.12246294143451508 -0.19678642114492328 0.32446268087128605 -0.45317496674338981 
-0.28315273829928 0.26826327641036596 -0.25104812389320713 -0.093409272156321776 
-0.28315273829928 0.26826327641036596 -0.25104812389320713 -0.093409272156321776 
0.33626060155465981 0.27491601685683026 -0.74805420143208101 0.73345785704717359 
-0.19811390368787327 -0.61360261967151453 0.75458588623695655 -1.0580962427693934 
-0.38166883936936535 -0.035577045555637628 0.42286551232482217 -0.046165997523117133 
-0.25048874439181468 0.14183384292060303 -0.63737811296204061 0.073172443273056026 
0.058963032214354803 0.033400488465005068 -1.1273114864705078 0.89140225244254145 
-0.14001508255375716 0.025271308943130143 0.31716946243413424 -0.62909292790141125 
-0.074152878614328732 0.055731183574388506 0.13194855573673117 -0.81377785112964696 
-0.043806659039193264 0.74157171546712497 -1.1830568211113484 1.132218398295503 
0.14258054929120867 0.61275244746281643 -0.40785981595284176 0.62464097787994288 
-0.16182186114918323 0.16650328372367637 -0.17411732204890623 -0.24590589330082119 
0.073497598566311939 0.14160782238827632 -0.54443183889534907 -0.10139806974670609 
-0.26477729428518942 0.078960952246779514 -0.75316161785679936 -0.18754269739950474 
-0.43012400723567562 0.20122700374423447 0.28222500777954468 -0.02947423852592862 
3.3948368300081788 -2.8091023708330862 -1.6138251988447962 -3.27580894626665 
-0.30059627653749493 -0.69598665749781197 0.84690966882368635 0.62916549939789146 
-0.19653582108356688 -0.49733968768378367 0.6534644409400876 -0.27048903077012876 
-0.024769589522213521 -0.1109960763222561 -1.1890781116079983 0.72892534684610188 
0.26235124229468237 -0.39317544948406724 -0.057887932144926608 -0.047635486404194335 
-0.40605862890495537 -1.0997470980574613 1.0041673561972266 2.0819976281041801 
-0.33896944057376005 -0.62558860999387877 1.0427266151722563 0.18153401144984244 
-0.079967230341376233 0.070930976040447097 -0.57944873376744477 -0.12573292858741575 
0.94748964965551086 -0.73012181550450261 0.59548952341000483 -0.64359036940767722 
0.38265260963945597 0.027720010239466047 -1.1563975060595402 0.49886808325254733 
-0.19112186278855367 0.13327616674696327 -0.32117732295258322 -0.68690829825724786 
0.78614999756200832 0.26445779032657168 0.081731739794087488 -0.83150138083160963 
-0.015998889671138501 0.018478519849591417 -1.3763921194052879 1.05555232967476 
0.53411549424771121 0.2491990095620206 0.097299468401372102 -1.4976336102147907 
3.1316005538745877 -2.3135077225101894 -4.1094106126853998 -2.8810568261534284 
-0.65204458913614083 1.7393287420163992 -0.40102363773297256 -0.24333248238427208 
0.046053909369965874 0.3131368449353007 -0.053308631856183467 0.11692251626658989 
-0.20073550550169003 0.25937200410465117 -0.32465253137764649 0.036057547016456394 
0 0 0 0 
0.30096119296506879 0.19006079615279137 -0.4875136748350134 -0.15290727606590654 
0.15849674005332781 -1.8678440642119436 1.6980795289781416 -0.79084080043398119 
0.022781049230633354 -0.30580709982518689 0.46162048849313098 0.1635895863263514 
-0.5587803748627973 0.32118967986001662 -0.75126262600099003 0.18183809574612222 
-2.1684043449710089e-19 1.1080546202801855e-16 0.41736751480942191 1.3877787807814457e-17 
-0.088517355473865481 0.20109344333672813 -0.21710852607261183 0 
-0.12354837155132055 0.78696607787752848 -1.5881620335519819 -0.13944217557344621 
-0.62351516034442356 0.61681424985616995 -0.53136783945783028 -0.71912394530389478 
-0.14032235626764561 0 1.53159559975154 -0.29737807177217312 
-0.098266728821567159 -0.19060690618483439 -0.79115749592562523 0.80539399809661638 
-0.2839197842445953 0.64869228868047446 -0.37368988152323462 -0.55895913456365454 
0 0 0 0 
-0.12944043732841667 0.1588397637378256 -0.13485632676656681 -0.31902042745595355 
-0.36201890248741297 -0.20817063106651196 0.025871625678323802 0.33224909782638495 
2.6020852139652106e-17 0.16585779333636685 -0.90329715714448966 -0.15920426314215141 
-1.7347234759768071e-18 0.16585779333636685 0 -0.15920426314215141 
-1.7347234759768071e-18 0.16585779333636685 0 -0.15920426314215141 
-0.19234947592697105 0.16585779333636697 4.3368086899420177e-19 -0.1592042631421513 
-0.39748741156054646 -0.20051668382902199 0.0003284460036466273 0.63562733422593798 
-1.436446148291419 1.127042730103935 -1.7769727489581539 0.57775912939350571 
-0.25818692199263749 -5.8803757878216631e-05 -0.9763335458521224 2.5277109572998366 
-0.055060626019805325 -0.011960105031454948 -0.25193093259040555 0.72633603399704438 
0 -1.5290027997108411 0 0 
0 -0.60136149326472776 0 0 
0 1.1149324171482347 -0.6133563237767613 0 
-0.82368539091146176 0.71340301536886164 -0.50029949182331679 -0.2670090583399311 
0 -3.4694469519536142e-18 -3.4694469519536142e-18 0 
0.066759943944620717 -0.63092333726459304 0.56189732347929489 0.20269301391895816 
-1.8214596497756474e-17 -3.4694469519536142e-18 -1.742583941727327e-16 0 
-0.40750346609876875 -0.21983502223488988 0.27827948058280677 -0.35913711127927722 
-0.20214218016510443 -0.34332594518981807 0.162150752591043 0.89280979410617478 
0.41632537981045764 -0.83144805194570426 -1.4871223415241159 0.75747674163704459 
-0.33025440661580419 1.3694857342444693 0 -0.50272998662372481 
0.09285995518309649 0.29385576258289869 -1.4478922603175199 -0.00030341944758471157 
0.09285995518309649 -0.21971623426374287 0.064761864663028482 -0.50272998662372503 
-0.62702141731174899 1.2934298332492851 -0.32729353517935605 -0.69336198678972938 
-0.48366350831671073 -0.39571102113300977 -0.39320399702406267 -0.77287067638559659 
-0.80474656682762979 0.68334616695642914 -1.1310053450353443 -0.4972712994796889 
-0.64786189637534219 0.19723910396026884 0.20092830920397894 -0.241684765693369 
-0.21667537826595334 0.3689473466099748 -0.71715467806789435 0.007461981841793662 
-1.2105325437839165 0.43966206430081045 -0.53930935199682883 0.27085986646253346 
0.039736386952867492 -0.13233270728240093 -0.13074556658479675 -0.7881212892506495 
0 0 0 0 
0 0.044785523073073916 0 -0.2181276268115675 
-0.52944218404391996 -0.84947802096373659 -0.017517207327994333 -1.2949775410958697 
0.30946585394509907 0.013239074898855972 -0.7821854053650994 0.73646689279038524 
0 0.14174005454826183 0 0 
0 0.14174005454826183 0 0 
-0.13272067336356719 0.50809432953432609 -0.36820161115723382 -0.54883231328981086 
0.60501178074962358 -0.66556442608603861 -0.51923025229550446 0.1666529938194927 
-0.034202389130102366 0.023824668505291594 -0.015080241602670285 0.0058005421854024682 
1.4151768066920429 -1.2479455112322655 0 0 
-0.2898778967507048 0.063558314144765676 0.053485229883983881 -0.1235471932907363 
-0.34187169123035543 0.091583491845283915 0.1832981388713151 0.47369529794400195 
-0.48764240783549928 0.39136358435453306 -0.2248257275522017 -0.74856796750318466 
0.57575217166767967 0.31325634225044025 -1.0995058738797772 -1.6455563112845795 
-0.50552351537369156 0.37802088693182589 -0.46586584034525425 0 
0.0057111013731075645 -0.72588802113040796 -0.99208189104501554 1.0278172874540508 
-0.74950628747644477 -0.21209163715133289 1.0193390086048395 0.16400577052288881 
0.43515622515733177 0.10244623296567974 0.073543853974869094 -0.15237925975254035 
-0.16672733087981337 -0.011907673903870306 -1.2306417877907709 1.1608862374172082 
-0.33730275315635139 -0.32245965643630164 -0.51807696199487707 0.85860281999613253 
-0.69726687984999425 0.34577132682705902 0.065027808519447811 -0.28371443005382457 
-0.310391570770159 0.19025638976249981 0.47408024537803151 -0.16440460492252959 
0.4312590401167159 -0.010936622495486388 -0.42152121772314838 -0.10831228628522468 
-0.19494375733390024 -0.89420829310190819 1.9489672415333676 -0.61107947238390237 
-0.057202715605061155 0.017381453139661211 -0.13355981780417256 0.041885528218212231 
0.076964176694361633 -0.17054925533395637 0.31904645141179827 -0.12509872689393001 
0.29178651674792117 -0.26458382440837769 -0.73006874006555089 0.19335084577538214 
0.18094044048678073 -0.70469587745936546 0.57649884534234541 0.037148257365132456 
-0.45984117942963809 1.1265864183154704 -2.0645023873987149 -1.8087306767677152 
-0.14712388746078503 0.009558976835228777 0.70073181635963955 0.86982406394556966 
0.083103772219489225 0.44346209713571072 -1.761324710150155 1.0845283244054351 
-0.23926074900786293 -0.24791395697082769 -1.237670182424597 0.74432606395662837 
0.20572116640711113 -1.325666860764799 1.4406916327287485 -0.25591208717951108 
0.56797764850284238 -0.29787639407956157 0 0 
-0.76512801101084538 0.84495271592848076 -0.64550526502341254 -0.5591612806137789 
-0.30542545310030533 -0.10923083448829571 0.56553549954448068 -1.1992241236432077 
-0.056637425567705263 -0.014180802648159751 -0.42526997157044977 0.1954439823454934 
-0.53384328543762249 0.21342489258437958 -1.1368859813829622 -0.70429318428346632 
0.017164957485735564 -0.37831377803510685 0.30853267812487711 0.15439712368998579 
0 -1.4735873666863402 0.82408846251225354 -0.092471066016045086 
0 0 0 0 
0 0 0 0 
0.52369005249237732 -1.3669325692536476 0.2229080356837059 1.1092217104752788 
0 0 0 0 
-0.31695459603248666 0.024576589039362676 -1.1272629738011033 0.47807072165681447 
-0.40376740894920438 0.37233488931227243 -0.46713566607472717 -0.43832172700931038 
0.072469979856420175 -0.46449539708483273 -0.30022588712733556 0.62658165161250012 
0 0 0 0 
0.095220198641424419 0.57425937925513693 1.717376241217039e-16 -0.33410926688875564 
0 0 0 0 
0 0.04812167788069549 -0.26396514593051779 -0.050796068187552265 
-0.056318519237964437 3.4694469519536142e-18 0.21224428910332627 -0.071892697583035667 
0 0 0 0 
-0.89658834022093592 -0.18356672337562741 0.67965237929246169 -0.084353012908027367 
0 0.014685003340946565 0 0.53334489322362078 
0 0 0 0 
-0.075912806882245124 0.43795600076574359 -0.26004786908259914 -0.45099194301167728 
0.44280653740379944 -0.80029112619105902 0.37070453972777273 -0.66637467613988099 
2.8655602963342179 -1.8308808041678768 -3.1878235222343863 -1.046478842542955 
-0.2540500927458284 0.2328217386100489 -0.11408812485056072 -0.10263111627342687 
0.0036170842123069164 -0.19145915185514881 0.43648870547636826 0.21204576400558692 
1.5589482964197268 -0.63578528697043024 -6.9388939039072284e-18 6.9388939039072284e-18 
0.54523096867329879 -0.11395287000045105 -0.069222955390895763 0.29834268481951387 
-0.18527959090360085 -0.53412649003608625 0.6981274394592667 -0.023368650977670467 
0.14343851501875857 -1.0011171705265069 -0.50570987468248374 1.8504847681633227 
-0.016975337959415242 -0.73561526228564134 0.68029128412268669 -0.26853339599697407 
0.52720740749113815 -1.7763809048879247 1.6655243134766722 -0.051651002783572868 
3.4875954377475722 -1.8607749224612229 -5.6772347567863184 -2.7760978634071884 
-0.51947777633426917 0.17614377755462068 -0.78770853899886106 0.77656489103837123 
-0.19624645718733691 0.62736239043184516 -1.3416953276187646 1.5527107006698482 
-0.3910279070442822 -0.42318340058380421 0.58078236204304756 0.091550348756028868 
0.11838983411696166 0.83812321562274528 -0.91666076184718703 -0.76385803133129981 
-0.15020628937736183 -0.49666015645669076 0.95813981422643868 -0.18075246330249278 
0.22318393412154985 0.11969232872947325 -0.23976153506558928 -0.36795609228412357 
-0.1177954971180562 -0.15660142743753558 0.11196948478170263 -0.16387016158789242 
-0.38687328689777556 -0.47630930506119473 0.2505479653240848 0.55486481039276769 
-0.11711034660346396 -0.53432301383523106 0.63327181966653023 0.041859441306007675 
-0.87114519358817133 -0.56292582972048733 1.1339533526352434 -0.082590479369902131 
0.15493305952399603 -0.79772929384101798 1.0153828464111292 0.12373622285098326 
-0.012656367134553433 -0.44352151197936907 0.57304837944312048 -0.35873828905919442 
-0.21269686384226405 -0.14042815682294671 0.39576080371900596 -0.5205144945734943 
-0.19498268960733575 0.29520534319058944 0 0.040870903993057858 
0 -1.4777897555502764 0 0.040870903993057948 
0 0.33277275432195741 -0.30168293484858189 4.3747557659790104e-17 
0.72393970575804301 -0.44229942372902564 -0.9167422269913571 -0.024860381563168193 
-0.15525999661156176 0.24800574362265643 0.13060313262610995 -0.27316393477797513 
-0.15342346862360989 -0.19016282773988805 0.80144290973759003 -0.47790457618340554 
1.6929523887009914 -1.3548886556070263 -0.89951824878525011 -1.5994028459196068 
1.6301338088655077 -0.70385440939784927 -0.058430980196101462 -0.1551605185656475 
-0.89352699123323465 0.43899258192423313 -0.25784872239560219 0.32486075253936653 
0.045731705201152398 -0.28405535349091982 0.4930670715092299 0.7559381452695676 
-0.1322827438342063 0.68422905309716253 -0.59318617061072587 -0.20938719456331689 
-0.41728193875348929 -0.085249769671412345 0.18234337711798923 -0.30747546353562288 
-0.096622965822837178 0.15973295791010253 -0.056334856859347568 -0.15335709403867409 
-0.77923281817636469 0.014157487294820838 0.84136721869802744 0.8432982479046659 
0.00097699999603251611 0.11184258187259408 -0.35736790321942302 -0.84341934120869333 
0 0.4830471613648904 -0.58010833142051987 -0.014058811673153555 
-0.35729781863489896 0.34354826748429956 -0.3715886811783593 0.25197373686479302 
0.90706498226051879 -0.67127680839127368 -1.4677405265345935 0.25150079025109212 
-0.83845175950286599 -0.20226251082097713 0.040321069310187252 0.3917866720478651 
-0.2469991441839223 -0.10945421152378204 -0.026405498517193343 -0.32612794994914274 
-0.24072218863741904 0.18031853089890687 -0.019108878746925888 -0.50920918534745674 
-1.0017448802444395 0.54415769979101591 1.3677887552509498 0.059550048168833469 
-0.17301264991581067 -0.43511068864793045 0.67785074436199089 -0.18871213261024647 
-0.48305809830761121 -0.17079956315497047 0.17082998707954847 0.27639950207571939 
0.34712286530833564 -0.58418128104163791 -0.37576190040807222 -0.8554062521783834 
-0.3358497011918416 -1.9787522553506773 3.5207827742472708 -0.28078167112070962 
0.45238177858896667 -0.46857866585538438 1.0152649653944259 -0.65328697780372635 
0.1244426099249676 0 -1.792748570117235 0 
1.4894790920702747 -1.4809096222833449 -0.1185419144380308 -3.305093772622854 
-0.056298678333145516 -0.33033893905694728 0.54979925932621676 -0.4296981642480513 
-1.983027809260264 2.1292408661089106 -0.48709789562877076 0 
0.17095041026034563 -0.36298299626343156 -0.086870176252881487 0.12303940261890532 
-0.23694007896894634 0.64757200439307483 -0.39774460389332239 -1.1420391929316036 
0.23682087303076205 -0.40485766426581182 0.80210419602444027 -0.16210743903929148 
-0.47664223128996946 -1.5408395244639517 2.7210274414848188 -1.4865975992309268 
4.0000960803690608 -3.3314056587117911 -2.546039732676185 -2.5020575654123052 
-0.31444939050005111 0.37205990700069774 -0.50123546523444562 -0.3627879726465002 
0 0 0 0 
-0.47355310254360616 -0.37919874086795025 0.75186164484738549 0.11589832954415157 
0.30448239947187133 -0.10214085931158687 0.24872077028511727 -0.74032283945737709 
-0.6988540461177235 0.011869824098850654 0.35273288299296596 0.090593350891325267 
-0.42617186993368555 -0.72284350635881633 0.073778790799052377 0.40007631211742678 
0.21273164339694178 -0.20431844458990156 -0.30398676964945248 -0.41203828593902775 
0 0.14513579776515401 0.3279430867486654 -1.0288569183482379 
-0.36373835224737083 -0.3958983805129121 0.92696358839962956 -0.050091133762727932 
0 -0.0932185424911499 0.40960957996653824 0 
0 -0.0932185424911499 0.40960957996653824 0 
-0.30550514608971502 0.30710388131834787 0.21576129871129049 -0.077603982985176123 
-0.12435854524335199 -0.093218542491149844 0.45498635081228517 -0.11535764675190285 
-0.065200476366335275 0.28216764552611129 -0.78276823066702583 -0.88885621211356336 
0.031860199159763944 -0.15719311955051382 -1.3334748599333284 0.76326730417784272 
0 0 0 0 
-0.40115783824767565 0.43890290083151884 0.039871077217321776 0.076320802290914411 
-0.06842669886550122 0.030126120231454646 0.1686149003035656 -0.3068579223845313 
-1.0570003519440281 -0.39940422836611522 0 0.71368201923765007 
-0.07497715626997857 -0.22556123835014388 0.13109351493190807 0.83838291590661218 
-0.17446640813831243 -0.5741465454087108 0.679779689829348 0.4326250753241096 
0.25543838127833263 -0.27994303009948818 -1.2364675248021022 0.55699409538124389 
-0.29418262416735064 -0.11115181367313773 -0.070932671607701336 0.028135741085811225 
1.5051998446714501 -0.59591242782471687 -1.1726256718061216 -1.059974949215118 
-0.089160187155760171 0.47843593332272905 -1.2534903529365571 0.18707238006738192 
-0.080583798675312707 -0.23339600637577054 0.46445841384385611 0.20109352221923105 
-0.16898807861202295 0.32436109949668224 -0.40962545597017108 -1.1501737521510937 
0.59582279162301977 -1.0276929168085496 0.72618612654976289 -0.79399712095749764 
-0.45354510564028133 -0.19135903960227135 1.0408340855860843e-17 -0.070732325213826483 
0.11104647055697332 -0.56079653306667709 0.082463040635263662 0.23754247533472514 
-0.60576516154317295 -0.22406087435100391 0.94455764087620331 0.55163008909715772 
0.028253106603163325 0.14948980096122785 -0.17096706289305794 -0.20815087050298478 
0 0 0 -1.096688001429404 
-0.33828033168492683 0.24050340162768263 0.0037960136412342194 0.79375046914802039 
-0.51892590564006769 -0.75923672204246206 -0.043761346924243126 0.56733333788354801 
0.088659295158432572 0.26932743597568265 -0.69619517283836341 0.17431125528872374 
0 0 0 -1.096688001429404 
0.0016560616571112095 0.27059655435582419 -0.43636718052622703 -0.35855882130896305 
-0.56352550156561521 0.067530539814530388 0.16807189535801928 -0.45249364030186778 
-0.42287011719277884 0.7914569515887615 -0.65528530736849844 -0.84600366569855412 
-0.29012860012929392 -0.59916647063200468 0.34283046872582468 0.19087751676582662 
-0.032692991894641074 -1.677767285722632 2.2520221526112327 -0.045059260100535785 
0.24396839203434523 0.15847151708812018 -0.79071766813897548 -1.0561756140750784 
-0.39333014657469861 0.83303510813431414 -0.53770520278216138 -0.76808921626142246 
-0.22733763149573563 0.15493719519060223 0.22402045915729943 0.056105041020916541 
6.9388939039072284e-18 -0.061936638020135798 0 0 
0.29499598434466173 0.51198701805914271 -0.69072076890862799 -0.35119850640863842 
0.82512850288345407 -2.0177118732953754 1.6225666844512567 -1.0530708706079488 
-0.45900550817057906 1.8514165009995762 0.07475675213672911 -1.3077033832014182 
0.013619766915449836 -0.30185320001814492 -0.69326365363795084 0.89906412305410233 
-0.65377836051071037 0.76704662021632997 -0.93100579622411062 -1.0901171315345564 
-0.3377172315849768 0.02506243246723637 -1.0093331299879027 0.90645935937412747 
-0.43008845538458668 -0.4518138216899899 0.63208669842357579 -0.24138003969271385 
-0.26349867249015901 -0.33982610372331362 0.39084248957215362 0.060156936007174394 
0.13080677180348002 0.19053882058162935 -0.15380109868803829 -0.94088360440618823 
-0.32529040729646469 -0.2697148398200549 0.51305174083210248 0.22747607163270786 
0.057964756813755083 -0.43595010238553478 0.39200268903108021 0.060016067295149973 
0.063771144648784611 -0.012912728475116229 0.27762307997509011 0.48808924564928219 
0.34083783353596325 -0.71879205945079683 1.398472156068344 -0.71425914940332269 
-1.3260609993602785 -0.89146668869791301 0.67773450218142672 0.93907784694487528 
-0.65978799270360666 -0.39651812177767803 1.0630570622927245 -0.21409307068356936 
0.47414988213636228 -0.5721745716572042 -0.4749989001438441 0.8108106904811373 
-0.52874866336502091 -0.69534487218561869 1.3322103294658882 0.53827675986642998 
-0.55073736082311253 -0.35946934083543047 0.73344441141875205 -0.30869577085699884 
-0.24849971354229899 -0.63784396873908755 -0.21283044015280148 1.5023804524502113 
-0.44391014152637565 0.034485357119638682 -0.10809492019858705 0.31724725007962895 
-0.26023978534564518 0.18860484550490189 -0.25969117155981103 0.019339423162000415 
0.20938730997604083 -0.84592850924536211 0 0 
-0.17337287484458935 0.85923916779483056 -2.7755575615628914e-17 -1.8886892572460281 
0.48113787558790416 -0.7071939538980142 -0.31472178504864967 1.4680893364536682 
1.0422670376144318 -0.61959952918283256 0 -2.2605960725544838 
0.79060822244849427 -0.80879010126682249 0.55202289750209832 -0.23929338217587351 
-1.1641939590426036 -0.54791497376908316 0.94348619548020296 -0.38367794196588312 
-0.52997480689126042 0.073356805390037347 -0.90663743600946456 0.4549904435805292 
-0.33209499011553573 0.26480293470727617 -0.94408539260017221 0.61512487716691588 
-0.82117178457486739 0.34351735082658752 0.071286702305301666 -0.49798319848034894 
-0.81331948532685816 0.46856317232485412 -0.30697230218668847 0.28695042255564052 
0.21270720175332716 0.62717228086146848 -1.2628453265543382 -0.90685299443804146 
-0.4157343377283414 0.30620617594829103 -0.76981110794431462 -0.61222279587205752 
0.70633851693990224 0.10414133780400042 -1.0746381727739083 0.60962109290400135 
-0.0029533081780479778 -0.3752994065562747 0.5061814153329347 0.019329960454357892 
-1.5612511283791264e-17 0.45409571677771754 -0.12722196542298297 -0.2208567537270324 
-1.5612511283791264e-17 0.45409571677771754 -0.12722196542298297 -0.2208567537270324 
-1.5612511283791264e-17 0.45409571677771754 -0.12722196542298286 -0.2208567537270324 
0 -0.63173004107633124 0 0.60664863392978674 
2.4286128663675299e-17 0.83715056818214828 -1.3631042805933165 0 
-0.020579154072944444 -1.1567307382010099 0.90450360746199443 -1.0244032492894604 
0 0 0 0 
0.30265566141498806 -2.3673846108010066 2.612140904453351 -2.5049008270927273 
-0.46518999519401438 0.35322023499614247 -0.27591107128240366 -0.23078147606093591 
0.25140087762211794 0.22844873258020326 -0.054674971903760472 -1.338876212033866 
0.47822645191713059 -0.043388576370667065 -1.0422292447868442 -0.14235784100724397 
-0.46149356601850167 -1.143801584425896 2.4048339432045869 -0.14271473335046342 
0.54598937371714329 -0.66937001946780406 -1.0436819911604776 0.52473479410123569 
-0.16867587949086379 0.026459532776429134 -0.16679409130268849 -0.1118365551208213 
-0.60588579775063689 0.10280590962708516 0.36386087360616332 -0.20293396629837523 
-0.14460654307505472 -0.027230021494919057 -0.17865910949637226 -0.058460291331791876 
-0.51448085462508897 -0.51114383747082748 0.55799968365569519 0.077732028481745541 
0.073305079715626276 -0.63129561536707912 1.1173254644255641 -0.17484491822337955 
-0.87706421425914161 0.17371551358467108 0.67256408871786033 -1.3147458889162462 
0.74148190437497685 -0.51425951832314243 0.58188469580323199 0.063393057227549982 
-0.058525433320101593 0.81799246508741641 0.039865433670901007 -0.60144521410721341 
0 -1.1266415196423274 1.3367710731791604 -0.044708567151478626 
0 -1.1266415196423274 1.3367710731791604 -0.044708567151478626 
-0.13176976415923033 -0.88413746936875892 0.82621062733304629 0.53950042017897804 
-0.30570764256702848 0.59851200739368293 -0.31642540368999134 0.18622472781410154 
-1.1796119636642288e-16 -0.77737863920225747 1.2669270530268928 -0.008591445251081492 
-0.3881269847064332 -0.32760516499903858 -0.26128054733155059 0.91653203251942783 
0 -0.027850036321188269 0.84092068928315478 0 
0.078403589162341886 0.12729676438643586 -0.49603353904912922 -1.9018975427539964 
-0.18871830131681991 -0.66872731281108877 0.58702980380048519 0.35719313952293086 
-0.62288183225621696 0.87125751980421606 -0.70436639217974395 -2.1213376260086143 
0.34033949182145434 -0.2873630554217152 0.84886783818799338 -0.11546830245661154 
-0.13342135922330933 -0.72603758963191356 0.60580547662435902 -0.059067288619116122 
-2.4286128663675299e-17 0.52107121994587491 -0.13246195148337375 -2.0816681711721685e-17 
0.042267801283340012 -0.20315396285289317 0.31947901880460539 0.27559204640393259 
1.4239196840913437 -1.1510748726279809 -1.0062517243073086 -0.9852379208062485 
0.29563589098727178 -0.424816299212463 0 0 
-0.35168234979780533 -0.42753365145448335 1.1956862082979793 -0.36818546984529948 
-0.2142991403988693 -0.58638817000799304 0.26060451131843826 0.51376016794221624 
0.27914218171699751 0.02274366574469068 0.21699725118776747 -0.69419046963528475 
1.3949619701590161 -0.52500383910897541 -0.87250627098019118 -0.48611611634022417 
-0.52737607674926179 0.49017404504680362 -0.49679772215373763 -0.060100755124828792 
0 -0.52500383910897541 0.69205223362784729 0 
-0.34523604757043275 0.31077068534002283 -0.52941261471707479 -0.1632186693841596 
-0.3725574139435317 -0.25527125241281812 0.72733400857440822 -0.024657784510295336 
0.38046345620376221 1.4577747268980299 -2.1312242493110496 -1.3659284582534064 
0 -1.5913110952990608 1.7184635211183357 0 
0 -1.5913110952990608 1.7184635211183357 0 
-0.30291017723193719 0.34941275601794597 -0.064055561449128356 -0.32837751932253051 
-0.034268779896060968 -0.016434943377017248 -0.0024753700988784794 -0.32111644682829982 
0.025157390432475044 -0.1286506704270538 -2.1953864355598207 0.72851892397846418 
0 0 0 0 
-0.17941617333576929 0.1232236348250223 -0.12655638766328081 0.3052920933019786 
0 -0.60818010022719371 -0.20180715857876197 0.55397648635214258 
-0.035992780205856903 0.3396630054998836 0.18917135219903355 -0.11367108412396884 
0 -0.60818010022719371 -0.20180715857876197 0.55397648635214258 
-0.23319531832067586 0.10890914502014624 0.046327205873527247 -0.12867644027450401 
-0.017608131569898086 0.16555111521485738 -0.50252135661836772 -0.12485200975108035 
-0.58711232279615433 -0.35309021505775606 0.51717243007185765 0.46998649402059645 
-0.4820507923076458 -0.038891770215344748 0.36883633359149093 -0.14903910110300983 
1.5482082423893662 -1.8781645354407015 0 0 
-0.29372511540208079 0.49882298829886701 -0.64495340100583154 -0.80755683848542636 
0.12045756064056304 -0.14230742968358354 0.18278513710056202 0.1299710463951004 
-0.091217847159022369 0.16742772640712211 -0.15172712070145611 0.179823277895791 
0.077144474273695154 -0.14502188009009143 -0.44602657419384356 0.58997064937047816 
0.22181894376879902 -0.70018203883307406 1.0662617947911266 0.26244055767175567 
-0.039475628341931933 -0.67312948015927021 0.60517158872244337 0.18583140691709121 
6.9388939039072284e-18 -0.40019974389289437 0.97035746106954723 -0.56070104894820938 
-0.23817033091134826 -0.14631468876313503 -0.52032107921625459 -0.26127236081754063 
-0.062260206931049542 -0.06903278056675359 0.073230858427745446 -0.26090539902355103 
0.052560714514396138 -0.48489518919684216 0.49370517665942149 0.55817130193134978 
-0.42434907265990479 -0.33510358479643004 0.36162466957136585 0.21143466314838294 
3.029362915414735 -1.5688762599510837 -2.4827327479261392 -0.5145294662725779 
-0.073353587237436346 0.4953809213339081 -0.90696109213521925 -0.1940055627851564 
-0.0868509608639218 0.44606264001587181 -0.46009009724374966 -1.1378610176380819 
0.27041189459276738 -0.014290303661260556 -0.53029117253573255 -0.97570395871083793 
-1.1796119636642288e-16 -0.1367102074079502 8.6736173798840355e-19 -0.62179401513400201 
-0.11083628550320032 -0.16826662534990722 -0.41075046261399561 1.366832431810628 
-0.84424798521090505 -0.80909159187585966 1.2303828699239061 -0.6464333981632211 
-0.55329897456841093 -0.0043024384460493992 0.15064405892446345 -0.76969721078387243 
0 0 0 -0.014198688868311774 
-0.0094599913313309011 0.5064466900418606 -0.54693471667167137 0.7696244537950595 
0.53520909356126123 -0.51947869766642762 -0.55136065714239912 1.0730765534379738 
-0.028075041226834442 -0.26397701949328672 0.29670766433813556 0.21062109538010895 
-0.14386407947187668 -0.42681141030187164 0.51147537028923729 -0.14624292316128429 
-0.24670820842931213 -0.10025223167506277 0.37212885555928382 -0.047381806451492516 
-0.098865527347350601 -0.60197030376190652 0.33654527644972787 0.23181148417973835 
2.8864615082190381 -1.8291427439487449 -2.9685351499912485 -1.3639341543962551 
-0.43850390881580553 -1.2356577818698142 -1.0083053144028429 2.7691944585560058 
0.090699961328974094 -1.7415779135137299 1.9572526971654014 -1.6271963043690056 
-0.46086626647013901 -0.0074238927061942364 0.71950994281924197 0.29992246700167147 
0.42102618650833934 -0.3954806197895695 -1.5435258406728818 0.21832455476547444 
-6.9388939039072284e-18 -0.73517467391264102 0 0.10607999787643313 
0.14746811869187257 -0.83406726333317383 0.12960771321252873 0.32503272215447904 
-0.45071219450032524 1.3802914228196723 -0.78528002247893758 -0.30344083138372435 
3.1542089180985298 -1.8771682633625109 -4.5491044006098722 -2.849462189415962 
0.39341849884721841 -0.69652554470454808 -0.6728924921389875 1.335006306592589 
-0.095523414802398093 0.16905221002918452 -0.3945766721764955 0.46276386777591844 
0.14597700830731553 0.44229891082445605 -0.677387284199926 3.4694469519536142e-18 
0.42577952902040489 0.06950035555734245 1.4812720589417532 -1.6635438072390079 
-0.30366635634138872 0.71377508451289784 -0.42116144429938834 -0.08370373636986439 
1.4191318680349241 -1.7970947646199331 -1.5612511283791264e-17 0 
0.14302027037014903 -0.31796402237340715 0.000783574786345786 0.49839455729844084 
-0.070063823257621366 -0.60808543552251859 1.0257068489027201 -0.60318859397744728 
0.042815268709461805 0.18475520362917694 -0.50747576142080686 0.062033101675573903 
-0.20677183986556877 -0.14282402437577704 0.82689400772997312 -0.21092980170400483 
0.10940983801005302 0.030470214106332882 0.12129342986136435 -0.30136314463839187 
-0.32952027440108278 -0.26427368029142184 -0.73787894244288466 1.1406955977137316 
-0.074981309585160208 -0.33897160328269316 0.67365437136690598 0.44857500977472864 
0.060202640711541106 -0.99294374944771902 0 0.56105476625064299 
-0.40258113609686436 0.67392299798751709 -0.52563716623770018 -0.034043173404021354 
0.060202640711541092 -1.2122194065222933 0 0.5610547662506431 
0.051966980665543304 0.35582827545298557 -0.2654950958996698 -0.96658759511024961 
0 0.96074476480050541 -0.067413772396624716 -0.62493137166638302 
-0.053602217491620821 -0.7695879087564107 0 0.33931989606533269 
-0.89645378223280725 1.0912167032317655 -1.1167287081792572 -0.50367880884721283 
0.004024462275556146 -0.23270498307917617 -0.8364608488123374 0.88617806890309359 
-0.055082096212308633 0.10371706098934866 -0.29872857504549166 -0.078023355214590612 
0 0.21921226656841322 -1.0401026308367933 0 
-0.34734465632833306 0.31070402970477679 -0.47221139746308127 -0.49934565777395923 
-0.53017637587033661 0.33095683848672997 1.4780275921763613 -0.93471227183552208 
0.32913684923518527 -0.47669015124489345 -0.61412743698636985 0.075707877254595116 
0.28252816678040316 0.25274688643402393 0.027952168580165644 -1.0044158184944236 
-2.7755575615628914e-17 0.062765233207846882 -1.2700804824961727 -0.34185429149831598 
0.013095970063749608 0.093074941520331855 -0.014224510949500781 -0.27420418299317306 
-0.31156939516392784 -0.081729445161451017 -0.080947648217343654 2.0816681711721685e-17 
0.046037032242077544 -3.2110673261234139 3.0886348002910338 -1.5126126289112294 
-0.27602221379202097 -0.077080963603364874 -0.30424375193655673 -0.031844649868596711 
-0.43277498315371171 -0.47792225033140207 0.22675299432920717 0.38754011594833021 
3.868474378633977 -2.2505954609952137 -2.3306159493377421 -2.1684813813747588 
1.7748717681280348 -1.693844100256052 5.2041704279304213e-17 0 
-0.11167512164805031 -0.20807518516813792 0.21704108933407826 -0.28694250529823168 
-0.011433517964087841 -0.31684058344072508 0.72403076821247214 0 
0.082377748100653819 -0.31684058344072519 0.72403076821247214 -0.22359595816417657 
-1.1455293330470944 1.3212158408857411 -0.42529102122739754 -0.74784833877001455 
0.086503524633039813 -0.38702369398631042 0.39604847314588987 0.23451077605930054 
0.97345657868917046 -0.44613684867265369 -1.445392886423015 0.13881570900716106 
-0.21883556353524719 -0.14715506222270286 0.42686625577592346 -1.3500220345789304 
-0.39058264054163744 -0.16676010947081779 0.56551813944803797 0.0082254303514575494 
3.0357660829594124e-17 -2.0827970782936078 2.0739438370576977 1.6967763999398144e-17 
0.45270756120179978 0.091985148421588017 0.040924966535175439 -0.97095766823062191 
5.2041704279304213e-18 0 -2.8925310355323752 0 
0.18819396977752378 0 0 0 
-0.6243207183878472 0.33913065122582653 -0.48571920118787931 -0.65174312824928249 
0.036732039342629426 0.39257608703482738 -0.24231464803397307 -0.20960028403151887 
2.3571767227575413 -1.9918411074878188 -2.6539734746291628 -1.1342078829228124 
-0.77051593003175789 0.87888987708284283 -1.1298605585713972 -0.70439107694598324 
-0.0868247561465125 0.043354636473735352 -0.73287924859096309 -0.058134096806561425 
-0.27909858482408351 -0.039160875233670955 -1.8210774002365746 0.84032418153956323 
3.0625416833911969 -2.5083791875768311 -0.7890220534371386 -1.894117127559072 
-0.386531032513383 0.10219516700024084 -0.2404577279867933 -0.28554131445854514 
0.12504470040057447 -0.61671470580540055 0.63587143487466535 -0.10440090162054018 
0.1994358725928618 -0.029046666637958518 -0.9608587812896513 1.1262780696210088 
-0.64919611249985187 -0.53284021913333246 0.50672292446179013 0.34756055145965842 
0.46961627175355414 -0.51480793139495828 -1.0307445311286147 1.3830591559197591 
0 -0.088279173857126234 -0.31497134672770188 0.46856796844973025 
-0.10192860567255886 -0.26681666250391184 0.15290517990360408 0.32448433133434784 
-0.11878918661399238 0.0684268115039455 -1.4313986295024348 1.0412493078569296 
2.9527023211837204 -1.6576950033761269 -3.4395881449638255 -1.9813646992217795 
-0.94170617862629669 0.48595762844886642 0.072938234435889884 -1.0939076248350281 
-1.7183045774015691 1.0423730615015021 -0.36485909122999793 -1.2475583735277873 
2.6102649704780423 -0.64255377803892966 0 0 
-0.72390535706620684 0.58846360500085138 1.1102230246251565e-16 -1.3300437695788325 
-0.13302811796477132 -0.064839351851226676 0.15080471039994844 0.037630142232393249 
-0.059236166046620159 -0.69947268759054926 1.049869506272888 0.0043758905354712371 
-0.073278217063122347 -0.98015360910308924 1.4609366885697959 0 
-0.072447939920134707 0.14330616185046052 -0.11068778404714653 -0.24672005507120531 
-0.069213369493527202 -0.33001411036534761 0.71688123902954981 -0.060011422353256814 
0.33680231904748997 -0.73508412309276228 1.1056504838892169 0.91534226519081707 
0.77192455641020041 -0.5383771868974172 0.16916633850489093 0.15898944574383783 
0.39140609871309184 -0.53496976701287091 -0.88118206121396281 1.203810667307686 
-0.32188081930356865 -0.32137211435220553 0.010286314623213146 0.74173023766284674 
0.52723013664104845 -0.085121796553656121 0.077444343766782803 -0.74734703202593811 
3.4694469519536142e-18 1.6113128864776496 -0.36443880996571554 -0.21389658170248385 
-1.2826858447360698 0.28897472174327204 -0.37827331108612111 0.34330505909023812 
-1.3877787807814457e-17 -0.7593583254232269 0.17917039737188528 0 
0.17254268662383682 -0.24456746629546966 0.17650591741386495 -0.20456743976716288 
-0.54835807311390072 0.021976440690914156 0.4099026935932335 -0.32294730972022417 
-0.85053374173184992 -0.93227758868682831 0.73190307479620709 -0.26842781245081243 
0.29255560867189356 -0.86758055438468429 0.87870548891733158 1.1523573569177694 
0 0 1.0408340855860843e-17 3.2959746043559335e-17 
0 0 1.0408340855860843e-17 3.2959746043559335e-17 
-0.37642522215196506 0.55359596091448227 -0.92489646027624539 -0.092611055053017727 
0.007405815433652381 0.23326946586282027 -0.44631402031636891 -1.3711813779262805 
0.15959505104778493 -0.40501857695751392 0.33735560430383554 0.29134898534815357 
-0.86927961534901899 0.22764066571330577 -0.99741162975476871 0.19116432509151318 
-1.3877787807814457e-17 0.063522133909610951 -0.21854327446032898 0.82182629549791364 
-0.39642031720188192 -1.63292102240993 3.9067415145351823 -1.6008447011951139 
0.74655445641954765 -1.0294102456623646 0.7668470881538596 0.24994175998479029 
-0.16886695122544831 0.61352392585035453 -0.1911205920209223 -1.9124193526925863 
0.2969599675309047 -0.23148935371535889 -0.24364532865269312 -0.45233301603038228 
0.24966692937744017 0.93632908296640149 -0.55268921673492599 -1.4661884577825837 
-0.48243373049359373 0.3454319365576819 -0.23515400564026187 -0.23985748790461295 
-0.28989554093550884 -1.3146766175505458 0.95118947363563655 0.95515646983119773 
0.34455534869446319 -0.15001203817013836 0.12770888120386267 0.30229501316427887 
-0.86934050425105791 0.63489844892316127 -1.2449128643710408 -0.50692879764345578 
-3.4694469519536142e-18 0 6.591949208711867e-17 -2.6020852139652106e-18 
-0.72133936871657578 0.43528622849149634 -0.41734474781032743 0.30230025302140062 
0.82995073452903867 -0.42528419072418522 -0.43504602679723114 0.66245028215560986 
-1.0393979034971519 1.4450202919651001 -0.43504602679723048 -1.6118451003875554 
0.23646379249035485 -0.095917571747802244 -0.2562693158481511 -0.067379730040977776 
0.13277465096725974 -1.0785779554101926 -1.0935044608727962 1.1513906332864212 
0.60869251872455632 -0.28764437875023807 0.069209407699818051 -0.049282145703848694 
-0.55278143288394987 0.77468587043548032 -0.64964090172629596 -0.022536940348394624 
-0.098250455546005866 -0.59777949838244882 0.84106422554966587 0.30031426652402643 
-0.18056011155917692 -0.27766430712565571 0.60800003514307399 0.24533822985057088 
0.19185033247586769 -0.29504636619203595 0.68207917036872401 -1.1290017789396809 
-0.1061229554805628 -0.30324663420276937 0.60371276582070743 0.0051775774482935334 
-0.43647775000973782 0.23081734783716384 -0.38465917228403268 0.089231744024641929 
-6.9388939039072284e-18 0.19504760004553223 0 -0.014858859643230341 
-0.3600230996109649 0.62261805242643142 -0.90860193952354151 -0.95643876568304098 
-1.0581154804457586 -0.95947862990360155 -0.057876749819543737 2.479050755415499 
-0.64947749843487423 0.10704302952927533 0.3455603719584881 0.35700162505821748 
-0.36957400651542699 -0.43963858105249481 -0.084930025109721974 -0.06060714997159955 
0.10109963467006242 0.088976973560664405 -0.09493146141692535 -0.4931222053750316 
-0.12155818294461662 0.17977296215615557 -0.26815658580349355 -0.80854410801352994 
-0.31389967257174034 0.32761580335089813 0.42985666206550865 -0.26300492804765391 
-0.40128193816680569 0.080384324804806326 -0.15459098280121744 -0.32283404559398854 
0.47236630067547125 -0.39050916056092244 0.20384704349548816 -0.098998053310535891 
0.26952865547619925 -0.32530333778311654 -0.59680955559745996 -1.4807594317344979 
-0.51998029716367244 0.38785921833068188 -0.18665284413088928 0 
0.13301322839374005 0.59439484327561809 -0.50459325759889961 -0.62168668529779669 
-0.13636799701680899 0.0088590881127225338 -0.038979298514983086 -0.08062597342096002 
0.44404139875206372 -0.66312243331209908 1.1314168348298022 0.22970180653486769 
-0.27708561195529974 0.038903080144115261 -1.3875189984582053 0.73281355546338578 
-0.10378183177967513 -0.29464031969276594 0.40213329343453286 -0.13893572495244425 
-0.48837469914238052 -0.093869254068731964 0.70437340647220692 -0.87883351774641594 
0.42898576896943064 0.42545467171700657 -0.41177119715670435 -0.62138567301622782 
0.14257398985696465 -0.7332741757895701 1.1353347512434566 -0.16247297953800841 
1.4603192364480821 -1.2579810598224246 -0.59032010162562443 -1.0565618297863544 
-1.8289753902404569 2.0267396755028053 -0.20859892310485695 0 
-0.20760729184117155 -0.27600693412408128 0.24360937994905377 -0.0080201736687077196 
0.11335146034688209 -0.75440585833803186 0.83058185379409311 -1.562778501751223 
-0.07634253116855591 0.89199984370291041 -0.40308209720452909 -0.55377987856289812 
0.23450030087320783 -0.43608326485691112 -1.3105946766352772 0.066492551551579265 
1.3010426069826053e-18 1.214306433183765e-17 0 0 
-0.44997355171272968 0.37626459170692339 -0.1166788397877898 -0.46979263301416713 
4.6001303464678864 -2.8150491183992417 -2.9685361271048292 -1.6894001219764698 
-6.9388939039072284e-18 0 0 0 
-0.17081025151057963 -0.51962933170398007 -0.46411592732594587 0.12977541424494413 
-0.21088660287796854 0.53159490945811827 -1.437396338124973 0.53095606346395197 
0.98639241628255969 -0.94700868902031687 0.29756291554014291 0.13051331994959137 
-0.40867259266249856 -0.12502398523549427 0.80563977110279472 -1.0224266559059922 
-0.60979606037564693 0.29940270442683625 -0.0092441251547034364 -1.1710414038561301 
1.2710924852021617 -0.23682307063296287 0 0 
-0.58584283659930481 0.32830582304876715 0.20827673973400482 -0.90030704582736898 
-0.17413281343867687 -0.73373199187631355 1.2790367441185564 -1.7297131840125828 
-0.38081359760899042 0.33978783234647003 -0.53709589467001928 -0.66847053639923226 
-0.26259085251160652 -0.65937606726633669 0.78713343862444396 0.38753474545804134 
-0.12915165086386871 -0.15432687914230137 0.52538925684648852 -0.39439360434831261 
0.97956071703362246 0.29397039186062163 0.014964863509101894 0 
-1.1995064962633135 0.59786946451276002 -0.5106632382450863 -0.32750562338507683 
0.21820082970178514 -0.20822206967436208 0.0043129967791046093 0.094639136968507509 
0.74901646070726724 -0.60545343491537906 -0.3779410441173201 0.75503951888782461 
-0.37434978442530642 0.55834163734348841 -0.62676851040578663 -0.63026566586848243 
0 -0.15780707199380598 0.24318865730856226 0 
-0.28114553549248056 0.34059338985034104 -0.39239407781155367 1.158723169396183 
-1.345825173515844 0.016766317921706575 0.46645932349383479 0.41319957544462521 
0 0.48651731348005639 0 0 
-0.37381854626222394 -2.1305922217128286 1.1315855091729745 2.6189772629255987 
-0.10405831713852777 0.40121959013148356 -1.1596530771569356 -1.2605916324187718 
-0.69740780750414555 0.00379389951313297 -0.1900818245736498 0 
0 0.48651731348005639 0 0 
0 0.48651731348005639 0 0 
0.27964556748890662 -0.20785266390339363 -0.9708833851312213 0.48393343428473373 
-0.34134828809157303 0.97247731204486143 -0.54056075280948668 -0.17280877992539057 
0.18410145700408564 -0.34166525974453676 0.41668712155120735 -0.30015647537742085 
-0.29703725119726199 -0.1294194541695643 0.76483121175477098 0.10065658529663343 
-0.23750942867743038 -0.9926031353994853 0.81764746275884337 1.3793853355853072 
-0.10786276404103104 -1.3698205993062229 1.4218911117961071 0.19395784155228046 
0.022917680495115597 0.27964873959048459 -0.059869086551704399 -0.35776775588390208 
0.2593291856081919 1.0414529602811151 -0.99680045574829568 -0.43422187119633243 
-0.27060905682966652 -1.0055894592679411 0.7294627085456804 0.72022375839670194 
0.0084012302500060688 0.65085501771286991 -1.9158184791614401 -0.18834509943281524 
-0.17606819294039613 -0.056752003174160875 -0.11301843006695331 -0.04444827227858221 
-0.50302670666657989 0.23978052777472048 0.17062807340902827 0.23782863006652072 
-0.18829678662571336 -0.037295161818476037 -0.042873871846652527 0.18654453467738405 
