solver_type L2R_L2LOSS_SVC_DUAL
nr_class 4
label 0 3 1 2
nr_feature 22011
bias -1
w
-0.16730876224642596 0.152561041211346 -0.1557000881774612 -0.29983235935394831 
-0.077587688356455936 0.092615749523262861 -0.12803272681182004 -0.13205349598473382 
3.1161605040029068 -2.6702376084839079 -1.6911061344677183 -1.0626833021066466 
0 0 0 0 
0.12217226592097735 -0.079151522968118421 0.033437110284716305 0.11367725059093223 
2.8867767482368758 -2.8615658178466541 -2.8877359490207075 -0.92204773718553557 
-0.04564428795685873 0.030332814984597844 -0.010728590340457748 -0.055243005947434538 
0.059348512356228025 -0.21021313588136006 -0.80011694026331837 0.96032251942414459 
-0.049348437167396592 -0.081636874927383682 0.058078948895178013 0.055965942861172562 
-0.31755367343541346 0.15869194066328693 -0.38192557619553075 -1.2220570878817498 
0.026395744509147865 -0.17488280493309577 0.10613906776466168 -0.041313819530820445 
-0.069841957959756867 0.097230398240966492 -0.15948271672901945 -0.15509775445396431 
-0.058188214579642593 0.011596516735270564 0.018042258380072701 -0.091417809445716564 
0.018566392489674774 -0.28963171417025046 0.30247534686109073 0.077557101154490229 
0.45530052716367286 -0.43108971366654869 0.59905727312280843 -0.10913886560894061 
0.079324499817384223 -0.27070641129256229 -0.62965943585167483 0.46461049602584503 
-0.17811954270990296 0.20398262145123786 -0.24462400059267278 -0.22795843229271773 
-0.43598802432849587 0.60079312989003031 -0.72218498134521458 -0.57225144631697511 
-0.22584257832721105 -0.056414385985209994 0.11374053348091845 -0.14963351905594666 
-0.6010378934207885 0.20561578664173913 -0.13066517959901777 -0.52715336372357036 
-0.64017273957435628 0.6857412207421828 -0.4522109933335598 -0.68165801617889665 
-0.398956610386491 0.33270120730553543 -0.30346428245652357 -0.43642046565426384 
-0.11813137571763249 0.055171085300792191 -0.085483537713172478 -0.17738661166645639 
0.083806559283177373 0.0025480688979799297 -0.010627502061265179 -0.038049423582886835 
-0.17119012870257419 0.13990473656618171 0.11406172259289607 -0.46094842659542973 
0.012171618947041142 0.03452040810933385 -0.1110648246003591 -0.072336214881983704 
-0.20371532303417347 0.09378340799872234 -0.047657494429113399 -0.10135219926277264 
0.56565179607562999 -0.25998793192250763 0.40281502781781287 -0.68161166826164121 
0.05962076119769915 -0.044890237903821593 0.085925780420265371 0.076784292137798055 
0.016745419589518022 -0.36622229635020964 0.42694792821779587 -0.037263050647045992 
-0.12847741193401727 0.14846529949020401 -0.1301664840546724 -0.088171218691580233 
-0.7204682549957182 -1.2920368379829312 1.2117626200346705 -1.0408340855860843e-17 
-0.051118134028702571 0.026268493001113433 -0.0369147706594012 -0.006074316106337227 
-0.083485635822531185 0.048215863141701856 -0.068438974852796403 -0.05542447393505244 
0.0016910913791465454 0.017806463944520762 -0.064552349727842739 -0.076194678653087433 
-0.21412153029453596 0.31156430201332597 -0.27001043668450958 -0.31443610560576929 
-0.20267886863302678 -0.083001710331227593 0.15497487772441279 -0.12517795288665312 
-0.45910276940096567 0.48980637479040012 -0.39229903058612126 -0.31523430432244298 
0.091835751962869028 0.14920703274431399 -0.28651487147909127 -0.078757812376789901 
3.74032409152669 -3.050786368039188 -2.6992851383423986 -3.2951529429089601 
-0.6911155116858585 0.40656049012462037 -0.48323299951209414 -0.52796009929480769 
-0.025412686600677324 0.12753310192751149 -0.16696850999601009 -0.13953181171460394 
0.23188332454004296 -0.39259424609315346 0.26845894159107858 0.15796404924562443 
3.5500543148920487 -2.3645837373739687 -2.9868179959563745 -2.4078877488827661 
3.2876200087402863 -1.9997648328733362 -1.4096550398185042 -1.3191169825198772 
-0.0098537710159119288 0.059711696932662692 -0.070760674792618938 -0.21037648020700825 
0.013980230780549713 -0.034430926796243107 0.084722565803130867 -0.32240009903031236 
-0.0985316499623618 0.23415731358310005 -0.6963653187959904 -0.1167343020472833 
-0.020118544477891936 -0.49788269356601633 0.65159140342377886 0.12785195233701205 
0 0 0 0 
-0.06659506368503923 0.013384934558492748 -0.092924975048622557 -0.035824837680758122 
-0.12586974743184129 -0.28126124570966599 0.35404217394101523 0.01428017911020304 
-0.0032838031412989327 0.024029213335647292 -0.032985738752522246 -0.043131070196926906 
-0.31299396481311809 -0.60411442826131811 0.29515308880832908 0.15354498765709657 
-0.31798692070375717 0.088886891434104776 -0.073131684017508303 -0.25085029460870767 
-0.05066321714663069 0.069491577207068778 -0.088545718057096559 -0.2362676604943951 
-0.65737547627097925 0.82091762908987587 -1.3273677694212078 0.46713345197165396 
0.14131211740054819 0.032767180681611094 0.022703510218233518 -0.21983188896654743 
-0.1791511817535589 -3.4840201164764055 0.077777347388333556 0.70935232301904416 
-0.076848773460613667 0.0091088542955833351 0.0080834091330224799 -0.04396234674614085 
-1.252109226926581 -4.4075236602970913e-05 -0.47800422034484236 0.71146319312685979 
-0.34137796866765407 0.50242064006712461 -1.6199873627731631 1.6151063369918637 
-0.75163063782520623 0.36785123416992116 0.00094610715463910866 -0.31488710110316509 
-0.19594174430738542 0.17039486567522372 -0.065720596911738635 -0.16762498155300509 
-0.16679177908660858 -0.15224380358719489 0.19194787510891131 -0.060278963664115545 
-0.8365759569753205 0.20036727630896747 -0.062477699485222388 0.34191790141975636 
-0.60505804600006896 0.26135228137835609 -0.014085102774782379 -1.0721470981152872 
-0.045899021014543559 -0.074848605380468905 0.26006303546026682 -0.2713862866007648 
0.15099877004505036 -0.028981802027145523 0.040184300193050818 -0.22598750127266945 
4.4920180384285864 -3.0682624506529024 -3.2443575463957779 -3.1962924204069423 
0.17861897621546469 -0.28020070534447872 0.22282588356257849 -0.85342887028876691 
-0.23944105534339213 -0.23117744556238617 -0.4730725889794542 0.17287347623030708 
-6.0715321659188248e-18 -0.06244117296269508 0 0 
-6.0715321659188248e-18 -0.06244117296269508 0 0 
-1.5176770326115667 0.47098914089009558 -0.32365505940933403 0.40197684248805171 
-6.0715321659188248e-18 -0.06244117296269508 0 0 
-0.051786967340126319 0.069195638660903849 -0.078259361721157827 -0.11946259989541019 
-0.17339979621888962 0.22053636567965182 -0.19321811553907506 -0.31059980929986508 
-0.23689129100454731 0.41636929454774779 -0.22478639714615922 -1.043863945048179 
-0.093067518040353681 0.093710858911531608 -0.13927711070861526 -0.10883679235634508 
-0.62882804768281808 0.6486369181421574 -1.2555619338924247 0.064930625940600756 
-0.049628443138294953 -0.42308697404805895 0.37689773279254646 0.045986203181921467 
-0.20808235161011404 0.75389753006663818 -0.56921140816061877 -0.71721386084164196 
-0.37584091562404914 -0.034278353386131111 -0.66420134807502584 0.64121319919365194 
0.09957858323839619 0.029493347706920379 0.23869227354915443 -0.33561344044050262 
0.038655619460700993 -0.15521058987049571 0.24468945311522494 -0.1372679772519059 
-0.14807183286792577 -0.29687056043656546 0.19663088273795168 -0.1357155974429505 
-0.05530294473963094 0.078482186892254807 -0.10157354830269935 -0.19014760013727033 
-0.19961598234084621 -0.2771773227316684 0.31641464087955107 -0.1076908130635634 
-0.10199228469573478 -1.2781280370470667e-05 -0.058932109874897165 -0.035669577346753641 
-0.13742603303165443 -0.18485069494994449 0.35450580768113604 -0.16069107072870636 
-0.054125526819748651 0.040547222115575821 -0.21087915968760701 -0.18999332368454494 
-0.19609514404382566 0.11732264175033646 -1.8431966450927246 0.70106801953867093 
-0.16122643190674196 0.24494132195138585 -0.34882155741717191 -0.30867242134566208 
-0.24750274873079786 0.12335514365026122 -0.10636544160737955 -0.11646111711200786 
0.083960358396464457 0.065011463007859024 -0.023184717373916947 -0.0060731425312803141 
1.4997847105780342 -0.24805539520721173 -0.55535952259054167 0.40416993077162872 
-1.0132153089094171 -0.34323326681470062 0.02631827283770851 1.1677467298671858 
-0.16313534865887785 0.12265617442036278 -0.21900769293334424 -0.13637142156976148 
-0.17650641862490529 -0.25114041015278865 0.30510620020714269 -0.018299180148050008 
5.1923866328386747 -2.9953433417503508 -5.0013702796761734 -4.0918201932490366 
-0.058485468904032917 0.026904120535477756 -0.0020372102205987296 -0.17713732219556172 
-0.33595091906691166 -0.82731965153437559 1.2536709327618154 -0.94843153114777212 
-0.24657569514985075 0.22741716065641418 -0.26742093220096935 -0.23447039450609583 
-0.35354852255577562 0.24555030919968096 -0.36244964885911396 -0.37167834286376406 
-0.34860383746328782 -0.10179735920283856 -0.027606832411593632 0.18949126885157508 
0.1523285757944757 0.072365927035670269 -0.1698344261874058 -0.15139542726424612 
-0.51320116669476346 -0.00085620470647933614 -0.12328334177952156 -0.803578019589411 
0.21934702038416667 -0.19284539167550435 0.33671124062801555 -0.45669185711011701 
0.20573185864050536 -0.14622455912974971 0.27646387954189389 0.22310119805239431 
5.0320976720008055 -3.2471418022769476 -2.88611555656595 -3.4761780215224398 
0.31156470613192072 -0.57442389057405085 0.49793795592278867 0.94609720128775032 
-0.13208500780268084 0.17137120798931532 -0.27492616474927062 -0.41094572180337097 
-0.38234950615850755 -0.12355099760039921 -0.68047115874831809 1.0035963966659187 
-0.10591744512270287 -0.23662037631417029 -0.59273191917025214 0.99172198675468626 
-0.047659764344220215 -0.37186187942549875 0.48521171678960845 -0.04505732808876154 
-0.051731810374421976 -0.19610336185056323 0.19978719855630797 -0.19469518071661376 
-0.27590113718911485 -0.25512007727827835 0.34591129698175749 0.050804097218807437 
-0.17326406949902817 0.27631086134613031 -0.20147822707250629 -0.14397674161486326 
-1.2917339012719458 1.0307174128098724 -1.0506128065839981 -1.645273541235831 
1.250851417285056 -0.55814420466701331 -1.4119896698654437 -0.048892543605230959 
-0.080591934700226783 0.20146789341347909 -0.086369604322106872 -0.27711839414752742 
-0.17408006853378255 -0.28482187288865868 1.044307681507211 -0.33944316586876377 
-0.26980275284261507 0.19989726266938329 -0.37023981157322194 -0.19997748414663397 
-0.30026985447401311 -0.29191340988076764 -1.240360162554508 1.1364777243454083 
-0.14909969152974784 -0.23026897212735808 0.30103035873432404 -0.095724308029523753 
-0.1194832034244256 -0.3840621780445701 0.37552325683024745 0.037573350831018336 
-0.1874291702298303 -0.23798488180876054 0.287512260517088 -0.082223030394065699 
-0.28630264296907371 -0.17700140841864601 0.25208584260773786 -0.0098778298700897584 
0 0 0 -0.80407802359259373 
-0.11621594151159957 0.010684559134640212 0.72684014880057235 -0.71500780604426517 
0.076292961302797335 -0.57670696263399823 0.72013820002448692 0.43158742599709687 
-0.47600384034280496 -0.5358293499911333 0.19301380437489052 -1.4585120175744584 
-0.058455879541920421 0.12915680201330221 -0.36062657906234308 -0.35223818386611394 
-0.44790249209429733 0.1367888741756666 -0.11552026830187974 0.14005564455072697 
-0.45553346392129301 -0.25311575019141319 0.31100532401745168 -0.23535168757809752 
0.18444065277800031 -0.28239397713445391 0.22876988471353502 -0.15203988432264975 
0.48022678636155325 0.4066610864421496 -0.52125500159868965 0.32029840928517372 
0.2924484753275014 -0.53204755614426391 0.39692636456220182 0.39920254993571619 
-0.034836049262128917 0.1650389799042897 -0.34591613216518718 -0.17872553657948009 
-0.24830645687424083 0.073463420072155547 -1.0546450220602799 0.65102686028250811 
-0.79180072753811892 0.31099776791068529 -0.13150757248542252 -0.23486445340334847 
-0.091109863066038077 -0.26939182882037116 0.16391031165746411 0.081494230014600988 
0 -1.452447838553993 -0.05335986978941757 1.3855257876271985 
-0.14550230213391263 0.13385089984368548 -0.17068772333866367 -0.14583821629189936 
-0.4448596713731241 0.46284875357372868 -0.14832292245821277 -0.26949531885807188 
-0.1768629769351448 0.22549630966637485 -0.27817924189965093 -0.19505282475311717 
-0.13782890759677932 0.1559717001170029 -0.13912864823738241 -0.32144401772875664 
-0.014364975912890167 -0.64015371512325125 0.88500341385615533 -0.0039193664944971382 
-0.19762962900999334 0.095504699850121735 -0.089773779186579097 -0.049940795585189816 
-0.10355561129393723 -0.28768370168455476 0.15922325244466601 0.05399696175216763 
-0.30635874173300404 0.27967090079076423 -0.47614055782496911 -0.25360491814644354 
0.26239210183694728 0.015330863791798689 -0.13441895849601829 -0.77293425816876948 
-0.29437130386360261 0.019604053730172769 -0.20218629993670648 -0.33159598255420331 
0.032050379600609039 -1.8256284927850808 0.29566241670686666 1.0380008337791138 
0.1589581412221408 -0.1537866368711383 0.14742053636061925 -0.2258372969254146 
0.31385917312197625 0.97999505361771155 -1.7906763726096249 0.3674895742946323 
-0.2358435204017747 -0.15077346235392361 -0.2264392298907533 0.13000638216865598 
-0.86090120778745383 0.76731401072689298 -0.042233855423889043 2.7755575615628914e-17 
0.39520175370613408 -0.47000037935013855 -0.13669284809114135 -1.2767103933906867 
-0.14715923428602634 -0.29084051716801285 0.32477851918707806 -0.020310796705465567 
-0.29934621959854502 0.27333968979990309 -0.27994224990601668 -0.66121214954004481 
0.081843483459768718 0.50107856862438882 -1.1876270863504232 -2.1233508055903858 
-0.39444785600803539 -0.16249824710358324 -0.6676835967642617 0 
-0.15728075362887292 0.098811010085930157 -0.10689345386910423 -0.057932729967219238 
-0.51750924467456594 0.10566759909817158 -1.0096305221845723 1.2732115206862646 
1.4883327461669196 -0.84852032755446749 -0.94466895753720903 -1.7902718019075383 
0 -0.24474679875015004 -0.94323848102160579 1.4401465149553256 
-0.075957609503162313 0.071061020245795081 -0.16700900317653572 -0.10431688588357836 
0 -0.24474679875015004 -0.94323848102160568 1.4401465149553256 
-0.49059458184599625 0.81328602388182214 0.75933839921283397 -2.1630899029816772 
-0.30765729021969446 -0.28532595939609623 -0.46870147913191917 0.98235798341535197 
-0.36819503231652012 -0.16419945524229745 0.39415015472735354 -0.23709888307634422 
-0.18768311355545053 -0.53582201015330844 0.22591971211985748 0.584914491916808 
-0.1167800425369746 0.05773892484227184 -0.15183845676754615 -0.17293533071953829 
-1.196943609343776 0.11792950766841648 0.011541491858897579 -0.25834485082646613 
-0.13818548563439009 0.49668121936358484 -0.72661291156551333 -0.69283976911189371 
0 0 0 0 
-0.018112392734251588 -0.11436010881255303 -0.080413352067434343 -0.20644351687166179 
0.13953554808654012 0.037602237788153858 -0.62440584307246993 0.46809384997799763 
0.068802694726397523 -0.35489284525317893 0.43447106533277069 -0.052091507621631644 
0.04423946328578033 -1.3337309240105166 -0.60169804490043632 1.5158320221097443 
0.016838617234428099 0.12144214961407887 -0.59428991188551883 -0.44499839034933614 
-0.90781894033881749 -0.42437180360379834 -0.37059910361802961 0.086153628636666049 
-0.91032206232070956 0.14298878102069693 0.075971559399082234 0.3593786723007123 
0 -0.74647342665583538 0.6953412523869632 0 
-0.17042512609808114 0.20220285307306687 0.2349404656383286 -0.78136042254270766 
-0.0093148787160256107 0.021673815278730264 -0.023146101377542506 -0.083853034221485323 
-0.16006710335875601 0.05608838700614812 0.17377676781043308 -0.92223852590477406 
0.24949144200066856 -0.08731697029536746 0.063913771291319449 0.068562244992430396 
-0.13784923191029774 -0.064763427869508505 0.19020865322944924 0.015904444926597924 
-0.34960698136633322 0.41610460500997731 -0.048546313093621778 -0.82194843101681292 
0.40226746590977552 -0.41772738300663975 -0.89698165708367239 0.80552237067102406 
-0.24687869414990626 -0.056333950051655889 0.10460080418404782 -0.17758624316675134 
-0.25565599787633631 -0.10083728534396935 0.64891201828915446 0.070727867251428961 
-0.07199382473287147 0.40663649295146442 -0.60908958905078237 -0.18346491816266888 
-0.056853479907202763 0.34675728505980008 -0.7968994035463085 0.061542706293652022 
0 1.1055189285041542 -0.64539730463221667 1.0148132334464322e-16 
-0.062049125938437699 0.059576465964085314 -0.051654593652245021 -0.10901261828522428 
-0.61145423488179951 -0.19590179786958611 0.34072478358076963 -0.96759643919276805 
3.4404428761066121 -3.0025797010057391 -2.0185336422338711 -2.4469616730749872 
0.019443833545095251 0.087722593949867089 -0.24094995421542481 -0.029927073430621939 
0.24169099837547625 -0.28463688889693806 0.52319469041778 -0.5945938870912707 
-0.10630466075323727 -0.057308654712569386 0.24490317516388513 -0.20360467864617371 
-0.10660978856322782 0.18614209754299038 -0.05951635511675514 -0.43934544177572221 
1.3242552622302997 -1.7347234759768071e-17 -0.93000823555430523 0 
2.5115688409898693 -0.57947638512633126 -1.5949228700492337 -0.67580629232325629 
-0.71344405871976557 0.092046240936869195 0.47505944847141734 -0.28848628651280472 
-0.73928134366010079 -0.22144174781903828 -0.94701081313523083 1.0026691778310746 
-3.8557196502844242 1.8624972023506381 0 -0.050182517810173827 
0 -0.61775309472222495 0.98329135040717208 0 
-0.57198468927075607 0.12701403894386826 -0.56908539120686052 0.441708509210405 
0.087294112451392819 -0.12018081576751727 0.08649489462774694 0.054089612491550178 
0.5243342900297272 -0.33895179408440318 0.010904780404517006 1.104748790133955 
-1.0459639103123406 0.8373089709339181 -0.64147975999858409 -0.75283711544668941 
0 -0.61775309472222495 0.98329135040717208 0 
-0.052349072581164141 -0.88423045889961738 0.84276504469849245 -1.8183470920732994 
0.05632360857673184 -0.071137431124119785 -0.015466954719439978 -0.034045517513537966 
-0.98186936871096686 0.13138058157001573 -0.074988373639562358 -0.34391878863694225 
0.2223199307952759 -0.83207775666623973 1.5916863317496219 -0.81622198687990621 
-0.10173884112984 0.020601380095461974 0.0078661981655941474 0.65480746632972286 
-0.59693440739026937 0.48585181365948266 -0.4275938839894432 -0.17431796624754539 
0.30713957887475257 -0.74636663893617416 0.15161574651018808 0.51634243432150484 
-0.38178114362650634 0.18681788698742607 -0.39787882609006714 0.17477408512904261 
-0.4750458576361411 0.14863132480619284 -0.22627805781251054 -0.3783494231304681 
-0.20856753923629268 0.087990931140954576 0.097839039380366824 -0.20691615955834103 
-0.60015882349011385 0.42871093440037911 0.49285453703673388 -1.5996884835574456 
-0.16658420601838608 -0.25391572915302163 0.27336829672849572 0.02068734574464311 
0.15246012649126942 -0.14230004046135639 0.011610524371184334 0.036582632539508622 
-0.098575838388582027 -0.049642449977559844 0.027655008044750143 -0.20329329661740023 
-0.69963327142851128 -0.12135796466669616 0.06803157792170994 -0.13868351630646683 
0.018095238886472905 0.1622172247279699 -0.35770701618629097 -0.58759813043924303 
4.1666104571821938 -2.502412118064989 -5.6736221392147064 -4.1167231551060084 
0.76069592670306863 -1.0377913133805596 0.78669097883006456 1.136155752472308 
-0.11890458546496915 -0.2742203248509939 0.39904155954153625 0.19716660703945199 
3.457805717107771 -1.7962809816335525 -3.4781679787405961 -1.4706772189637416 
-0.6335039085752634 0.90268855152955685 -0.98210326168277962 -0.069592714698274161 
-0.15495670894307317 0.25784054996971362 -0.28158067242974222 -0.42203046004561912 
0.095450385044342015 -0.48263754988991736 0.6211336162167308 -0.04748698363545456 
0.034837404468569984 -0.60307077547875065 0.6557571867031966 0.5743701425893748 
-0.014084111655515314 -0.37730773533594653 -0.85002936639595039 1.1790649906747173 
-0.12025052956722385 -0.13925292090090857 0.24413965784819372 -0.19473358311976824 
-2.7755575615628914e-17 1.2150778401788274 -0.25182382041319035 -0.61397421008779896 
4.9391325414435618 -3.4399903825721174 -4.499530045879804 -3.3501746129044667 
-0.30470526709077228 0.13037957137160008 0.13506966692633948 -0.33802934891855502 
0.11723042908974519 -0.54544006988253357 0.40498554301176592 0.095202023153693971 
-0.11161336890893027 -0.15871541775687956 -1.0081395912833513 0.97725811013897934 
-0.13116152753224616 -0.56078903197939989 0 0 
-0.13116152753224616 -0.56078903197939989 0 0 
-0.36342395276501299 0.53064017011734954 -0.2657535506861462 -0.22215166433413774 
-0.077087265767101301 -0.026010652961975078 -0.64644292604315812 0.4660492951393802 
0.028725157286563462 0.2901648935890333 -0.47588943627791258 -0.77165282672628321 
-0.14258611906782193 -0.25594805721995206 0.16650127519132768 0.10966295377742147 
-0.10086274326286836 -0.16381318653545179 -0.31530554897137175 0.67947820967616279 
0.31189432930093253 -0.69275996488469038 1.2278719405915193 -0.094886585517682781 
0.38434345663040664 0.21104665145018114 -2.695939712157712 -0.14453226232614427 
0.13760980869637088 0.089192385679782202 -0.093324196177662883 -0.22726779013373904 
-0.42764765477124311 -0.89243058777873685 0.65780377047429228 -0.66478861008216117 
-0.27464179370068742 0.17692017915839398 -0.22381389335146834 -0.18187036992348016 
-0.58627548055447543 -0.033607327464434733 -0.10852198007505018 -0.74568283681012126 
0.56692081254394433 -0.72814503611795445 0.12598023120779386 -0.64246944535699835 
0.53544414281673414 -0.50249232839677282 0.51424246540467722 0.69245066799873412 
-0.44987409762814135 0.30509967493637913 0.39490003163932708 0 
-0.084908986820842969 -0.81328375615035897 0.31119134654245983 0 
-0.054561669071994411 0.98290133144206382 -1.1538183745729274 0.8204617809825886 
-1.1849943055881129 0.13114450619728824 -0.03735166186797452 0.4417493975101533 
0.011832554988108993 0.48078979386528958 -0.7273684496178574 -0.56404801056097742 
-0.51676048627947679 0.2136559960265364 0.020025071517205617 -0.28339675314719265 
-0.046555517245191254 -0.22345096556519953 -0.69827739479620776 0.92835923059637637 
-0.19042740371878031 -0.058446759875020828 0.12398939001327974 -0.14865546797769735 
-0.29980763529872606 0.12378584577238813 -0.021667661882653226 -0.26577777408852526 
-0.26898976103015892 -0.11407710374023478 -0.12715419919999493 -0.24567085423683108 
-0.27417794886907476 -0.084882578123798083 0.046662807893528564 0.33304722458741748 
0.028799057041513476 -0.19266498409473937 0.29521955646926556 -0.68072906426790492 
0.53523063184766428 0.29474148641248427 -0.49323294268154044 -1.3846377581127161 
-1.1579715108391668 -0.4132212655942426 -0.39771356538166019 1.6679970715108088 
-1.1684145234505827 1.3645764042715998 0.29668001537060057 0.94842246054291701 
0.054233842152028235 -0.21746728291122935 0.16527106401242583 -0.19176848992729928 
0 -2.0872488141806596 2.5069440019770473 -0.78957446396179454 
4.9040115434596405 -3.4821614009149382 -4.5614946425021721 -3.6834721079415473 
-0.086200132294313447 0.30212639830489496 0.048574978930397791 -0.91858900696668566 
-0.60931628068059074 1.1483084988513834 -1.2366529098924277 -1.1739267743736554 
0 0 0 1.0330542866909862 
-0.49746002460116051 -0.27824141514420303 0.39301794439041432 0.020686058213384654 
-0.11456833711916151 -0.20142519480407051 -0.20692367153919489 0.94693756896259884 
-0.35244371216152914 -0.22206305755510888 0.44027465766511603 -0.48982098342037161 
4.7024239505644267 -3.4287003771580644 -3.8700575669282533 -3.8147371027543802 
-0.74007092449735856 -0.95137141905350664 2.1295055541312795 -2.1006507944584629 
2.1296903112223484 -2.1007334494699141 -0.53800940099469008 -1.0214453127549203 
2.2184576461659589 -0.66187439331931397 -3.1629177935320234 -2.7894159059301677 
2.3367553946079318 -1.2674358160068562 -0.89453747010298867 -1.6348514811057291 
0.092345591743496575 -1.4251590829648688 1.540622102643243 -0.037876752313258141 
0.092345591743496908 1.3356206284630905 -1.562472978109738 -0.037876752313258252 
-0.63944650770367906 0.74281174415256257 0.024210997780443468 -0.41119992953311374 
0.0018962169781126144 -0.15186881019391749 0.38785320440553023 0.088032058418615527 
1.0600375551172549 -0.17389269427593035 8.6736173798840355e-19 -0.15448370209833001 
-1.7347234759768071e-18 -0.43466262703335101 0.72854576108194569 -0.15448370209833001 
-0.17609150551026539 0.034517139259772088 -2.2639065821677544 0.42555533543054752 
0.07222833238612128 -0.29383420353518708 -0.70989957261748393 0.96447203448300012 
-0.91679546685945412 0.25068329766536274 -0.92979715130732543 0.36771032585142699 
0.047573126598099168 -0.31709847392602075 1.0904439332015894 -0.64625949633636004 
-0.52489220067188513 0.19337581464291576 0.14660519092487942 -3.7218712190356191 
0.2162260208356773 -0.45583077358966029 0.78899873303062906 -0.94353728473091292 
0.47994821994812487 -0.82906833361928445 -0.21844578157245501 0.98886041508562295 
0.23795571834154416 0.36180394650059816 -1.3049244255051731 -1.384212491074436 
0.98878368984166221 0.17938537984286526 -0.23183312098000766 -0.9360124400080907 
0.14776553451117813 0.0071353252009756715 0.11554504360569177 -0.17467911778140355 
0.049587756611356261 -0.037903597697662966 0 0 
-0.025339558178973987 0.26660083139805624 -0.20214723240094493 -1.7119955695596145 
2.2323259896688503 -1.2714688426018748 -4.5011514745348107 -3.5630620503234627 
0.049587756611356261 -0.037903597697662966 0 0 
0.049587756611356261 -0.037903597697662966 0 0 
0.049587756611356261 -0.037903597697662966 0 0 
0.035690286243778367 -0.34782794935215988 0.43639552248940988 -0.21837098993860662 
0.049587756611356261 -0.037903597697662966 0 0 
0.049587756611356261 -0.037903597697662966 0 0 
-0.34039785194779659 0.35836415361841045 -0.56814392353281273 -0.11139472867154479 
0.049587756611356261 -0.037903597697662966 0 0 
0.049587756611356261 -0.037903597697662966 0 0 
0.049587756611356261 -0.037903597697662966 0 0 
0.049587756611356261 -0.037903597697662966 0 0 
-0.075979423585473396 -0.22286427051838353 0.20429702956388274 -0.25877998065870544 
-0.065980232994990395 -0.27551374827141151 0.36121258124653399 -0.24712986822951472 
-0.54636742635099456 -0.32976062450492888 0.44489932080511696 0.18959636223308815 
-0.60870103802125897 0.67637589625413197 -1.4593458659204155 0.26400063436957633 
1.3148721382772579 -0.49623802968254122 -1.6770037388945145 -0.29076519296729175 
-0.43478936495172432 -0.19435166282646368 0.095912204285398123 -0.62826039804221179 
-0.08294071945854295 -0.15549285623433745 0.22602855851684522 -0.27326712866026837 
5.2041704279304213e-18 -0.14911651287957711 0 0 
2.6071938186274854 -0.41522209936739496 -0.55310145692703538 -0.61396406284775762 
-0.061096177850822851 0.20133362088947784 -0.48955197366640696 -0.16842728572500179 
-0.81776680757017317 0.20499121566077777 0.097170963102077595 -0.11156663341857057 
0 0 0 0 
0.37783012137455296 0.1921851377326467 0.14963901222722345 -0.94661370142700485 
0.21461962250591457 0.044237853792568484 -0.20195552752469645 -0.20862238967841498 
-0.077253131645152059 0.01035296523122688 0.01255679817114419 -0.16640802220590895 
0.0090174510374984168 0.019591700888882603 -0.19067884860704021 0.12487533015971952 
-0.2122507326310428 -0.43034458332226544 0.71462344802782107 0.1973918186629525 
0.4080551092351008 0.20475639714701946 -0.63636779512879493 0.11426288323176245 
-0.63705247505464735 -0.18135110150695 -0.16924737486373198 -0.26594831656528339 
-0.0033615041145869922 -0.30970518787220408 0.32576023063186432 -0.096144990788255696 
0.025764002287557625 0.20079901154711183 -0.42997737964798172 0.28442209647119704 
-0.067423722669844144 -0.61500050602933509 0.53909420079671744 0.2006279086423107 
0.47806155186300947 -0.32201801344796671 -0.97852079147977655 0.85571167903362544 
-0.78805355015214995 -1.0119376312628905 0.73012485140898931 0.71219206007112423 
-0.96380585447151401 0.07758707264903994 -0.082950635702476141 -0.48935753111617619 
-0.13966514271665709 -0.13791728320266244 0.47185437746822179 -0.211017333766224 
-0.61007215095029987 -0.090916086272624652 -1.11199410938119 0.19249624574495122 
-0.4106026039744754 0.13942841703716699 -0.010365198198153305 -0.034103200795798289 
3.7505445440147813 -3.1865528221108934 -3.818861771758562 -2.0360422383571262 
-0.33569774125122015 -0.11097700616099887 0.50976294201974537 -0.62761062383207811 
-0.46154514876211583 0.26387954903897737 0.52760744827870698 -1.4334016529598661 
-1.0894845153921542 0.72572640911302799 -1.3318818709583997 -0.4688151369671652 
1.5848029501062491 -1.0774224495279674 -1.7487119471263723 -2.7476687550674019 
0.39838098595697602 -0.06064689704255307 0.028747115296823111 -0.76004661186431055 
0 1.0139456265476081 -6.9388939039072284e-18 -0.36522384239287115 
0.45315012499022739 -0.91041960493266605 -0.076405041010014163 0.72956275586087194 
-0.17229472113088776 0.31434996490716449 0 -0.0944571899478229 
0 -0.07888750640877476 -0.85608736495372395 6.9388939039072284e-18 
-0.63892368744551975 -0.14964540864838835 0.71694232189677309 -0.34471755536989346 
-1.8794696062688554 1.2394438918832542 -2.2841279151323901 -0.39516997768132239 
0.31702274491805771 -0.032035487104699084 -0.10021164679838768 -0.29717221846272862 
-0.11541952343883578 -0.31818989492512556 0.27264920222191291 0.38652054201486991 
-0.44120898299854122 0.14693971001730022 -0.07511299073412965 -0.59692303993732865 
-0.34934264956884092 0.77769373269507225 -1.1403766183713073 -0.9804168929885535 
-1.042486369405633 0.45534054200857205 -0.10945853968878455 -0.77198433915202125 
0.020519767392128758 0.0025060967246331774 -0.093003871658323453 -0.05166562792825119 
0 0 0 0 
0.22235155507823462 0.10196787196666861 -0.13286945613326917 0.089386410203064814 
-0.14077278900488521 -0.32501224658371253 0.43477318501226275 -0.09681293493571487 
-0.39436176150162727 -0.3404987159159435 0.38113595059463573 -0.12031253230532298 
0 0 0 0 
-0.04781699993855202 -0.53223889087227394 0.51396167420146111 0.061858582344015166 
0 0 0 0 
-0.029599616608245845 -0.32876632704876291 0.30658591653649836 -0.022506214752073067 
0.14758535155878566 -0.45952302667358857 0.43972143736366726 0.059569883236152976 
3.7926287606990248 -3.7150112653660963 -2.2031568133797852 -0.57899838816601112 
-0.26673672548893546 0.072714808957460075 0.12348092354166069 -1.356052646481279 
-0.25796486818990055 0.048436256414952014 -0.65906241827799894 0.44927142138057174 
-0.017857920504653527 0.36219180655329647 0.023606109456284097 -1.0068554882246359 
-0.75927320475582971 0.10048656316151669 -0.34891597327039869 0.052796876912369561 
-0.70968162552837211 -0.25509558120564058 0.56262038267765913 -0.2516052469096427 
-0.10263193767467026 -0.14436212041403884 0.26650815319384635 -0.067582464228920835 
-0.77953330977735902 0.66927199996279541 -0.35043631091472083 -0.65021507582389504 
-0.33547496859354914 -0.32796046044355726 0.4689553107876272 -0.1999885374662323 
-0.18194966523865674 -0.34739643790135777 0.31657606962495244 -0.013218881883362142 
-0.36915269053367128 0.23232949146518223 -0.3261190516538604 -0.11355999489492341 
-0.58301014121009997 0.60640787336648638 -0.38884031851222456 -0.4862275895723534 
0 -1.5480019690392728 0.98517590012599088 0 
0.10971463630426322 0.21534460865824107 -0.19784878543953494 -0.52977916544951242 
0.26502097068435149 -0.56025216479877604 0.024942453177312973 0.65459655900295055 
0 0 0 0 
-0.6247234134842764 -1.4550355611684034 1.8880874411972668 -0.77478515603800302 
-0.56745655927046501 -0.11050690880039168 0.19466458447325205 -0.03274979470112456 
0 0 0 0 
0.6861276533438585 -0.48333801219065181 -0.65575383926270303 0.2887635230652863 
-0.36971602075086285 0.04009217711352181 -1.0740672926301111 0.94466281930365414 
-0.015883863771062934 -0.23464870097966706 0.33511966557080169 0.031063148465545878 
-0.19654360192432566 -0.43614431695984701 0.39281631408563283 -0.25290870138164934 
-0.52014040435444164 -0.2135303958924657 0.25906640596001229 -0.036512499113205116 
-0.66997332471278992 0.22534824666569253 0.38651550659881934 -1.704983351884932 
-0.61477127892938399 -0.76350449425285161 0.84927013464438006 0.59202440835038217 
0.29792386624455408 -0.65901523496317993 0.55228033522509212 0.4355442551738804 
0.28852354611575204 -1.0798574988606413 -2.0228585420811713 0.9522571385382278 
0.15598119652530776 0.19252521745017626 0.21649074191833137 -0.57453838805687352 
0.55760740852150503 -1.7799742852405054 0.5844096701508209 1.3653326905031673 
0.13527160982414321 -0.04172597462032121 -0.70342876845160962 0.22524030449300939 
-0.26339325541527897 0.38092243590419861 -1.5010921286180279 -0.22849606999507044 
-0.12009822890414985 -0.025606645414715679 0.51357855164367272 -0.45972549033255533 
0.36494372986439871 0.27291095923205366 -0.13206333306480694 -1.0136514256687779 
0.27429825896137416 0.76156915207440645 -0.86690435089032603 -0.24174349115018468 
-1.6683645369045321 0.10602081474398287 -0.089687953376989635 0.32751806002858086 
-0.1035658199057828 0.10095707235808241 -0.1868733780351633 -0.12086006060706989 
0.51083482546508896 -0.14939880873423286 -0.43841371039699756 1.2916972557004582 
0.048011614540065674 0.20061604841368288 -0.4605716790024682 -0.021149309280364518 
-0.3017381415492148 0.056653035961125232 0.12030524827601584 -0.3745931543451958 
-0.59394530444854576 0.22004764616383923 -1.6056275187802984 1.017558592261542 
-0.49043422776505274 0.048752914316782775 -1.4788661504982028 1.0585824789256544 
0.028645794648996335 0.05869482318250293 -0.23947670906678128 -0.015604137208630138 
0.29265394587657961 -0.011276800452782586 0.12971433929192069 -0.43248420511293811 
-0.49020853677989407 0.1165832465133954 0.0024313064443811771 -0.12344903170441542 
-0.4438490215186357 0.049608922800668392 0.047541357031139451 -0.49657086839393716 
0.20641663718146347 -0.62592492916214038 0.32388049285220477 -0.12496698376352357 
-0.14649793494124319 -0.35893030257769143 0.6355563086600593 -0.65975599821270436 
0.064264321402418723 -0.28624278649106671 0.57246600847142415 0.19415427330147103 
0.11894161412130543 0.11322769682724625 -0.39607739506382733 -0.33242815042143536 
0.0051605241293618542 0.21382142000127047 -0.0090749708598582002 -0.4862839595359445 
3.5898108705221587 -2.1784596170611099 -2.7773375718809223 -1.1479193297148185 
-2.6153174968163611 -0.0040632651997220132 0.16892035256164586 0.77938425753876206 
1.9949319973733282e-17 -2.0469117964803818 1.2454193968051335 1.8974549752359955 
0 1.0580630580681001 -0.85332502430302892 -0.37979480862567455 
-0.23231987614831728 -0.099832642791623155 0.12744199842008105 -0.11508819720659666 
-0.15850149990282603 0.24432161541699965 -0.23601497828185469 -0.21678851488207931 
-0.040479977803859424 0.21280661917380525 -0.23037989057597011 -0.088404987350285666 
-0.031667515790279398 0.32372284989505545 -0.29429999364880466 -0.58117814799788226 
1.0408340855860843e-17 1.0580630580681001 -0.85332502430302892 -0.37979480862567455 
-0.58260674352337904 -1.0360882413514361 -0.78947507465391564 1.7191017893840126 
0.28474601969821245 0.16642362964636859 -0.93736385641616227 -0.084694178882313148 
0.11487643729808905 -0.39337282575345528 -0.1244430163087081 0.29757340864985871 
-0.15002039573693252 -0.10365622963541965 -0.14237777804620716 0.29420948479937831 
-0.38404658598025598 1.0956014501030167 -0.24306437018926003 -1.216121734494207 
-0.86590122307904704 0.41167390717199398 -0.16126415811186873 -0.52936832287419477 
0 0 0 0 
0.51894246962740365 -0.49819016213714273 0.044325629808326175 0.09882904182358207 
0 0 0 0 
0 -1.4427580702344383 -0.8377832906361008 1.4348037618345366 
2.9799771657004435 -2.6438003292728016 -2.8774337789005582 -0.84564503437822491 
-0.047451185176877686 0.023079335641244102 -0.18196209266050986 -0.20133217303179413 
-0.2677497585876305 0.072472220308017504 -3.1225022567582528e-17 -0.18574664190116236 
3.3418553618689559 -3.1772704759680188 -6.6601818361041598 -1.6974510358811863 
1.4700700605532866 -0.35869527565077325 2.0816681711721685e-17 -1.9515192705590432 
0 0 0 0 
-0.30056659157373911 0.34239124374129126 -0.72544741388672285 -0.051861369944653554 
-0.065018227277738219 0.15496319757807969 -0.24766205705941968 -0.15854187100911854 
0 0 0 0 
-0.73580864551979586 0.54597159991571875 -0.68865857340375169 0.03961361584772307 
-0.29691689440797658 0.42065018759740658 -0.50952857485102532 -0.22083987268494448 
2.590262493925104 -1.5748939760749514 -1.5358206304782585 -2.6125112014891743 
0.24042769480947093 0.17159817249270631 1.0220701762462188 0.21572201636638261 
-0.75666581922198495 0.6969400508747704 -1.6068646523645049 0.17297244727421696 
-0.33319805895002391 0.026130105052444397 0.059949715782096034 0.087027020863148757 
0.14193123209559683 -0.41472702735934636 0.34999458589364141 0.084478430875566141 
0.33698863671710799 0.24701758141851576 -0.35735109985117114 -0.95159780347826395 
0 0 0 0 
-0.37765268833216437 0.73564377777267631 -1.8850218962969105 -0.81185300640404323 
0.20370557637245373 0.85031205128925746 -0.91838840252361043 -0.59552000384912496 
-0.67440803171761843 -2.2204460492503131e-16 -0.57441072289356321 0.50223243560710829 
-0.21659028731191338 -0.042679683099394572 0.0047110987078139779 -0.15610427576601116 
-0.16315691217755041 0.22211593569016561 -0.21493953994208304 -0.37483673560683334 
0 0 0 0 
-1.0200503063281354 0.01270445147344601 -0.46633678918461097 0.49362248847758994 
0 0.74729870705779455 -0.13519017054771404 -0.01902115626011008 
0 0.74729870705779455 -0.13519017054771404 -0.01902115626011008 
0 -0.81982072568025754 0.52542071556810188 -0.019021156260110073 
0.065719541512216886 -0.22846045217240654 0.34287443166827153 -0.32225737807755261 
-0.38180689365762366 0.2931446633849219 -0.24619140721944216 -0.27055226133120763 
-0.43484015704430662 -0.24438279741988975 -1.0013606128906876 1.2216507468375706 
0.59670253745158086 0 0 -0.32819122159105862 
0.059893584527790658 0.98258973815516248 -1.1696628722079885 0.72462328716675184 
-0.28675372419085754 0.019012352177509219 0.55858395073828326 -0.4887647403374763 
-1.2338738876010074 0.11482419790034529 0.86921153445549493 0.45366174017724803 
0.59670253745158086 0 0 -0.32819122159105862 
-0.25715564471677543 -0.22145506887571931 0.44544293979378957 -0.46960484048752404 
0.024254126895216027 0.3139349210116425 0.32290994339326357 -0.73074229710693028 
0.096344754108398392 -0.76173167549891652 -0.49583701749407816 1.7347714457434678 
-0.63701500218605034 0.2436249688504063 -0.94658052423126626 0.35376856543670204 
0 -1.3278027583066441 0 1.439500367353145 
0.91788869778904958 -0.47315109382116677 -0.85921795249121469 0.13828658912851402 
-1.3540819878833297 0.92661622742181426 -0.3929557674010995 -0.43254279659250755 
-0.075294396070346895 -1.0124502643221294 -0.31146394713757947 1.3760206684577403 
-0.075294396070346895 0.096596043191541581 -0.31146394713757947 0.38956818791152159 
-0.18839539050013779 0.033693401399029876 -0.92190380277205719 0.75023752669644073 
-0.18788381927443945 0.28749444134655988 0.3815016144057119 -0.73245488570138328 
-0.059013768329419944 -0.57998107355335771 0.44666005602039682 0.00506521329093579 
0 0.175999547212845 0 0 
0 0.175999547212845 0 0 
-0.019249967356096551 0.012825155469523411 -0.14155984791667336 -0.14449624073181025 
-0.35664684054068574 0.27122800765656374 -0.21375518714576464 0 
0 0 0 0 
0.064911876095436263 0.26114212803696402 0.1426865771126124 0.048622575073908769 
-0.17123005953205275 0.089493822314949442 0.18961028620783249 -0.68214911364444908 
-0.27125699025466921 -0.25502321475096179 -0.51304304234182907 1.0154221823410658 
0.63099253447690862 -1.0496020514297622 0.28668451053194188 -0.47498622070001972 
-0.45489974187212401 0.076535261994057607 -0.18125129390326986 -0.31984970785831568 
0 -5.377642775528102e-17 0.08048439149180614 -0.09385353480314601 
0.82258394797936907 -2.2102611363705891 0.64936010433057612 0.357764753800631 
-0.91255855716198409 -0.20998482615874059 0.30285776887263 -0.174081246786851 
0 -5.377642775528102e-17 0.08048439149180614 -0.09385353480314601 
-0.40030740369673284 0.1796350122938068 -0.72889352499746596 0.10872457138634536 
-0.044650133597714983 0.055523733518139023 -0.089794062250554044 -0.23670284342111225 
2.6763016827831203 -1.510483341842273 -4.0357265401916838 -1.5778963075203745 
-0.026035285970745718 -0.0060467625621919204 -0.03809347868086517 0.033131240441439072 
-0.35109362158170887 0.41777322036129144 -1.9177616073202048 0.10614668033333105 
-0.48884984749926075 -0.61300788606466206 0.22629391384862405 -0.082256772829482974 
-1.1426983051957902 0.42659005485282459 -0.016729575291669966 -0.81919359756271859 
-0.72724129852413244 -0.29022416459557399 -1.0203020974759593 1.4193929574724922 
0.0084894675916856698 -0.47895558862785176 0.57149577494569959 -0.0784300276201262 
0.026744839753213782 -0.10680169581525682 0.14710365097575531 0.22975034990122717 
-0.22763624008648681 -0.12595600958007971 0.036877817740115219 0.065030443641131933 
-0.19766685931790115 -0.73632530449510791 0.85591069061459302 -0.93406096068564137 
-0.031917891570243745 0.082803632833864022 -0.034108112957111907 -0.1154021576101643 
0.047216813374989799 0.037876575246557867 -0.15230240266028186 -0.043101636951372133 
-0.61545685267824468 -0.061426350150323022 0.16613452303483073 -0.19559920952398302 
-0.063629308447411895 0.21630111387343792 -0.26451690118630589 -0.55995747951932007 
-0.44506240016038312 0.013344352523002704 0.038979648297217687 -0.1936275223168952 
-0.6279290343750541 -0.06010611236042647 0.23383470768389603 0.053219805773608235 
-0.20771171493370663 0.16258167040260685 -0.40225304647687554 0.026109633007274112 
-0.32692052828662166 -0.0030089070795816233 0.36168179967049074 -0.95553996157783838 
0 -1.2378967008726118 1.4590775663077606 0 
0.43226448504518766 -1.1024334090887582 0.57573402757223668 -0.58575824963875478 
0.11573236245016819 1.0088780975555784 -1.0895215673812406 -0.64021607588307627 
-0.042155443482555954 0.48422941278452913 -1.363172747913356 0.62619263308093498 
-0.95620530083335697 -0.32203591514372454 1.493444671881192 0 
-0.025845823575651537 -0.41074492112448435 0.53897686150919999 -0.16716604204512139 
-0.32368776875814631 0.40783793892858095 -0.59290147224397149 -0.0092679297685704827 
0.99924448562150781 -0.002618122477559548 -1.9894779089759922 -1.5370361460469326 
-0.73183270290509095 0.27990489692277021 0.06879940792454696 -0.35242778479186088 
-0.39265243232086749 0.24540462181389619 -0.041859862129872527 -0.3423300653097735 
0.74164941542036211 -1.0110312951993536 -0.07992152241328708 0.073379799644773855 
-0.31194632859579785 0.29040432837619196 -0.4636067400890771 -0.35647445562753799 
0.79872604009676451 -1.0981527588215767 0.0084109744267676922 0 
0.088339788149035481 -0.75581537257412923 0.68243748566375317 0.46697835055158293 
-0.08297511468194875 -0.46906385773108733 0.76449207308669886 -0.080829201166464582 
-0.16741791532605574 0.27474957804805306 -0.0041417564276964216 -0.38175444233937883 
0.14634776589935936 -0.16651274413834583 -0.20653252650187892 -0.1619224619016377 
-0.091868668190668329 0.37195241889681352 -0.1346514920571836 -1.2971851533223961 
-0.18708782382052311 -0.19164244174073003 0.12117528437040254 -0.042140539690558851 
0 -1.0372148788467259 1.3014329936901872 -1.5849529712686719 
0.1528858059169938 -0.69836505236134827 0.79946453362948688 -0.027020173885507169 
-0.54283128586297158 0.59355176418591726 -0.56504022416288546 0.53040098701097682 
-0.52311167944971793 -0.43391872536820519 0.20966084379580441 -0.28168862724341243 
-1.2823058018984832 0.99974020702106392 -1.0759179557112726 -0.11586281936658163 
1.5954935654505473 -1.386093474567899 0.32646154032173957 -0.14182092405486868 
-0.38737642155437169 -0.27156021639007522 -0.2358435086178946 0.3005835678402537 
1.39156164188257 -1.185841668663846 2.2916863555681237 -0.17764349175136859 
-0.57972217651978752 0.07442194703196485 -0.20949702082133259 -0.21847113240308949 
-0.86429968003097457 0.4791186173883073 -0.45150581968909032 -0.96673277199515084 
-0.038814409541344401 -0.039218996455977144 -0.16541301238818101 -0.14916212848553778 
-0.66969060210983922 0.4303083938047807 -0.44168006806041393 -0.8945438821996009 
-0.12030485874584364 -0.16777585525818961 0.28756406310452715 -0.028121313375015767 
0.067296528582062046 -0.40685471908536303 0.3603496381622916 -0.23220008288220026 
-0.63738136434392556 -1.1077538446215289 1.2747365176611412 -0.49510448177260979 
-0.012674243976777758 -0.044889270009058471 0.16163835754984057 -0.016907193331145508 
3.9977210036380573 -2.1187976483710576 -3.4616128238460822 -3.1062388433471075 
-0.24442853178190055 -0.96688568645058259 1.3877787807814457e-17 0 
-0.23591734179656584 0.59324399706947506 -0.14171354262592961 -0.65788719776015048 
0 0 0 0 
4.0482322068308871 -3.2784723276094465 -2.2914104688165899 -3.8785905922200752 
0 -0.99612686520950078 0.66667704693346852 0 
-0.81762536317320178 0.32252309562648251 -1.0489437578246734 0.30615658038711757 
0 0 0 0 
3.3930113290945814 -2.099279795714486 -2.7562041442303564 -1.3697527618913892 
-0.24209011698533273 -0.10915115451404088 0.092860630755071435 -0.20567285863105478 
-0.15478961605746 -0.10656533251223345 -0.067162660227057705 -0.16395016879679272 
-0.00030855271036574899 0.27785528902653406 0.17039512724084799 0.16632837893480973 
0 0 0 0 
-0.4841988257242299 0.29511417100771703 0.029143094644163221 -0.61250257444470491 
-0.94498477939136671 -0.96596510660932267 0.80116996722679834 -0.57281499718746609 
-0.076885376332858552 0.41676933900337881 -0.2812834832235212 -0.64489019489856769 
-0.028418200920424304 -0.35132172333238776 -0.98346218763227389 1.496751751183818 
-0.5860461730562212 -0.19354009941267403 1.0574068688052978 -1.4693517163529699 
0.046480550020932321 0.27738091478858151 -0.42184840578368005 -1.9654944562323815 
0 0 0 0 
-0.19105168336308159 0.34567598933525923 -1.8883115615634882 -0.085148963315289067 
3.525567304632478 -1.9960014676375277 -4.0739009391944885 -4.373638162460888 
2.8968506403699892 -1.8474664237621867 -1.9807999775351375 -1.8397934894535577 
-0.069209094455707929 0.35439669608630592 -0.78073502656104043 -0.58993905344820952 
-0.16500333742266299 -1.7347234759768071e-17 -1.9081958235744878e-17 -0.39359201425006429 
8.3392752919714264e-05 -0.6945201785052757 0.433676947483428 0.20081833278749189 
0.59077764260837784 -0.88894010523582512 0.5502982926115052 0.3103816172041125 
-0.16500333742266282 0 5.2041704279304213e-18 0 
-0.16500333742266293 -0.50161333683332587 0.73223819232973919 1.3877787807814457e-17 
0.11770590187456612 0.42468029565675836 -0.44530663670322906 -0.25322310777900547 
0.18681386776704526 -0.39360525481419151 0.53030678199543124 -0.045847139987113469 
-0.54623752084364174 0 0 0 
0.042139917987093739 -0.27904203628000274 0.60917850813734276 0.3536572365508972 
-0.013123368322343197 -0.3545122267788185 0.47733356305034003 0.26026501150327241 
0.26826678394655967 -0.79096859038443657 1.3125253665963834 -0.22003967642891981 
7.0473716961243813 -4.1330767870240477 -3.0660342680212387 -3.1747308157707304 
-0.30029657807306148 -0.27153488060794451 1.1285001215930026 -2.8841754994413056 
1.1103410321215113 -0.062409878071999852 -0.35960381017507292 0.29241394287916112 
1.3793125089295266 -1.1588505956371911 0.31824626061528605 -0.17089394641232708 
-0.16033851321235992 0.6414795677967341 -2.0703150763272573 -0.20144783176677475 
0.31857208664813774 -1.0487243773819992 0.85318911247942453 0.13121404854517607 
0.13743660251185008 -0.49159765308660952 -0.53152086947542099 1.6355165712006119 
-0.40417744437001746 -0.13308381731628458 0.38125516921270453 0.22587531617696205 
-0.88888888888888884 0.88888888888888884 -0.88888888888888884 -0.88888888888888884 
-0.0069677619452117034 0.86094763780070305 -0.52045546971060819 -0.36712161092984447 
-0.035554975345603215 0.66013636839379564 -0.93273428317273843 -0.99919319902952042 
0 0 0 0 
0 0 0 0 
-0.19224864255014135 -0.23017616304574232 0.26178886582408112 0 
0.058160584584351437 0.29830915316905415 -0.58549255499537767 -1.0356128012545935 
-0.088008639677675485 1.5067499518083241 0 0 
0 -0.15770623619961649 0 0 
0 -0.15770623619961649 0 0 
-0.28261383787734828 -0.36297800723584739 0.33439795991911447 0.017813119377755413 
0 -1.8781832561293854 1.25034571260322 0 
-0.49757581339914542 0.29505436353874503 -0.48711713689670599 -0.23276665426857321 
2.5714232283960472 -0.99738399539287981 -0.051462423013104913 -0.62695909030073915 
-0.70991979291134522 0.68848733749152224 -0.65719926111488125 -1.6598319497649359 
-0.14200746279407278 0.076118994869435921 -0.030302867090174108 -0.17733589676193484 
-0.44630100581921311 0.14814340156579273 -0.17791037482652558 -0.81462484955021863 
-0.88888888888888884 0.88888888888888884 -0.88888888888888884 -0.88888888888888884 
-0.07011608231223726 -0.077755167735767641 0.00053567585495427339 -0.19867650145921936 
-0.019742285884629712 0.10041597319574205 -0.14320950354580469 -0.10461805243133682 
-0.1784184254339134 -1.0692235902065605 -0.1281922512611619 1.3873382887770178 
-0.074467889490084357 0.02652971956451871 -0.04599925834670502 -0.16050269011734153 
-0.65906601700763423 0.24841794006719625 -0.86963839199060922 0.44917465441684462 
0.5128228549535977 -0.36035495538529017 0.051648258594054905 0.058149301570213724 
-0.38637449501043808 -0.084175222018003884 0.5300424384365191 -0.18554740666687866 
-0.73540068275713577 0.50181816313739769 0.25128137013958235 0.045338293861503613 
-0.22265501249933548 -0.10757556300267598 -0.2419597800200636 -0.17533018171708997 
-0.26720973929567943 -0.0010266014838559634 -0.8432537203000231 0.71682046332360816 
-0.084646654230395676 -0.59522355594320175 0.6789331812109749 -0.21816697739980778 
0 -0.37600566553667036 0 0.59541458616846688 
0 -0.37600566553667036 0 0.59541458616846688 
-0.14454725693600878 0.44997991393960368 -0.29616525177201913 -0.3134373238474219 
-0.061760034013067497 -0.2969600997995348 0.038692684547472864 -0.76610387552175752 
-0.25846217788107151 0.20094565637102835 -0.12766746935425799 -0.21405208965638692 
-1.2862133402146469 1.4855710178231116 -1.824575866184261 -1.3520633517212115 
0.15253622237183889 -0.43141348494449383 0.62794796201314296 0.22711329807928768 
3.5346730333750531 -3.0120060132607871 -2.9179268230314874 -1.5724899716431933 
-0.3116137808709965 0.4017519116544741 -0.44831846287098265 -0.65810613564077292 
0.98521043719501078 -0.22263246641179085 -1.3156737777399228 -0.55636907271931224 
-0.16857446586694519 -0.39259355678811297 0.48537988601208171 0.06111296966679157 
-0.1669105507130445 -0.34803451734994956 -0.012955190868762421 -0.71520879654870873 
-0.42602207775574319 0.16957739828716223 0.00014231937171343967 -0.30982128765125638 
-0.36678693385522876 0.03962761799931639 -1.3636109762137312 0.73024653605185785 
0.72673870344673075 -0.27504488237874936 -0.41647269301500267 -0.39706399655042218 
-1.0454560022395318 0.15373920761386045 -0.045659096958354864 -0.61246458659951664 
0.50728762853360088 -0.28847386746541448 -0.11512063524883649 0.72584714091539548 
-0.33259695634657638 0.79677368957621431 -1.6837446986461544 -0.12936015459722991 
-0.077499224507544553 0.075087573059018267 -0.088187186299021864 -0.42148919256545003 
-0.77432305319383576 0.34236143354403981 -0.42284005956814885 -0.02587579811704065 
-1.0408340855860843e-17 0.34236143354403981 -0.42284005956814885 -0.025875798117040594 
0.29858722145138916 -0.031534670401740433 -0.21667234382055206 -0.13877165222733978 
0.046924064942602844 0.17399918914559462 -1.3521093823687631 0.72864443907699705 
-0.24096335931593182 -0.16717334054737124 0.78603702806036257 -0.57996835336516095 
-0.75838135027119946 0.21914356456179898 -0.21341961709003818 0.51155987785066237 
-0.31873765931756515 0.50412895845537797 -0.073607700888044761 -0.16678278854412143 
0 -0.6758624803639407 0.81198366074024586 0 
-0.53689031531649145 0.86425566276046473 -0.68234640398767032 -0.73624373737011761 
-0.24946901614634942 0.19663308854448339 0.16087883380016951 -0.97188724174826313 
-0.42542870400483646 0.078958548751736621 -1.0624623354899863 2.0764744711073582 
-0.21196397407123241 0.79139614786653423 -0.37614263491925332 -1.2771405837064076 
-0.21196397407123241 0.79139614786653423 -0.37614263491925332 -1.2771405837064076 
0.062020495775613679 -0.093396862249988111 0.11605397819052546 -0.4296047533747458 
-0.49723918022201846 0.077347856718308697 -0.23026000934783819 -0.3716788272478091 
0.24405820077038612 -0.58288878010652678 -0.9443692685557713 1.7639927553129828 
0.048444819068444882 -0.02546240548168752 -0.27683528858257267 0.11762916586284317 
0 0 0 -0.48731111171587099 
0.031194414684496505 -0.00060352497146702773 -0.0006266013828657999 -0.0017628967641755426 
-0.041304248662638564 -0.065097766695153797 0.097621183108394308 -0.15873629834676489 
-0.72876324270275117 0.033761056071232934 0.4489302592040314 -0.14681759777606024 
-0.13434820498935135 0.14428597841199114 -0.2670721600466579 -0.229437839696641 
-0.19979166550769201 0.020317802458874323 0.081407406238960117 -0.17894414137160972 
-0.23531649998906601 0.45594953178111652 -0.51980982047487378 0.17712353316662055 
-0.37536295285019816 -0.54968914835669513 0.4108227332902451 0.069574327485165025 
0.5591974644502623 -0.060159843228809254 0.10580256489486795 -0.32694357400182877 
-0.28912848193585805 0.18958843718105242 -0.23826146894725606 -0.54303611673311869 
-0.2052894624414652 -0.30647568930347691 -1.9240610002823504 1.2498993667041638 
0.0075088304368642767 -0.22735291711178818 0.078667550535781519 -0.067085509692834749 
0.39221806874630522 -2.0526322434805611 2.9413428876327767 1.344571227249111 
-0.18734758329363521 -0.39688999973926098 0.81067288125667158 0.08667684164029732 
-0.44098167953644796 -0.0548128816650588 -0.022340769802635774 -0.29990014748876553 
0.3575384633616589 -0.33008743381361638 0.65141234893703437 0.048075466797400102 
-0.19395774720353057 -0.19233442853763719 -0.073236269449693261 -0.27117187704654555 
-0.00088560619938996823 0.30252830865581548 -0.27658431638830749 -0.21353240740318521 
-0.18991385081004075 0.11894124343665956 -0.021842072576359516 -0.53450052007217097 
-0.68556271124562118 0.50883897916798448 0.085478867238541048 -1.0235292987250089 
-0.21004636058785259 -0.15059068349237406 -0.76549552269635768 0.54610070555108448 
0.6712663694601877 -0.2262601521919039 -0.074476861765663094 -0.33718616583217292 
0.24059045130682877 -0.17663204355927531 0.16441360121689069 -0.23659153379352832 
3.5385855726035986 -2.1897375516611195 -3.1408375940788078 -1.412989715286145 
-0.92753990846749024 -0.50906562534052313 1.0152363440562537 0.21476663869486184 
-0.099883329700890949 0.55058914778108625 -1.4174631862383986 0.65514662369847088 
-0.38692168509478586 0.40269744275228736 -0.046166744851581717 -0.54313631712042765 
-0.61391425788450371 -0.5206895086220229 1.332950720190138 0.011069412059376969 
-0.084136171146446309 -0.031174309211399659 0.043054079703609895 -0.1903915416659297 
0.68358428772702451 -0.30618081112347229 1.5703506579420288 -1.4863299969008867 
0 -0.20065900044129598 -4.6837533851373792e-17 0 
-1.1247445231965916 0.19854305672685024 -0.62910661656181588 0.69046333054146802 
0.091159772189349578 0.36002416361008543 -0.91094177619815686 1.0442571188742409 
-0.56863643378241024 0.54957310396531545 -1.3713217397697319 -0.51639393972713388 
0.011216743839888368 0.16272032901619909 -1.1988148032965409 0.29935477457207166 
-0.19950330933223759 -1.8170003655486404 0.24708022618252881 1.3853923411378506 
-0.19950330933223759 1.8470856281785117 0 -1.6076179325181097 
-0.052839043592590958 0.11690785687886442 -0.070208598605022168 -0.06609059711453312 
-0.044728155796683905 0.18974946094851902 -0.16971914111686598 -0.40965195704442281 
-0.72981268981733582 -0.32514905767693236 0.75767589512792766 0.23472318440260714 
-0.1615688641156269 -0.19249327066643143 -0.3378384096402875 0.84575946277441938 
0 0.38656594956810952 -0.33783840964028738 -0.18381248755476773 
0 0.38656594956810952 -0.33783840964028738 -0.18381248755476773 
-0.65654881532390341 0.021353687613772862 0.26750152414728223 -0.15839626594593742 
-0.39034244592545131 0.036508434887354654 -0.064147489767385865 0.49970540785130896 
-1.9257654258080832 -0.22663787765564303 -0.34701480241894095 0.26558358212108335 
-1.0693072709171518 0.088505996383833135 -3.8385243906714055 1.2657378725718853 
0.23112240093267658 -0.34118445457717617 -0.044643503431900419 -0.25294199072156254 
-0.10621735879935779 -0.87810379944902106 -1.4347168905483396 0.40182914931759156 
-0.57966410096225696 0.25217941640856939 -0.22869742274806051 -0.14557620645717106 
3.4694469519536142e-17 0.74124481454391189 -0.3069272671219101 0 
-0.27484759170823619 0.10466929872242654 -0.057410375106676181 -0.54083417250532362 
1.7347234759768071e-18 0.3684644018327019 -0.057370164427726536 -0.54083417250532362 
-0.5611141273511786 -0.17128832611719724 0.60192786674212573 0.098070022576193461 
0.57082853768021846 0.3684644018327019 -0.057370164427726536 -0.54083417250532362 
-0.32636848852568839 -0.43838829650751959 -0.72607178775510217 0.20561979714902098 
0.10136130748325456 0.15328022590559118 -0.078561265304530392 -0.76345605473946665 
0.7411200489295231 -1.1223014317531073 -2.2448681506085446 0.34794725325762343 
-0.093301291707591993 -0.099832265951368515 0 0 
-0.32901075314217948 0.059559021030630072 -0.018852573003772854 -0.57632873350394342 
-0.59096003071954639 0.066959447689537516 -0.81031028938222271 0.069539343226941844 
-0.7331432811502151 1.0932175424992761 -0.30279762623911277 -1.0759780537135126 
0.57789907187553979 -0.068685929687802891 -0.46959699889898621 -0.00054837793726967773 
-0.18492975778040249 0.57392081457111177 -0.80102572265865268 0.2781182728523342 
-0.077555902349188327 0.1440313781735964 -0.091913807717873539 -0.21977100435475133 
-2.7755575615628914e-17 -0.49550341176103857 0.32663313727606036 0.083220560789620202 
-0.29363364842051348 -0.40296639902525511 0.60097873698795068 -1.3429102072073207 
0.31422754635431832 0.56765493731384886 -0.58085178937085702 0.77394655873533491 
-0.043855119402654769 0.013901559701720283 -0.2069020755068654 -0.0018103816244850746 
0.70732512815507209 0.080394413039157842 0 -0.81249146866721178 
-1.5488835859684615 0.86032064237467154 -0.43460393801028135 -0.81249146866721189 
-0.28534311296454939 -0.087128109638982792 -2.0135232446806635 1.0672059343080007 
0 0.080394413039157869 0 -0.81249146866721178 
-0.11512574422055033 0.27890040847754766 -0.57996003399696361 -0.15469158527157806 
0 -0.21919372332658474 -0.068867202940165601 0.11310477124167571 
0.091397531964072534 0.1816168081245563 -0.22149642268850137 0.036363839093980659 
1.7347234759768071e-18 -1.8900824872792223 1.0302842079857837 0 
-0.66782897859170964 0.57463821146053962 1.0302842079857837 -0.66027582406764651 
-0.15457868966289026 0.11973151627708686 0.11611212458409491 -0.13202512004379413 
-0.24389324056793282 0.079110624573746277 -0.041630093382697839 -0.34144613929298917 
0.075418518729425121 -0.10629472267347842 -0.40009598302699578 -0.71894663050121599 
-0.29339136177359409 0.82825605209972541 -0.073799659628745851 -0.45871139603196148 
1.7347234759768071e-18 -1.6534165189900496 0.95077957485959808 -0.44382485978291281 
-1.3215437926033207 0.359418768738265 -0.58527148725597233 2.7611508834019718 
-1.5995168704797469 0.94373163956879746 -0.051235918833600971 -1.0467452318472725 
-0.029491838439590141 -0.46509583458735959 -1.5212912259573157 1.6411763359472922 
-0.51948384673889503 0.5055565071418906 -0.56506346180665212 -0.68575985302230003 
3.1225022567582528e-17 -1.127005183594731 -0.12083221830059859 0.86569154723160247 
0.0053750160895968922 -0.29982615532679424 -0.24912765935288483 0.036509040595981652 
-0.40460497556415209 0.077748272672966634 -0.22965831736550868 0.087287118042105288 
-0.025251679756093652 0.062129576462277306 -0.17026753516076765 0.036330232255945949 
0.42735057289730755 -1.0883841218184487 2.0378233332854094 -1.1249751432420902 
-0.11574528276237549 0.059876794106549835 -0.044798830219600086 -0.022949576585787564 
0.26391053925379115 -0.32087943863666746 0.56674997750996292 -0.12468204550300421 
-0.26197976554573571 -0.063960227565161176 -1.2022818393556269 1.1260416144770033 
-0.021152240455078138 -0.14858907453126138 0.40680418355575271 -0.3284927743522022 
-0.79527254923146551 0.77252632750959904 -0.83472938848108402 -1.0245987889958752 
0.094278687529773988 0.13454205405068961 -0.36417183935159253 0.13564824982701687 
0.50275550166305683 0.56798568370356128 -0.53525652589770956 0.40992547039253391 
0 -0.61029623879710848 0.63618991281468817 0 
-0.65721624533337208 0.3147490502513981 -0.23775633503189311 0.1917782817307577 
0 0 0 0 
-0.73304972247739952 0.39252093340321098 -0.50042104936988752 -0.50786597459592309 
-0.57950351919450338 -0.28573326531589438 0.38749139183275205 -0.47529947725219068 
0.029014598386703675 -0.31382563752789494 0.82890893471257698 -0.14476176525447307 
0.10633341585372103 1.3992093077636061 -1.5188072809317246 -0.135218016242171 
-0.06289765859625257 0.046910450109912551 0.019143972142335854 -0.32925775711087929 
0 -0.26043085007874267 0 0.20830727952795994 
0 -0.26043085007874267 0 0.20830727952795994 
-0.0030564867384553118 -1.2231283068944581 -0.13642296822007544 1.2782906405036023 
0 -0.26043085007874267 0 0.20830727952795994 
-0.21608427023025653 0.56901045518858551 -1.2210170575994563 -0.30277556495798219 
-0.41862123543261037 -0.13278100246778096 0.3638649228522049 -0.2524030690420303 
-0.34784830340323514 0.1096538636701193 -1.1559799284814347 1.3663445851457232 
0 -0.26043085007874267 0 0.20830727952795994 
3.2749826256914139 -2.1109877820716081 -2.6320248503056969 -3.5278917685829425 
0 0 0 0 
-0.19807413181135575 -0.1850034619538978 -3.8163916471489756e-17 0.51575324649967913 
0.010387876988564079 -0.4453621678828894 0.72643798158451389 -0.21956159096084732 
0 0 0 0 
0 0 0 0 
-0.6293422695933546 0.55130766621214156 0.14002190974106252 -0.401615150809842 
0 0 0 0 
-0.052535245367266448 -0.35651381253374864 0.61943118145904974 0.038730696487245725 
0.13988648857665459 0.34005677247397742 -0.39340056755369496 -1.0415749767958586 
-0.30557043898299063 0.21305719056311412 0.13796937837835163 -0.51928286216772468 
5.8045985359442174 -2.6056067328251635 -3.0269516909665546 -2.9585544677824447 
3.6348522292942373 -1.5321843909393797 -2.1135743158902809 -2.5601047272286355 
-0.11755154863256889 0.062248610411564168 -0.0098886485421389534 0.077271339250909843 
-0.018579676125799662 -1.3877787807814457e-17 0 -0.18116929076117194 
-0.33507485267380133 1.6906403551241072 -2.4214063315318293 -0.32009741073778519 
0.63272741058158832 -0.43252708362524322 0 0 
0.25167762881138978 0.16381516950609906 -0.44764545480631851 0.061160088054331145 
-0.080067132477136024 -0.66998009555329419 0.97667705467535004 -0.02770495368758372 
0.27184621993548974 -0.31202723470209331 0.60850272768425939 0 
-0.023341047220288041 -0.29623243208869449 0.48917474532191546 -0.39941340590743002 
-0.073924887125722552 -0.10056296223682364 -0.72104473349046749 0.59359864050405853 
0.17577401558281167 -0.40523641139330369 0.50804246372082218 0.36445044254333148 
3.5416196418138988 -2.0325685966758793 -2.0696940702429103 -2.3231479289559136 
-0.99036784871342587 0.23891309744885358 -1.8786523571283809 1.1495817646159983 
-0.15761162260951378 0.25027999703236192 -0.13703288323536061 -0.36437948886137306 
-0.41229434245893193 -1.4409239850411415 -1.456516670922622 2.071621535661107 
-0.0027322820906015635 -0.36893920749271564 0.46870363858685438 -0.42976716540842108 
-0.5819304709095845 -1.414680924760942 -1.6571528488189782 2.1430600077486042 
-0.010594835814443711 -0.25739969131155049 0.20986193264095213 0.2585828434289017 
-0.40057965978960197 0.28557278821495202 -0.230907236438506 -0.039946176315913108 
0.25760346350538826 0.10261977966174797 0.34922792678240877 -1.027955269372022 
1.161184619175027 -0.43686882349838341 0.33629644483159288 -0.7605363982236566 
-0.38923336378807283 0.11000118289552649 0.21680861178672306 -0.26581264377080754 
-0.24235004649377825 -0.12511922042036216 0.52008390099176083 0 
-0.24235004649377825 -0.65871281697482265 0.52008390099176072 0 
-0.11572338958397213 -0.51465618466440999 -1.0516061832199384 1.1377215425773053 
-0.23609720751354979 -0.33142832275955963 0.34999568843372186 0.56485226984658532 
-0.43494185092369453 -0.36817122729121154 0.45379934618223278 0.026941665459484506 
1.78127525786438 -1.4868985714667862 -0.30280325697188892 -1.7285312527971557 
1.835306133785765 -0.30241045937459859 0 -0.4282959156166587 
-0.018008960055674688 0.60844346432408836 -0.81727265657924364 -0.62201020614048297 
-0.59569820030807341 -0.47186834328020927 1.9575048593474553 -1.5925314029527717 
-0.31156018920730727 -0.40764640110326572 -1.1631006339151506 1.1989200560549205 
-0.43044863394672012 -0.0048777101591974499 0.011347066374744896 -0.47541419935948115 
0.56898461752595753 0.22643833570828226 -0.20631747579355386 -0.85236063737450574 
-0.074766516536757949 -0.50333463302353687 0.32930596619567409 -0.31185480342964639 
-0.50720765128180334 0.44083112332008839 -0.10376573662644639 -1.6792805877484716 
-0.23796811675560881 1.1167186754628493 -1.103043444764366 -1.5137996731463135 
0.44876737094453489 -0.29418038532544899 -1.4511842198864773 0.81538538604397315 
-1.0061396160665481e-16 -0.59196486025616291 0.042913997136972359 1.0701258959170274 
-0.56912170846643828 0.11134537255589007 -0.24143708198915884 -0.076385927061720427 
0.27780780423056251 0.1147267080587468 -0.31770379643829993 -0.01150341711001393 
-0.31865318173420581 0.68923107985993337 -0.3132274868529254 -0.83586766597148765 
0.48025389984707484 0.39649211484008479 -0.47575792944112749 -0.42298720678801444 
0 0.43792071731219473 0 0 
-0.19477080478784342 -0.31964544904329339 0.37679686189824935 -0.12746416030204999 
-0.48994363899948279 -1.0084656778552752 0.49751503242912576 0.43840451726308055 
-1.107220736509954 -1.7668612407134467 1.5708256328981316 -0.62531987896189667 
-0.37589233158433522 -0.094305530565935325 0.22811097588207363 0.20267401131160295 
-0.23854918885914125 0.090068412527146396 0.048884537960171642 -0.30488813502311729 
0.43266299121452001 -0.46465032147761093 -0.043881042035111437 -0.24219391375277355 
-0.82925693124767863 -0.12307250850452348 -0.095219192069685904 1.8218288095749993 
0.051255093212001418 -0.18422646817212884 0.28292376426987964 0.15510467261859678 
-0.35177069203562522 0.24472772208911908 -0.16200264434676476 -0.25760320369590678 
-0.8200158683612524 0.2203953962994506 -0.19569514077943412 -0.52389142817150414 
0.34158382985353641 -0.23373242285344076 0.37992794784368006 0.15632484837066646 
4.0752611873780085 -1.7025792649050442 -3.5071415067992877 -3.0637923809903533 
-0.30602627341864685 0.29610480210362816 -0.27403160644950175 -0.59826955884310695 
-0.33918584371096933 -0.73920803230317567 0.94087831337826622 -1.0397643418306235 
0 0 0 0 
-0.5438012915989251 0.79190323982926092 -0.052670441813917307 -0.0955031216590638 
-0.43992946339332067 -2.1244256528148471 1.4026124252074594 0.80033636136761421 
-0.080674100781220184 0.71978001555876858 -0.97750884820130302 -0.54031919272230189 
0.093010473655073214 -0.89039929855668121 0.70458504996163684 0.25234321593789727 
-0.23117015002769084 0.15099273639307542 0.033513364917452909 -0.43562020004833368 
-0.16784952924500632 -0.97227943442889919 0.45156619647418161 -1.5083542930881944 
-0.07731796109455033 0.33991548131716881 0 0 
-0.30822101764284771 -0.16977182138258515 0.24684253230686432 0.092998459340568163 
-0.45542301307953981 0.63112421958067333 -0.56821283295137281 -0.94005663259730543 
-0.68347900806971784 -0.047970549475862025 0.28161316286766014 -0.18957097625148972 
-0.91414128095386715 0.065918803805027779 0.27085821352648737 -0.01455699526252039 
-0.74839022021064194 -0.61658325031733396 0.77393706385030037 -0.33003738784811509 
-0.5058231000852389 -0.27591535981138082 0.39956063833599004 0.30778555215218489 
0 -0.25995147811296537 0.23455716906606783 0 
0.56043520725001317 0.045892317386686719 -0.073376872750461716 -0.41767143660944028 
0 -0.25995147811296537 0.23455716906606783 0 
0 -0.25995147811296537 0.23455716906606783 0 
-0.10559067450573252 0.2337581256014851 -0.36173870345296621 -0.03123823679708226 
-0.02388019639755402 -0.25995147811296504 0.23455716906606783 -0.05967334177844727 
0.13189550244087528 -0.220624413756763 -0.60774320252296754 0.73680766610247406 
-0.34153644718266463 -0.10353217201988152 -1.2185348073126565 1.0393413660341104 
-0.25408401510134232 -0.49497321610915634 0.76279260773535329 -0.18447842763154326 
-0.19823572229700803 -0.82358357946493344 0.72918331070462605 0.096832413758627084 
-0.44305168129168887 0.043357121711522485 0.052527371043872492 0.044872195332769108 
0 0 0 0 
0.69801517757083531 -0.91643268860288829 -0.37105627408858882 1.5052160708755591 
-0.14024911610505739 0.40889323382755932 -0.68331726151322592 -0.004678674435758836 
-0.43177885186661819 0.63238568363866643 -1.0040102730040332 0.05789593343055955 
-0.13915987908670915 -0.24850478233144652 -0.64735959566424817 0.73098599784981411 
0.061145512216383043 -0.44539274849348265 0.18843521508115424 0.28822505157786499 
1.8736616116653437 -0.79261055244652245 -0.93560465129732384 -1.1703025573242607 
-0.5547734015559509 0.7867283675942125 -1.1969832301229217 -0.12691791974188588 
0.071792714551004555 -0.58875119920799057 0.70580453387595932 0.16926693770459375 
2.176682814748061 -0.029910234083219592 0 1.7347234759768071e-18 
-1.0747202228924007 1.0426696047616715 -0.0099089717765343428 3.4694469519536142e-18 
0.13276444235916476 -0.19638894480609009 -0.11809480158611335 0.45083049915211021 
0.058670296332504521 -0.52047982168965778 0.47002803623644746 0.083490718253377144 
0.20262977235646903 -0.1553157553147077 0.036177698536105564 -0.29490192169693041 
-0.91027758058322528 0.027029669034693775 0.49009523762837193 -0.18880306794637242 
0.39323229839554552 -0.91777591443261153 0.88863285690821048 -0.15186857071556994 
0.058470471570922181 -0.029815329310296627 0.051634828754499332 -0.25504620212919249 
-2.1684043449710089e-17 1.2933704149359497 -1.7347234759768071e-17 0 
-0.14022122593590972 -0.0059237499508966521 0.007199880102855381 -0.39341032003294929 
-0.48351144856354339 0.56767400154745018 -0.76522782614976825 -1.4853548982545128 
0.057932696413049711 0.65405232639730992 -0.69437838752336578 -0.086315871149239054 
-0.21807736992746174 0.28937756486528143 0.04750535872679864 -0.83580080223899433 
-0.32738974195399101 -0.061333024906959729 0.70081376514212979 0.2264763954267805 
0.35771042406538661 -0.17726023215053893 -0.19842457773303357 -1.5833668206982943 
-1.3877787807814457e-16 0.21450638132466476 -0.67210610881549437 -0.02252486721916953 
-0.84658533140689862 0.54336996772077095 -0.70268199048492663 -0.55442495756375543 
-0.10182053869539454 0.047543988233429937 -0.25562327936770346 -0.37729660150651989 
0.23496865266139361 -0.50469819250323777 0.5475791950513107 0.1483539343739452 
-0.22682934560823667 -0.1441022598004455 -0.88973844126529866 1.009470512623504 
-0.75052961527619366 0.78367880310615412 -0.8538965499289648 -0.83480641495267327 
0 -0.71563312121790901 0.89406073193756819 -0.064426480058799751 
0 -0.040724220382556846 0 0 
-0.55964710573717991 -0.19140138741386742 -0.42497924207828697 0.072061314730077097 
0.1137934644079481 -0.33309461039671806 0.47813560318417458 0.11894753729868131 
-0.31353141276691043 -0.27204751312164938 0.42588014537189267 -0.18687010176064589 
-0.20083846621489093 -0.39191687102037853 0.065409352481790847 0.14604695790223798 
0.1251620806022701 -0.93077693048453247 -0.38894667384995674 1.3426878424276543 
-1.3301562565950884 0.20238881707864373 -0.28812491419613234 0.80622995569531963 
-0.48629469444552076 -0.39291044042894252 0.74172281556516106 0.33299566445483841 
-0.2521559320111092 0.58362988541685601 -0.27957660510296611 -0.15009016508593337 
-0.75154300632213378 -1.1344577739320312 -0.84218486124701308 2.6068831956298992 
-0.026344355449996498 0.18073897983741782 -0.21048691698766178 -1.271854237737114 
-0.52466959601658358 -1.2317146550573592 0.48305493585323789 -0.023941172142098857 
-0.37973251574878419 1.9590601120062645 -1.1091533674295744 -6.9388939039072284e-18 
-0.1687928626763503 0.13792164853736788 -0.020049699535351535 -0.43566387901463433 
-0.93732362184834506 0.19122855418181206 0.30207900500643758 -0.082552960275188353 
-0.13090001253984451 -0.60106531947806285 -0.70042491575120003 1.3103676359052057 
0.10467714065657455 -0.73934593574690444 0 -0.027080740999763136 
-1.5612511283791264e-17 0.82535441749363581 -0.17804013992712803 0.33690660979761189 
-1.0408340855860843e-17 0.1899720557557984 -0.85829224610577759 0.14471870948076249 
1.2181486010023765 -0.54712889490057159 -1.3652479478984312 -2.2647331653003566 
-0.63386269907850534 -1.5736724391272729 0 -0.16290331933913477 
0.14308597980965515 0.042287504844750523 -0.88348858869463287 0.24999834937997076 
-0.81357070732887038 1.8440074476884289 -0.33124857179468298 -0.16290331933913516 
-0.058408251679961991 -0.036857551573326798 -1.6953167699825269 0.56289870954123633 
-0.1931838024523036 0.95506923124537146 -1.0651765174244678 -0.28175465870778565 
-0.10660769592830951 0.26335907659466351 -0.16807127122978893 0.092739815323014146 
-0.3764472494051041 -0.13320932782563508 -0.92407404694755413 0.68164522663309701 
0.49623949288972519 0.3519816734587512 -0.7455441325729002 -1.6672000769918169 
-0.057391012620796211 -0.1034939181561372 0.004002020938324035 0.39713121614066638 
-0.30164529097975806 -0.44788380705728914 0.55011634973343693 -0.098274412863049138 
-0.13090856713692428 0.36596063624591324 -0.7502770972274958 -0.33275902340037722 
-0.68463269280621497 -0.31377512584373413 -0.055026505792686919 -0.3332180987440736 
0 -0.53135260663573258 1.1891113659696155 -4.8572257327350599e-17 
-0.13716054534685967 0.70447380182756048 -0.54925682338761495 -8.3266726846886741e-17 
-0.51187601477247135 -0.66901598936740547 1.5153732418037607 -1.7930085491761605 
0.25162825953557072 1.0412651725644746 -1.2639720480054253 0.87685300867659299 
0.80521976836497511 -1.6228513346906421 -0.41214809917230721 1.0908009111093444 
-0.88888888888888884 0.88888888888888884 -0.88888888888888884 -0.88888888888888884 
-0.057033559496719163 0.12856808681161347 -0.14917214100211795 -0.23738868168567162 
0.61635415726481635 -0.36264632128897456 0.60373310689822457 0.18919673873216214 
0.31955760331485239 0.17803867503998533 -1.4088007430219733 0.17822440749686266 
0.68656405114206454 0.20134517543664859 1.0621638618070894 -1.3049583050702913 
0.031191431091535569 -0.3410720344992948 0.82656503945376048 -0.91698386056131009 
-0.37394841931026701 0.26932144894147692 0.054422863189690425 -0.17346600631057119 
0.37816292306495336 -0.62718051904202288 0.76510695385545902 0.44332758491112872 
-0.1627460565106118 0.47729212995647624 -0.19170604462667368 -0.40361333938998972 
1.172482300340842 0.35193453464025037 -1.2153117580137587 -0.010219759322791882 
-0.45032034708496815 -0.035983078875584981 1.0099721387404863 -1.1620991408020378 
0 -2.3275386819316375 3.5547042602412056 0 
-0.30951380507892878 -0.31304517418754069 0.44857003035747989 0.3100801896753822 
-0.37976634805402243 0.16251300963227885 -0.97327512305952701 0.83866030137367853 
0.50013058615676664 -0.53411605231772197 -1.1524796770814096 -0.38910306965860564 
0.50013058615676731 -0.6995425223767503 -0.10139547547493025 -1.3570516986746388 
-0.70380467383887757 0.1225540774988079 0.13786157772207031 -0.43135934634222473 
-0.041339181709905748 -0.35836613603561362 1.0921302716643804 -0.0007409113954631296 
0 -0.80603543395115118 0.15640122913419252 0 
0.28077309300468095 -0.71280312063046469 1.1280335507889552 -0.41561169402654785 
-0.18271599452100726 -0.22920952707621386 0.38716924711393408 -0.19371344219961872 
3.2123034162262396 -1.9496496891469515 -1.9259195751028497 -1.065181438749313 
0.019286802922012236 -0.28253852971511528 6.9388939039072284e-18 -0.0092518230037149304 
8.1532003370909933e-17 0.28629994045913393 -0.52183314731322461 -0.047932859286446861 
-0.62159990502944051 -0.58913585806147295 1.1530611522198506 -0.71319707415080469 
0.082783916907985339 0.17548681572774982 -0.18829543912573748 0.13776806205088638 
0 -0.38273550069282503 0.53288454503204929 0 
-1.1455922907333713 0.57693310524527952 -0.61300262134359618 -0.32415476349855821 
0 -0.38273550069282503 0.53288454503204929 0 
-0.13119813616779669 0.25516520059548092 -0.49226656974793354 -0.51909990815248208 
-5.2041704279304213e-17 2.0481369322276399 -1.479577412872626 -0.35690410234849884 
-0.036548987232926447 0.45961782265699103 -0.35343358857527263 -1.3241299117219338 
-1.1189986221951411 -1.5862144127777005 2.3907032444526441 -2.5217185942128202 
0 -2.1992214792165199 2.1718560662603656 0 
-0.32302048499094083 0.22780501548587398 -0.40713282833926334 -0.27115641979932575 
-0.14989128424892834 -0.2376254082331912 -1.6188911749025399 0.55387807883006379 
0 0.25163683911693296 0 -0.41385015822692595 
0 0 0 0 
0.47588430897128525 -0.096145042680802095 0.65510273576208067 -1.0947622060864057 
0 0 0 0 
-0.35620978898996508 -0.10595908894843124 0.37198518678367315 -0.33902495101992547 
0.24605340300594544 0.22624605028395642 -0.18055912691888543 -0.50437586165991233 
0.4281653162624422 0.15222676267171342 -0.63835091305218039 -0.5236600604671785 
-0.10263753469615101 -0.076153178056499321 0.37007745240704221 -0.31982123697603415 
1.6719065427884918 -1.3248388660715948 -0.44177333505344363 -0.77147533076291708 
-0.48499906674785387 -0.43725003007315794 0.21763628101627122 0.57395946702259371 
-0.43245346211071656 -0.62109206323597399 0.56735874079469051 -0.082584091665647813 
-0.11190494745665391 -0.42260419138207889 0.88736719515018991 -0.30980682098500212 
0.025808886005777642 -0.31577035980052359 0.43064288400653516 -0.021873290502593613 
-5.2041704279304213e-18 -0.56558602617670206 0.25276179672242849 -0.37384933495867501 
-0.069515064505847379 0.28481259590879554 0.69868006834445251 -1.6967564487180116 
0.15735687175624069 0.24565906621005493 -0.49783161632692929 -0.20197857214618353 
0.14876584523370176 -0.44665107707717294 0.1944611768542738 0.11025160785744879 
-0.13524862920884936 -1.5076650765455435 1.019705445775396 0.7245126494687123 
0 0.48260683437938179 -0.55239953518075668 3.4694469519536142e-18 
-0.92117143193441908 0.30028550919073504 -0.13553066408761721 -0.020098125491454774 
-0.8731812778312138 0.36894594180188905 -0.98117608609556306 0.5462413047754523 
0.20469519818517035 -1.3304662424487199 0.74822657391208447 -0.16190965497766324 
0.02393028980215825 -0.28985111538484215 0.61730264356335751 -1.3438516576209305 
-0.67938099320216461 -0.13539304171854283 -0.75697056676254171 1.6534087420756474 
0.38876942831214689 -0.40783930537984792 0.66466695563996248 0.12061343652566663 
-0.22956094349643116 -0.39848241014557378 0.41230591883500195 -0.42052427440715084 
-0.38582916288655328 -0.014286293169847687 0.02281639117965583 -0.87355254428333007 
-0.14238337707911924 -0.20445954949241302 0.31889911285135941 -0.17966540806425813 
3.5965666578634403 -2.2676337699001334 -2.9577762266386851 -1.3370936265964555 
-0.41723363301043664 -0.70171065338451877 0.060867574688287324 2.0446342003320108 
-0.12479422364723977 -0.48114475285976399 1.0779946462136658 -2.3833715495071455 
-0.32575766011017077 0.033251346616533228 -1.2638920449489273 0.41105470635482083 
-0.02563966586328828 0.18936038366849001 -1.2152095341207365 0.12207357963512838 
0 -0.14571252723454911 -0.89388761248585336 1.4684924367594081 
-0.48650425199989084 -0.33090950166192401 0.35333965685464236 -0.29897152944771999 
-0.28416639869274707 0.84267566459581644 -0.57838733299856293 -0.12116697972272512 
4.7121172773726112 -3.2879007443125667 -3.4552259986374194 -2.9850061818904576 
0 -0.1146778045885072 -0.48384650085057701 0 
0.14805590470820568 -0.48548747945705689 -0.57800037347616107 1.5664785934207068 
0.033453293700123753 -0.071408131718762882 -0.83521012675982931 0.81200147600498096 
-0.60787150365535325 0.40584036274709828 -0.89751648609055379 0.38066737018049773 
-0.55716562138323311 0.58760209546449271 -0.55633080034849969 -0.22175139272583816 
0.39092367132032546 0.087923501417596431 -0.23905012587339153 -0.81737323009844609 
0.19508673451046163 0.40108581307601432 -0.5962208373574025 -0.57581845023482314 
-0.19886903039387238 -0.014526463278532152 -0.18511342434594283 -0.17531944740870653 
-0.41150391348257231 0.75511364684113236 -0.5348224009074275 -0.59667076119903129 
-0.10347310949898866 -0.11967071783059324 -1.8778815908076243 0.45591564494235687 
-0.028175894881711079 -0.1461006178973982 0.24863572637408982 -0.13862666038002536 
0.18867158161006314 0.026788130674891573 -0.071968395734806137 -0.057213907854903961 
-0.56399346781566606 -0.37430563923054527 -0.42815308229605187 1.0576300103684353 
3.4694469519536142e-18 6.9388939039072284e-18 0 0 
0.14190613034737409 0.017056568601774832 0.0040460947774977728 -0.16655976159289695 
0 0 0 0 
0.50240159546114571 -0.099138022787142815 -0.4674923765624423 0.92408516765278081 
0 0 0 0 
-0.11825890042700186 0.67508684481684034 -0.072016607946688738 0 
0 0 0 0 
-0.19694329115888642 -0.33532134426476501 -0.91862968041292614 0.95391920897701588 
-0.84363024093545225 -0.039355967058003302 1.5703536573720025 -1.2750083520906013 
-0.26232635532768045 -0.24038040421194073 -0.52729225542366898 0.80465999387319043 
-0.0045185459634315417 -0.4546657519018048 0.54877522354977382 -0.36086253420199094 
0 0 -0.96989155106105951 0 
-0.055162914048254533 -0.50245385383840968 0.63599290504754746 -0.37283287293113643 
0.056051117653345466 -0.34961674817669453 0.34527240506252976 -0.20371559734538458 
-0.92685069230211914 -0.82217721996674475 1.9382683816752793 -2.8056532437253638 
-0.14680558296002233 -0.33267110368224645 0.25602023586152006 0.072631743863053919 
-1.0951092158034046 -0.10446062144496712 0.48389384170666111 -0.69865809976071791 
4.4329260272215256 -2.3351233848145347 -2.435133514213685 -4.2667864038082843 
0.074577592008921723 -0.20528131403422373 0.25437855042841245 -0.29358870847450674 
1.8970664717725811 -0.46890265631956479 0.36145553227940769 0 
-0.41264350816843526 0.59807012839435258 0.36145553227940769 -0.97030754448541656 
-0.030147697567924847 -0.1400993416099256 -0.13220553884725239 -0.21454669420858388 
-0.51148571366966045 -0.97359904846617051 0.089834914862559845 -4.3368086899420177e-17 
-0.53131328022884738 -0.12811440751047812 0.15961325273379867 0.077815820993831913 
-0.50413503730321785 0.72303029255742091 -0.40472833457272744 -1.0182918071709142 
-0.028312026111827215 0.080050780085078432 -0.20458508918129797 -0.38992039882511198 
-0.1975438746616269 0.12663388225327263 -0.3508105967234082 0.096670569528341063 
3.5569309551090527 -1.8054101514299188 -3.8975656866478809 -1.7870180076384663 
0.24670023695946752 -0.32370778997911137 0.024343649962337344 0.45472474143381275 
-0.14533000151641939 -3.0674383619070333 2.5275049653411958 -0.49875935820738299 
0.56452230542878579 -0.18480735123748376 -0.14978349413212191 -1.1549481827332984 
0.069365364929746973 -0.21008109131225453 0.17676091402472865 -0.30664622791678098 
2.9973929089846818 -2.0720010845379222 -3.5473659486188529 -1.2206920375646479 
-0.50311350824799783 0.78243495328215873 -0.73171944069182893 -0.61468017363358141 
-0.80807861906985712 0.13421939927228985 0.033521069307843869 -0.93974680115980425 
-0.41725737370895571 -0.48224564184250063 -0.86959607049084897 1.4496092159045406 
3.819235678410609 -2.5131834744611665 -1.2245599599120705 -1.5518852006069102 
-0.14386609183231749 -0.15931098608901043 0.087849135904020784 -0.25390953092922297 
-0.34139900488464298 -0.072827774150312441 -0.77333404924327342 1.2714967240000725 
0 -0.49016856999763403 0 1.1046404018991658 
0 -0.66960173584395821 -0.015744123480305801 0.82850924860461028 
-1.1399198135510176 0.057956162759536023 0.17427899705208266 -0.19020946769378042 
0 -0.037756364957992283 -0.14619881364883583 0.73173125342815348 
-0.045859749306103564 -0.057429588328220038 -0.092191574522578076 0.35487343873527333 
-0.56975372282359815 0.30931793355665449 0.0038575456759857695 -0.4032121200932634 
0.28940744627859188 0.23607089155291899 -0.81616217005929204 -0.65126287274064165 
0.94857365795495296 -5.0653925498522767e-16 -1.1906111441977649 0 
-0.96115601716651744 -0.2819569035635025 0.47545568566901725 -0.042134451329343223 
0.29513287313167097 -0.14256838045008574 -0.097706119746129486 0.57611364294636247 
0.25556826343198047 -0.28132621143644249 0.14970007265308047 -0.11101718950901493 
-0.960872531707753 -0.22240625046943591 -0.13287478216724574 0.27261010661149276 
1.4384952185878406 -1.0399807271921451 -0.16130024107490681 0.32800581878906887 
2.7755575615628914e-17 -0.59910349281752517 1.3373260263876994 -0.46861012230280263 
-0.50154612414522703 0.64687363486989358 -1.2410320552628198 2.7755575615628914e-17 
-1.1729884105035335 -1.9453952049024152 1.7404192729395995 -0.13379280962500223 
0.0978112255502957 -0.20614795404414449 0.085111080939899192 -0.011733039695200242 
0.52440733549433083 0.22438689656312447 -0.38737864003474343 -0.56533078272092241 
0.082559906225760177 -0.22537510034396882 -0.7445870281490965 1.0345255123839663 
-0.88193264692572115 -0.97808237625545846 1.2081871727077984 0.19949216311537077 
-0.19528048642982082 0.57081400315979169 -0.50244910635130835 -0.35202003839412932 
-0.37950377445304401 0.28547424668834204 -0.39533608706919493 0.013720022903662459 
-1.3080533498157076 1.0019822138882819 -0.037697980429786608 -1.6721063079605483 
-0.20191493883228123 -0.56229208147389764 0.93601488125656018 -0.49865865536171383 
-0.00032213056179309849 0.13616206282438731 -0.19767664752910316 -0.34466970828186988 
0 -0.090252752083703924 -6.9388939039072284e-17 -3.4694469519536142e-18 
-0.044147387958570899 -1.4945079372651313 1.2584377513179266 1.2543360960027166 
0 -0.090252752083703924 -6.9388939039072284e-17 -3.4694469519536142e-18 
-0.16392447306292135 0.13771302496774021 -0.04134238501032584 -0.4607031545097835 
-0.12652381383370098 0.16866781437959238 -0.33202200172726404 -0.27571850096370992 
0 0 0 0 
0 0 0 0 
-0.5399958995177101 -0.23693563141685436 2.2924973197974428 -1.5040623868278613 
-0.45823462348063299 -0.40579739308356061 0.54645476659609404 0.0034183036377771567 
0 -0.40215592547754714 0.76903685010173195 0.36798283527764319 
-3.4694469519536142e-18 -2.1700500930267275 2.9520226801479179 6.9388939039072284e-18 
-0.6306865498810027 0.15269446045589349 0.10802806922344631 -1.2834798406678369 
-0.35923592393737269 0.25983749701067987 -0.25773239883571508 -0.10085100497596912 
0 0.45900807307219171 -0.27594512961018058 -0.25576932392137713 
-0.053449059674682373 0.09185143101078283 -0.045152573144672095 -0.28436258693563449 
-5.2041704279304213e-17 -1.145584216165471 0.54878216093949983 0.18443987199161188 
-2.2339736069938185 0.95718791513013579 0.18780119620835178 -1.0125381331456056 
-0.19208464362986577 -0.04304075161923708 0.35480161187817977 -0.074704175031183678 
-0.32577641667590262 -0.57649701908741668 1.0106978362656489 -0.61874680250537395 
-0.5118154624909852 1.4604528718161027 -0.85064869572956359 -1.3986208025063007e-17 
-0.62771592264408227 0.57461410540231184 -0.90960827573369973 -0.022255384687957319 
-0.63309279326294154 -0.015545354469955711 0.0029018147744866614 -0.4855911962931464 
0 0 0 0 
-1.3877787807814457e-17 1.0639550970376737 -1.6050521598110081 -3.4694469519536142e-17 
0.1752826256820636 -0.67392831888397953 0.63570045737120118 0.037376499394128924 
-0.53887849913827734 -0.020207651315348275 0.025456369567521234 -0.0100155069584398 
-0.024461126921367107 -0.47877949221737737 0.52958177838782328 0.09320446880694451 
-0.27724270470716544 0.050140714552229633 0.14054125148296784 -0.56576391018522465 
-0.051874079460328223 0.33857036989492223 -1.0146379442344529 0.43519893336595072 
-1.2279607331140785 0.069111638092006725 0.26089347754546705 0.088617579147926909 
0.18510075038424648 -0.44005236530758779 -0.58571635237045228 1.6808855209297113 
-0.80114607212400391 0.37559165659489829 -0.50431619748425138 -0.92181142207049271 
-1.3877787807814457e-17 -2.1891049105579246 0.40485204405665504 3.0228039414832875 
-0.78702804144184679 0.37710838566052457 -0.7122295217753809 -0.38033247952645277 
-0.97389269115888777 0.74444576443533894 -0.59871443787596867 -0.72260404888863916 
-0.047017653772620412 0.517790731276488 -0.64432432720592092 -0.28638328948903813 
0.052545292451047415 0.08526568437853585 0.11707717448010084 -0.10627104832394629 
0.28434835896787769 0.13329921474563261 0.57211635772538794 -1.799945224083648 
-0.93099158736223364 -0.87555830062088447 0.76555782719136278 0 
-0.22976053392141055 0.14379097863072871 -0.66036819463204111 0.45683498310953119 
-0.26714131034347099 -0.22907273833819375 0.26517668166207037 -0.051297432422307387 
-0.117565358224969 -0.54832965141294721 0.73357442157128372 -0.15112263749772042 
-0.21146842749550243 -0.13960467966201995 0.27593810766411431 -0.48908935540681236 
0.033038859187478564 -0.059358276815508426 0.18385066370757644 -0.88049646670201398 
-0.41993886606558767 0.059952738774071257 -0.23250401789800446 -0.2039885087812936 
-0.43330752210882184 0.43586612587773754 0.29717825076519311 -0.52352529948522908 
0.41190422523485004 -0.49566621642785569 0.23967085385601533 0.8306220944490359 
0.016931817460204477 -0.053008719768362536 0.11548767560550019 -0.61331587544876709 
-0.17455458570623489 -1.546522269963934 0.64684590496994399 0 
2.2223353812905398 -1.6967878035427817 -2.0526240557818713 -1.8072385094198193 
-0.31821078769425809 -0.64343822800609496 0.42197011361853626 0 
-0.37192621135755505 -0.16399477393003703 0.3926799463493103 -0.055681866237620684 
0.49882483981364789 -0.83767573526646399 -0.24738493754340896 1.0732715673597841 
-0.12235561224060912 0.44106492710093875 1.0531988594301889 -2.0262026780659887 
0.092221197896617271 0.72543519154643032 -0.77660579620053005 0.19572049456757068 
0 0 0 0 
-0.091655876189528418 0.2572329270971368 -0.50866303850056371 -0.31085775252884207 
-0.0003404435338542032 -0.2984779897068992 -1.083727562510941 0.71665497478323792 
2.8823503662620977 -3.2387629916613521 -0.87706855890352164 -2.0434696140918174 
0 0 0 0 
-0.27938881889965317 0.85867891349030367 -1.3408318316716197 -0.48146571051153531 
-0.05703149326683285 0.52802998584103789 -0.10863106673080286 -0.12212478521107922 
-0.64048808695099191 1.0560466906176149 -0.9078596257518331 -0.91955310521471301 
0 0 0 0 
-0.36651121056315861 0.10539794726106107 0.32272066096137442 -0.59629210356481799 
-0.51868588966103302 -0.47535034085713257 1.5617154780325815 1.0408340855860843e-17 
-0.69689075006601631 0.10967329758843564 -1.1128070348612413 0.82763555714656079 
0.10257069665750981 -0.25029816274176975 -0.4144663467524089 0.046683612362206146 
0.28052055421853972 -0.78452639347766451 0.25447980244407997 0 
-0.61989421613377438 0.66940171525399694 -1.187547464277656 -0.028109894525558766 
0.074213584983242625 -1.1311407258228365 1.2066683729039107 -0.5065703979441426 
0.23708381230077755 -0.082681668384354354 -0.19340125143406312 -0.1326641454802141 
0.83863461717114962 -0.45564663836326808 1.2843850902570939 0 
-0.013855372418857165 -0.09750317147654454 -1.1583536847797347 1.222483504319001 
-0.15210550302135994 0.37952209057534469 -0.59213110004625014 -0.019796921871224293 
-0.89957243899324779 0.12333788092911037 -0.072858533858040281 -0.79575878582287762 
-0.07602701157147812 0.61546348680046259 -0.054226888670485557 -0.019796921871224348 
0 0 0 0 
0.67390157463012856 0.52145999325903092 -1.8099853260002807 -1.4078046818807617 
-0.52044152768876195 0.53209028950430004 -0.68167518100028213 -1.9600369607697661 
0 0 0 0 
-0.27400485277241626 0.56817779602911256 -1.2325788902812245 -0.17493699009520033 
-0.64891476211370391 0.85417851749812668 -0.85804172669378131 -0.60194438134180384 
0.39980510713434353 -0.37010177544739803 0.04551727420781515 0.038221408355626714 
-0.11812980795655054 -0.22927291480562084 0.65543408206068055 -0.88560601054828936 
0.71987891415763972 -0.7155362533552696 0.08506729514023359 1.239252190062428 
0 -1.4227410972669257 1.7788151935442627 0.25542967253189619 
0.39691057211713493 -0.48309277471779477 -1.2642861292463625 1.1972017590397872 
-2.0816681711721685e-17 0 -1.1435803377245692 1.8889483411422519 
0.065682003600119734 -0.2627609700738418 0.10633190949361146 0.48725798724751868 
-0.16867990860916438 0.18455966658158351 -1.4479132087431597 0.25487592056031061 
0.059351553829510066 0.0028524255504463782 -0.55826816269381396 0.096568756830814409 
0.2657142558413757 -0.96805055949648966 0.79042314203113007 1.4015990436805481 
-0.79178941020268134 0.47436104495203657 1.6073475432350119 -0.83413771722927077 
0 0 0 0 
0.50123135302875954 -0.0092993585595404805 -0.14058485564835085 -0.19275810422022313 
0.16306086142944753 0.17421280105516174 -0.21903032574676159 -0.57173342630314583 
-0.808758512188963 0.89552942412743852 -0.076079895277648801 -0.94907707779611616 
-0.88888888888888884 0.88888888888888884 -0.88888888888888884 -0.88888888888888884 
-0.4738376739784691 0.51872369043162281 -0.81408906223179456 -1.1303515786030542 
0.30184388661903733 -0.35807859213002996 -0.647638328376407 0.7577668923647275 
-1.214306433183765e-17 3.8380756905986857e-16 1.288464358426453 2.0816681711721685e-17 
0.09574852104208588 -0.1710457509445216 0.20117086158985653 -0.33405972408859641 
-0.17120278138434236 0.47786515783710609 -0.21854864295619086 -0.087568244880109364 
-0.37779641464899999 -0.015295227923405479 -0.024233941827218095 -0.069457607468400351 
-0.48786637727419185 -0.30820635408897779 -0.81064348559718613 0.88657125093565581 
-0.81348091681325108 -0.89815827614866428 1.4740156131409934 -0.74093647750676084 
0 0 -0.4440170727668668 -1.3877787807814457e-17 
0.65387569851807215 -0.76380350401429675 0.54364248238529456 -0.2033151700047908 
-0.74312781525249882 -0.19272788117040388 0.54399390930593272 1.0284530933884357 
0 0 -0.4440170727668668 0 
0.49408474428823995 0.95980463328155596 -1.0793974952550105 -0.49644321250235629 
-0.51385758281130522 0.37062177818045683 -0.29320486101468785 -0.49094331376116257 
-0.22636393987516645 0.072550733782946075 -0.34270661713315059 -0.40462420163119267 
-0.22636393987516645 0.4112722329014159 -0.3427066171331507 0.16191165384099543 
-0.069839993055346772 -0.13290551911305121 -1.0401145328726145 1.8503860333768913 
-0.37902752067058282 0.61299210893641598 -0.76261919844959558 -0.31390258554228118 
-0.49071655260855029 0.34027201932535417 -1.1646361038316027 -0.17493573163353468 
-0.17838598324481275 0.39984134341277722 1.3877787807814457e-17 -0.47805460992673587 
-0.60444764820182273 0.20735888204753583 -0.39916306145059055 -0.1788173676367131 
-0.27736778144020879 0.40965771220018543 0.089494486276208193 -0.63092667183150564 
0 0 0 0 
0.25990447639700104 -0.46654199869898189 0.62230374240356956 -0.41928729274753734 
0.18520753255094446 -0.13094611494076289 -0.78675362072722654 -0.20710274123907932 
-1.2946238425292684 1.5424581255282828 -0.27708371068439808 0.39480902552031549 
3.4694469519536142e-18 -8.6736173798840355e-18 0 0 
0 -0.1411654041290924 0.54643025402629974 -0.46102848984113431 
-0.14658561364204287 -0.2525083373227664 -0.70075601497495998 1.0257366126445109 
-0.33444406168022223 -0.25726934166121312 0.30163668813255384 0.6998488564666927 
-0.64282013640169589 -1.2536511343477066 1.3028733296123467 -0.074507467060389826 
3.5778742400968726 -2.8196479013432696 -2.0397198030871189 -3.6145095433445813 
0 -0.023963052871684778 0 0 
0 -0.10391630015780479 0.057365835863286758 0 
0.3821823727127035 -0.30145845112934572 0.57127814703425694 0.48146363490335575 
-0.18486119050295455 -0.05143618179224016 -0.65913251912081849 0.43299772733155711 
-0.38844488022025869 0.39426221178722815 0.18103253262792152 -0.53385398447249621 
0 -0.92370701561367841 0 3.6048713892832298 
0.057465251180798163 -0.51479455997503243 0.10660214329481209 0.54174417455709789 
0.33709653777087634 0.18157197618800264 -0.38972963416153583 0.069412044214803931 
-0.57285545357575329 0.26694649761398648 -1.535089534077702 0.32819278573580057 
-0.533739547769852 0.17191446484537426 -0.10415078939262278 -0.26158356604606398 
0.39429771144825448 -1.0341114169124346 0.61577387194108835 -0.79487221148187526 
0.64673375001624622 -0.76731769669647343 0.070880665245662833 0.99741417238500396 
-0.26673672548893523 -0.36699230892397539 0.68332831671731686 3.9032580542311166 
-0.26673672548893534 1.7347234759768071e-18 0.48339099469960467 -3.410905708445557 
-0.25059861122520666 1.0532205211257035 0.54561851275447493 8.6736173798840355e-19 
0.76342464297570567 0.14409521410236481 -0.98794276047876728 -0.52000021483348069 
0.032683503077083904 -0.31665149046930058 0.2963276620058834 -0.35502668564305584 
-0.25059861122520632 0.24923241315296149 -0.91784940010931892 0.52175149201642013 
-0.276116711862466 0.26962374899782793 -1.3191429536522246 0.81313716927984514 
0 0 0 0 
0 -1.9504390509421503 0 2.1556770861929042 
-0.055027501074109808 0.73461367825038326 -0.092984720661656861 -0.37732544992355871 
-0.97355160423140463 -0.33627113311352225 0.370840320679658 -0.043822873588543643 
-0.1349959249548722 0.38319546017902639 -0.15589923090040825 -0.31274025058437988 
-0.41675786678558946 0.17115204339162798 0.40094461480798615 -0.081524445313936975 
-0.091081895739691721 0.079581486317862937 0.068620211896057437 0.72923101504967003 
0 -1.6853196953799559 -1.7347234759768071e-17 0.88602665104651768 
0.30642231505264017 0.034073424847828167 -0.97988724208121625 0.4741450300991733 
-0.9614304462916794 1.1998195246686738 -0.76972421503816868 -0.5938432431297298 
-0.17575908048386857 0.49649121124955375 -0.54628739959972417 -1.8031912972825019 
-0.096298999091238097 -1.1797932374100972 1.3047436301980309 -0.78432468998928584 
0.018253347441749862 0.57006752363808277 -0.27764387849214617 -0.27537596437865475 
-0.064194258325884629 0.37331226134941653 0.61870900868523893 -1.8994601990684727 
0.5147946832534751 0 0 0 
0.030830016570078604 -0.58092567104323622 -0.23129385027713334 0.98699147193915349 
0.5147946832534751 0 0 0 
0.15500490977126957 -0.54504327822115517 1.3343188098150702 -0.0042949455893351732 
0.15500490977126896 0 -0.55714661114169539 0 
0.41060369559794335 -0.14939129084156391 0.59552090327609597 0.35765365701185126 
-0.79065742280812867 -1.0875354541216122 -0.55714661114169528 0.0046635924375393756 
-0.088384752164881661 -0.084527693150785913 -0.074015034043191485 0.41830124368667843 
0.15500490977126896 0 -0.55714661114169539 0 
-2.0228745068511271 0.28079253376572016 0.70205157278714425 -1.2801269108973561 
-0.2363886877982819 0.15695004803775703 -0.08534309022163844 -0.77733743338660899 
0.15500490977126896 0 -0.55714661114169539 0 
0 -0.91577561514807371 0 2.4034363717153679 
-0.11088418442582532 0.34528124341018868 -1.106847779613326 0.08618194069131023 
0 0.34607136622912471 0 -0.93733939632945895 
-1.3974920143305598 0.71254528812439033 0 -0.93733939632945895 
0.36726299533699269 -1.188124054542169 0.61397467429815855 1.0216164700810284 
-0.37929119603968697 0.30976372988161061 0.63921625084148481 -1.1991036916790438 
2.9490299091605721e-17 -0.41564040713505968 0 1.0380585525709856 
2.9490299091605721e-17 -0.41564040713505968 0 1.0380585525709856 
-0.20229534975112118 -0.17545800359520883 0 0.49090315057931083 
-0.18192128238990563 -0.13074284401149219 0.62942343771988152 -0.71825736532611595 
-0.52328942264201583 0.053565369756853554 -0.2797544665345531 0.25146933543463701 
-0.021787891846849664 0.031418641038139197 0.38153856430237482 -0.16468753010862602 
-0.47172619818549721 -0.052327067106476784 0.21811709343036506 0.058679787382564672 
0.18172512260572327 0.14164115178703973 0.67463988943022224 0.074919635089091455 
-2.1572037841749849 -0.53516177256096475 0.74062326173783366 -0.14564794193581421 
0 -0.53516177256096453 0.20546709379561812 0 
-0.10360242376038538 -1.1032119628428705 0.50615339039326812 0.58711197104062796 
